#include <math.h> 
#include <string.h> 
#include "./include/k2c_include.h" 
#include "./include/k2c_tensor_include.h" 
typedef float fixed;
size_t scaling_factor = 0;
size_t shift_factor = 16;


void simplenet(k2c_tensor_int* conv2d_input_1_input, k2c_tensor* dense_1_1_output) {

	size_t conv2d_stride[2] = { 1,1 };
	size_t conv2d_dilation[2] = { 1,1 };
	float conv2d_output_array[10816] = { 0 };
	k2c_tensor conv2d_output = { &conv2d_output_array[0],3,10816,{26,26,16, 1, 1} };
	int fp_conv2d_output_array[10816] = { 0 };
	float_array_to_fixed(conv2d_output_array, fp_conv2d_output_array, 10816);
	k2c_tensor_int fp_conv2d_output = { &fp_conv2d_output_array[0],3,10816,{26,26,16, 1, 1} };
	float conv2d_kernel_array[144] = {
	+1.06546685e-01f,+8.92592594e-02f,-7.54418433e-01f,-2.54045457e-01f,+9.59922969e-02f,
	+2.27549493e-01f,-3.04291751e-02f,+1.33596063e-01f,+2.13198453e-01f,-2.33887583e-01f,
	-9.68485713e-01f,+2.14404732e-01f,-3.28032047e-01f,+8.21006484e-03f,+1.38586149e-01f,
	+5.45796119e-02f,-1.34547725e-01f,+1.82431251e-01f,-5.62687159e-01f,+7.91481882e-02f,
	+1.87285021e-01f,+4.15631056e-01f,+2.84270972e-01f,-1.30349219e-01f,+3.81309427e-02f,
	-9.26890969e-02f,-1.26430690e-01f,-2.57946640e-01f,-4.12977785e-01f,+5.96439280e-02f,
	-9.15032402e-02f,+4.21757132e-01f,-3.43342304e-01f,+1.42815635e-01f,-7.11582780e-01f,
	+1.62399471e-01f,-5.51394463e-01f,+2.95616299e-01f,-4.22661722e-01f,+6.52676597e-02f,
	+1.35614693e-01f,-3.03138971e-01f,+2.34864518e-01f,-3.94324452e-01f,-7.20825195e-01f,
	+6.06995914e-03f,-3.13465178e-01f,+4.12192717e-02f,+1.71675354e-01f,+6.98883235e-02f,
	+3.21843922e-01f,+1.80151373e-01f,+8.75355452e-02f,+3.01756002e-02f,+4.22710255e-02f,
	+1.72228187e-01f,-2.18839079e-01f,-2.60319501e-01f,-5.69894850e-01f,-1.24391787e-01f,
	-8.26684892e-01f,+1.88382238e-01f,+2.38090828e-01f,-4.00694549e-01f,+2.07813740e-01f,
	+1.96769148e-01f,+1.47357315e-01f,+3.86176765e-01f,+2.81642735e-01f,+2.33326182e-01f,
	+8.94868821e-02f,+2.99172699e-01f,+5.51851578e-02f,+1.10881656e-01f,+6.55709207e-02f,
	-4.66264263e-02f,-2.21583158e-01f,+6.23352453e-02f,+1.75759763e-01f,+1.40485883e-01f,
	-2.10763156e-01f,-7.76269659e-02f,-5.53241193e-01f,-2.43731946e-01f,-1.69649392e-01f,
	+3.66554558e-01f,-1.52031884e-01f,+1.17099322e-01f,+2.20862448e-01f,+5.47819026e-02f,
	+4.96570885e-01f,+1.13871090e-01f,+5.50812669e-02f,+4.06107046e-02f,-3.56791317e-01f,
	+2.32015833e-01f,+2.16482906e-03f,+2.52990574e-02f,+3.87649268e-01f,+3.97335976e-01f,
	+6.89593032e-02f,-7.45837390e-01f,-1.57253608e-01f,-2.32331693e-01f,+2.90230345e-02f,
	+4.79362100e-01f,-3.34483951e-01f,-1.06487922e-01f,+2.04210747e-02f,+2.46782955e-02f,
	-8.03610831e-02f,-4.89156932e-01f,+3.06820512e-01f,+4.70476300e-02f,+4.68591660e-01f,
	-1.22069798e-01f,+2.32059062e-02f,-6.88998520e-01f,+2.46630564e-01f,-2.25815624e-01f,
	+1.24711603e-01f,+7.99549930e-03f,+2.06597909e-01f,+3.05984974e-01f,+6.11423850e-01f,
	+2.05292508e-01f,+3.38717490e-01f,-2.32639328e-01f,+1.04092941e-01f,+1.32094640e-02f,
	-8.11951980e-02f,-6.35149658e-01f,-1.53311089e-01f,-5.40203869e-01f,+2.25535467e-01f,
	+2.29959726e-01f,+3.44902873e-02f,+2.20724940e-01f,+3.87517512e-01f,+2.81749099e-01f,
	+3.85416061e-01f,+5.84576465e-02f,-9.16414484e-02f,+2.52076060e-01f, };
	k2c_tensor conv2d_kernel = { &conv2d_kernel_array[0],4,144,{ 3, 3, 1,16, 1} };
	int fp_conv2d_kernel_array[144] = { 0 };
	float_array_to_fixed(conv2d_kernel_array, fp_conv2d_kernel_array, 144);
	k2c_tensor_int fp_conv2d_kernel = { &fp_conv2d_kernel_array[0],4,144,{ 3, 3, 1,16, 1} };
	float conv2d_bias_array[16] = {
	-1.06661044e-01f,-1.45565718e-01f,+7.29633272e-02f,-2.73182336e-02f,-1.67485643e-02f,
	-1.00779003e-02f,-6.88185096e-02f,-1.07739925e-01f,-1.62240550e-01f,-3.78187560e-03f,
	+1.26496740e-02f,-8.94299615e-03f,+5.72053120e-02f,-1.47028103e-01f,-7.57714137e-02f,
	-4.51132990e-02f, };
	k2c_tensor conv2d_bias = { &conv2d_bias_array[0],1,16,{16, 1, 1, 1, 1} };
	int fp_conv2d_bias_array[16] = { 0 };
	float_array_to_fixed(conv2d_bias_array, fp_conv2d_bias_array, 16);
	k2c_tensor_int fp_conv2d_bias = { &fp_conv2d_bias_array[0],1,16,{16, 1, 1, 1, 1} };


	size_t max_pooling2d_stride[2] = { 2,2 };
	size_t max_pooling2d_pool_size[2] = { 2,2 };
	float max_pooling2d_output_array[2704] = { 0 };
	k2c_tensor max_pooling2d_output = { &max_pooling2d_output_array[0],3,2704,{13,13,16, 1, 1} };
	int fp_max_pooling2d_output_array[2704] = { 0 };
	float_array_to_fixed(max_pooling2d_output_array, fp_max_pooling2d_output_array, 2704);
	k2c_tensor_int fp_max_pooling2d_output = { &fp_max_pooling2d_output_array[0],3,2704,{13,13,16, 1, 1} };


	float flatten_1_output_array[2704] = { 0 };
	k2c_tensor flatten_1_output = { &flatten_1_output_array[0],1,2704,{2704,   1,   1,   1,   1} };
	int fp_flatten_1_output_array[2704] = { 0 };
	float_array_to_fixed(flatten_1_output_array, fp_flatten_1_output_array, 2704);
	k2c_tensor_int fp_flatten_1_output = { &fp_flatten_1_output_array[0],1,2704,{2704,   1,   1,   1,   1} };
	float dense_output_array[64] = { 0 };
	k2c_tensor dense_output = { &dense_output_array[0],1,64,{64, 1, 1, 1, 1} };
	int fp_dense_output_array[64] = { 0 };
	float_array_to_fixed(dense_output_array, fp_dense_output_array, 64);
	k2c_tensor_int fp_dense_output = { &fp_dense_output_array[0],1,64,{64, 1, 1, 1, 1} };
	float dense_kernel_array[173056] = {
	+7.35230930e-03f,+2.28129439e-02f,+7.97590613e-03f,-2.91411835e-03f,+4.66802418e-02f,
	-1.13687189e-02f,-3.60402279e-02f,+4.32539582e-02f,+9.10695363e-03f,+3.50627005e-02f,
	-1.57525923e-04f,-2.33560987e-02f,-1.42687056e-02f,+3.72651443e-02f,+6.90631568e-02f,
	+1.24529917e-02f,+2.14708298e-02f,+1.30508905e-02f,+5.13228215e-02f,+3.41014341e-02f,
	+5.07257916e-02f,+2.22723652e-03f,+4.15751263e-02f,+1.23547204e-02f,+1.06065618e-02f,
	+1.60648078e-02f,-3.36901285e-02f,-2.67755724e-02f,+6.40146211e-02f,-2.70537995e-02f,
	-1.05752032e-02f,+4.13240455e-02f,-1.24075273e-02f,-3.96081107e-03f,+4.93629184e-03f,
	+5.26963472e-02f,-3.78479622e-02f,+2.11587176e-02f,+2.16718968e-02f,+2.24374607e-02f,
	-2.02833675e-02f,-1.81623530e-02f,-2.06977408e-02f,-9.07516852e-03f,+4.22563553e-02f,
	-5.01818024e-04f,-3.40166409e-03f,-5.63658588e-02f,+2.88187270e-03f,-4.28842865e-02f,
	+6.14394136e-02f,-4.86336946e-02f,+5.10455333e-02f,-4.60543148e-02f,+1.82749871e-02f,
	-3.04722264e-02f,+5.10967970e-02f,+2.92176977e-02f,+2.18693987e-02f,-7.53307110e-03f,
	+7.16702873e-03f,-3.73341665e-02f,+1.64024215e-02f,-3.24483551e-02f,-9.26072593e-04f,
	+1.72349550e-02f,-2.58993581e-02f,-1.15540167e-02f,-2.45526228e-02f,+1.09307934e-02f,
	+3.09705883e-02f,+8.51522479e-03f,-6.83643331e-04f,+6.02385141e-02f,+3.56901847e-02f,
	-3.52748744e-02f,+5.13136387e-03f,+4.05533835e-02f,+8.36807303e-03f,+1.13868341e-02f,
	+6.41688928e-02f,+1.28244865e-03f,-1.86372977e-02f,+2.07156986e-02f,+1.86159108e-02f,
	+4.29206640e-02f,+1.62057206e-02f,-4.19653766e-02f,+2.12790631e-02f,+1.84082799e-02f,
	+5.10250125e-03f,-9.00618825e-03f,-1.75049696e-02f,+5.79099059e-02f,+2.43953262e-02f,
	-2.78411973e-02f,+1.61341056e-02f,-3.14987674e-02f,+1.43695446e-02f,-2.28100028e-02f,
	-2.32881401e-02f,+1.72151942e-02f,-8.57137796e-03f,+1.45681365e-03f,-2.32958701e-02f,
	-2.94121020e-02f,-7.17643881e-03f,+3.39484140e-02f,-6.83087669e-03f,+3.05506624e-02f,
	-1.47124743e-02f,-6.50614593e-03f,-2.82436758e-02f,-4.81614145e-04f,-2.08671764e-02f,
	+3.55897434e-02f,-1.08483145e-02f,-9.69887525e-03f,-5.00677973e-02f,-3.09233796e-02f,
	+5.34443520e-02f,+2.35459134e-02f,+1.89877134e-02f,-4.34376858e-02f,+7.51339318e-03f,
	-2.68824454e-02f,+2.58464497e-02f,-2.87893917e-02f,+5.23560587e-03f,-1.61198583e-02f,
	-2.76940055e-02f,+5.79012707e-02f,+1.82724483e-02f,+4.25889716e-02f,+2.77919155e-02f,
	+3.17574851e-02f,+3.99659500e-02f,+7.31978491e-02f,-9.14485008e-02f,-6.82106614e-02f,
	-2.27536932e-02f,+2.78384984e-02f,+1.45198956e-01f,-1.55091267e-02f,+7.24748373e-02f,
	+5.30311167e-02f,+4.94140841e-05f,-2.75408616e-03f,+3.78527306e-02f,+2.13146415e-02f,
	-9.04217735e-03f,-7.90339559e-02f,-8.86627212e-02f,-1.59854200e-02f,-5.60003556e-02f,
	+1.80022735e-02f,-1.00109065e-02f,+6.51091710e-03f,+9.15523097e-02f,+9.27237868e-02f,
	+4.08809260e-02f,+5.46131656e-02f,+2.65386980e-03f,+6.70808041e-03f,-4.61294055e-02f,
	-5.85462041e-02f,-1.01025738e-01f,-4.86152545e-02f,+2.74940133e-02f,+1.18076634e-02f,
	+2.50750780e-03f,-2.29776464e-02f,+6.00554980e-02f,+3.93028818e-02f,+6.37013242e-02f,
	-8.52753818e-02f,-3.08639444e-02f,-1.14192450e-02f,+6.06411323e-02f,-2.92848386e-02f,
	+3.67286690e-02f,-5.78176491e-02f,+2.63885558e-02f,+3.54074650e-02f,+8.34277123e-02f,
	+3.66473757e-02f,+7.07200915e-03f,+9.67566203e-03f,+2.05374453e-02f,-3.94481197e-02f,
	-5.51087968e-03f,-2.94070542e-02f,+3.54595333e-02f,-3.83155681e-02f,-2.51640454e-02f,
	+1.82714798e-02f,+6.83908770e-03f,+2.59698573e-02f,-4.44494598e-02f,-1.57535356e-02f,
	-2.55298894e-02f,+5.59205636e-02f,-3.25828046e-02f,-3.72453257e-02f,+5.45388535e-02f,
	+3.31261978e-02f,+2.53100768e-02f,+1.83536503e-02f,+5.14218397e-02f,+2.55679302e-02f,
	-1.04831140e-02f,+1.93333663e-02f,+3.62728573e-02f,-2.20364239e-02f,-2.35157534e-02f,
	+4.77432273e-02f,-2.78783534e-02f,+3.60107422e-02f,-1.40576239e-03f,-2.74726674e-02f,
	+5.20456508e-02f,-2.69907266e-02f,+1.33498376e-02f,-2.05146838e-02f,-1.19480845e-02f,
	+4.00069952e-02f,-3.80823360e-04f,+2.31573656e-02f,-2.17938684e-02f,-5.08491956e-02f,
	-2.86437571e-03f,-5.43811135e-02f,-2.46205088e-02f,-3.96355102e-03f,-4.57868427e-02f,
	-3.19326036e-02f,+1.68808810e-02f,-2.43368316e-02f,+2.93054972e-02f,+2.73276828e-02f,
	-4.66829985e-02f,-2.12916452e-02f,+5.06710708e-02f,+2.62632463e-02f,+5.97648062e-02f,
	-3.21811140e-02f,-4.69901264e-02f,+1.20513868e-02f,+2.65548229e-02f,+6.04043752e-02f,
	+5.48600703e-02f,-1.33799519e-02f,-4.17629536e-03f,-3.17051522e-02f,+1.81920994e-02f,
	+2.30187401e-02f,+3.70704941e-02f,-2.39245258e-02f,-4.11715508e-02f,+3.44760530e-02f,
	+3.63449310e-03f,+2.98540331e-02f,-1.60208847e-02f,+6.39898106e-02f,+2.31540650e-02f,
	-1.71115585e-02f,-3.51875126e-02f,-2.31080186e-02f,+3.32666859e-02f,-3.37133184e-02f,
	+6.99894875e-02f,-4.53746095e-02f,-3.17070400e-03f,+6.45604581e-02f,-1.77822802e-02f,
	+7.37958550e-02f,+1.74824763e-02f,+3.73582765e-02f,-2.00767964e-02f,+5.36521617e-03f,
	-2.05802992e-02f,-1.50586320e-02f,-6.83217077e-03f,-1.91151816e-02f,-1.73653532e-02f,
	+6.13096170e-03f,+7.43650459e-03f,+2.19033868e-03f,-2.36582160e-02f,-1.55727388e-02f,
	+3.38787995e-02f,-2.83437930e-02f,-5.12418635e-02f,-1.17812306e-02f,-1.44009581e-02f,
	-3.08828019e-02f,+9.16382577e-03f,+3.78387398e-04f,+4.18539904e-02f,-1.87537428e-02f,
	+1.68048590e-02f,+4.43096943e-02f,-2.00011302e-02f,+1.70007087e-02f,-5.07890433e-02f,
	+4.68002306e-03f,+3.02889403e-02f,-4.70761657e-02f,-1.99621879e-02f,-1.98628437e-02f,
	+8.86533596e-03f,+2.44492628e-02f,-1.14698494e-02f,-1.90006364e-02f,+5.50738499e-02f,
	-2.31885053e-02f,+5.32063395e-02f,-5.69414161e-02f,-1.60378509e-03f,-1.49056688e-02f,
	-3.11338585e-02f,+4.20222059e-03f,+2.54709572e-02f,+8.34202208e-03f,+3.14299315e-02f,
	-3.46957371e-02f,+3.06704063e-02f,-9.70508624e-03f,+5.22289202e-02f,-7.50893122e-03f,
	-2.71743294e-02f,-5.19748442e-02f,+4.45509814e-02f,-2.66608931e-02f,+9.29074362e-03f,
	+1.23211918e-02f,+4.66308333e-02f,-1.15986019e-02f,+1.22951325e-02f,+2.36055776e-02f,
	-3.84788476e-02f,-1.95901692e-02f,-4.15267497e-02f,+3.06894947e-02f,-9.35327820e-03f,
	+5.95815778e-02f,+1.41256033e-02f,+8.63884389e-03f,-1.60020422e-02f,-3.10586020e-02f,
	+6.41469881e-02f,+5.05037457e-02f,+3.75691727e-02f,+3.60306576e-02f,-1.63883828e-02f,
	+1.41008925e-02f,+7.52875721e-03f,-6.09248690e-02f,-3.62568833e-02f,+5.56944078e-03f,
	+3.39419693e-02f,-5.50315939e-02f,+2.74649430e-02f,+2.40805396e-03f,-2.50241514e-02f,
	+4.92003486e-02f,+5.39056808e-02f,-4.51188199e-02f,+4.51062387e-03f,+2.15543620e-02f,
	+4.37635407e-02f,-4.64870781e-02f,+2.49482952e-02f,-6.61954209e-02f,-2.99157891e-02f,
	+8.07302445e-03f,-3.18212584e-02f,+6.77642822e-02f,-3.07831410e-02f,+3.34202163e-02f,
	-2.09585112e-03f,-2.80633047e-02f,-4.52788621e-02f,-2.80672424e-02f,+1.31621137e-02f,
	-4.70894575e-03f,+2.91519314e-02f,+2.48099156e-02f,+6.88698292e-02f,-1.13008013e-02f,
	+2.30839923e-02f,+3.45675200e-02f,-2.26752814e-02f,+5.42116677e-03f,-4.92234640e-02f,
	-2.52451394e-02f,+3.64243537e-02f,+4.20102254e-02f,+6.66747391e-02f,+1.52336452e-02f,
	+6.55091256e-02f,+9.88056883e-03f,-3.60954441e-02f,+9.19872057e-03f,-2.22400520e-02f,
	+4.56722528e-02f,+1.39496364e-02f,-3.03034429e-02f,+2.82573164e-03f,-1.78598892e-02f,
	-2.71489262e-03f,+2.07594484e-02f,+1.74386799e-02f,-3.83427227e-03f,+5.59155084e-02f,
	+1.41275274e-02f,+5.18004503e-03f,+2.65621170e-02f,-1.85559958e-03f,-3.80546926e-03f,
	+3.87586802e-02f,+2.85182218e-03f,-6.45225123e-02f,-2.19841246e-02f,-4.06295545e-02f,
	-1.12163275e-02f,+4.50776219e-02f,-4.19928394e-02f,+1.95988938e-02f,-9.81800444e-03f,
	+4.96800393e-02f,+2.06579454e-02f,-3.56804207e-02f,-3.89670418e-03f,+3.86652537e-02f,
	-1.16537577e-02f,+2.24750843e-02f,+1.64952374e-03f,+5.30920550e-03f,+6.81802481e-02f,
	+6.10319152e-02f,-7.33348029e-03f,+1.47503046e-02f,-5.45045082e-03f,+2.15677358e-02f,
	+4.29008082e-02f,+7.47490823e-02f,+4.38785180e-03f,-3.91787626e-02f,-1.81378666e-02f,
	+3.53647284e-02f,-1.75127685e-02f,+3.33515182e-02f,-3.35041285e-02f,-1.31544042e-02f,
	+1.66761111e-02f,-1.99533682e-02f,+8.51121265e-03f,+4.29084376e-02f,+2.40426622e-02f,
	+2.47297157e-02f,+3.65833915e-03f,+6.98937625e-02f,+3.06340344e-02f,+4.89517860e-02f,
	-1.38941072e-02f,+2.97359303e-02f,+1.89784467e-02f,-3.18429507e-02f,-4.76249959e-03f,
	+4.41684276e-02f,-2.94515193e-02f,+1.30858403e-02f,-1.41222421e-02f,+2.56676320e-02f,
	+1.50061566e-02f,+5.41127324e-02f,+3.12494002e-02f,+2.20788810e-02f,+2.06099730e-02f,
	-8.30365345e-03f,+4.47512185e-03f,-5.65295108e-03f,+5.10386154e-02f,+2.15823948e-02f,
	+1.51044289e-02f,+7.00994534e-03f,-5.53060435e-02f,-3.25806886e-02f,+1.51941702e-02f,
	+1.31478515e-02f,-1.42028031e-03f,+5.52659705e-02f,-1.29016507e-02f,+4.57830243e-02f,
	-5.67374751e-03f,+3.43628302e-02f,-9.96981561e-03f,+4.98135053e-02f,-1.52909961e-02f,
	-1.97721515e-02f,+1.06619531e-02f,-2.37571336e-02f,+3.03694736e-02f,-7.34458771e-03f,
	+2.37842984e-02f,-1.29431067e-02f,-3.46002840e-02f,+3.69712198e-03f,-3.35534886e-02f,
	-4.81214672e-02f,-2.65771151e-03f,-3.09021659e-02f,+1.37746744e-02f,-1.48308063e-02f,
	+7.03836046e-03f,-3.16459425e-02f,-1.45203900e-02f,+2.50948872e-02f,+2.22339649e-02f,
	-3.35526317e-02f,-1.59339514e-02f,-3.52013782e-02f,+5.29711321e-03f,+4.19404032e-03f,
	+3.92097468e-03f,+3.93864661e-02f,-3.25866938e-02f,-2.24106796e-02f,+9.83315613e-03f,
	-2.15513934e-03f,-1.97406560e-02f,-1.05357347e-02f,+2.44683446e-03f,+1.51720755e-02f,
	-1.79696996e-02f,-9.57413111e-03f,+5.54053374e-02f,-3.29481997e-02f,+1.47902388e-02f,
	+1.47599122e-02f,+2.82692276e-02f,-7.61161931e-03f,-1.17416270e-02f,+9.44223907e-03f,
	+1.36364577e-02f,-2.26781946e-02f,+1.35177784e-02f,-2.93271001e-02f,-4.47417833e-02f,
	-1.79288201e-02f,+3.37310880e-02f,+1.98237095e-02f,+1.51383616e-02f,+1.45970546e-02f,
	+1.52494851e-03f,+3.56064141e-02f,+2.29175463e-02f,-1.65868588e-02f,+9.95554123e-03f,
	+4.68214974e-03f,+3.99793349e-02f,+2.33189352e-02f,+1.91448461e-02f,-1.23312902e-02f,
	-4.57390845e-02f,-4.61090878e-02f,+9.36664082e-03f,+3.70002282e-03f,+5.46225086e-02f,
	-2.49754116e-02f,-2.39324290e-02f,-2.24386882e-02f,+2.29795016e-02f,+1.01843001e-02f,
	+2.55725160e-03f,+2.09515844e-03f,-1.63584836e-02f,-3.20674479e-02f,+4.65752482e-02f,
	+5.13150021e-02f,+5.13117909e-02f,-4.18743379e-02f,+6.41156957e-02f,+4.48971875e-02f,
	+4.37161550e-02f,-5.48479008e-03f,+3.79974605e-03f,-2.49797218e-02f,-1.87164601e-02f,
	+6.47952929e-02f,-8.53791367e-04f,+6.14488758e-02f,+1.95288956e-02f,-5.72662521e-03f,
	+3.84540185e-02f,+5.16687073e-02f,+2.68462151e-02f,+2.13159472e-02f,-1.45276198e-02f,
	+2.20703576e-02f,-4.37173992e-03f,+1.16982674e-02f,+5.23826256e-02f,+1.65600411e-03f,
	-1.14732757e-02f,+3.89189683e-02f,+2.51238029e-02f,+4.26702872e-02f,+1.57278106e-02f,
	+3.42361024e-03f,+2.55652238e-02f,-3.21293101e-02f,-4.28395569e-02f,+3.67022213e-03f,
	-6.73869774e-02f,-4.65198681e-02f,-4.80528101e-02f,-3.02750599e-02f,-1.10113323e-02f,
	+2.13292539e-02f,+2.48520039e-02f,-7.94343092e-03f,-2.97121564e-03f,-4.98842336e-02f,
	+4.56405506e-02f,+4.18973900e-02f,-5.51769696e-02f,+5.30143566e-02f,-7.33188614e-02f,
	-1.63580012e-02f,-9.29840468e-03f,-2.43134946e-02f,-4.05388698e-03f,+6.70127943e-02f,
	-4.85583325e-04f,+8.82285926e-03f,-6.40380336e-03f,+4.52126563e-02f,-6.81173429e-03f,
	-1.18503785e-02f,+2.80862544e-02f,+4.04424965e-02f,+3.91687416e-02f,+5.31904101e-02f,
	+3.37374732e-02f,+2.53179632e-02f,+7.38186166e-02f,+2.89517231e-02f,+8.89653414e-02f,
	-1.14419963e-05f,-1.07191261e-02f,-1.05830480e-03f,-1.18638426e-02f,+8.34799707e-02f,
	+3.94016923e-03f,+9.99417603e-02f,+8.03696886e-02f,-1.53828077e-02f,+4.15617004e-02f,
	+1.51269482e-02f,+2.15282720e-02f,+3.21207233e-02f,-7.46339262e-02f,-2.25846078e-02f,
	+2.60369014e-02f,-2.18302589e-02f,-1.04730274e-03f,+2.97724809e-02f,-3.66254859e-02f,
	+5.55843078e-02f,-2.71732430e-03f,-1.41320843e-02f,+1.25236157e-02f,-6.00654073e-03f,
	+3.85299250e-02f,+2.19994914e-02f,-4.42542788e-03f,+2.54419539e-03f,-5.49165830e-02f,
	-3.91674303e-02f,+7.06975115e-03f,-4.49053608e-02f,-3.50751691e-02f,+6.46312982e-02f,
	+1.12359030e-02f,+5.72680868e-02f,-1.31221218e-02f,+1.30105494e-02f,+5.62627167e-02f,
	+8.57647210e-02f,+3.59139293e-02f,+1.73319075e-02f,-6.88760215e-03f,-3.56682986e-02f,
	+5.87914698e-02f,+5.03927246e-02f,+7.50761405e-02f,+4.11398262e-02f,+3.72064393e-03f,
	+5.83589114e-02f,-5.21468967e-02f,-4.50740345e-02f,+1.68157741e-03f,-1.14017855e-02f,
	+2.29738001e-02f,-8.70471727e-03f,+2.93383244e-02f,+3.72900441e-02f,+6.28168434e-02f,
	-3.38608958e-02f,+6.31802455e-02f,+9.20239836e-03f,+6.92409277e-02f,-7.72167277e-03f,
	-4.61374968e-02f,+6.59206659e-02f,+3.39376852e-02f,+3.24073508e-02f,-4.99935523e-02f,
	+9.25500970e-03f,+3.01581398e-02f,+3.54691558e-02f,+3.02513540e-02f,-9.14857071e-03f,
	+3.37559031e-03f,+7.33648613e-03f,-3.65944132e-02f,+4.16098721e-03f,-2.50585116e-02f,
	+4.15826701e-02f,-1.11261103e-02f,+1.66316517e-04f,-1.48549750e-02f,+7.80262351e-02f,
	+6.45202696e-02f,+1.06429001e-02f,-1.29444320e-02f,-1.10002793e-02f,+5.69428615e-02f,
	-1.68997198e-02f,-5.89753836e-02f,+9.47646564e-04f,-2.10174937e-02f,-3.82923707e-02f,
	-6.09015624e-05f,+3.52670513e-02f,+1.78423952e-02f,-7.77600566e-03f,+6.34299070e-02f,
	+9.03947186e-03f,-6.59087822e-02f,-1.84413269e-02f,-2.32872013e-02f,+2.66239103e-02f,
	+1.00001860e-02f,+6.81435168e-02f,-8.26850906e-02f,-2.80497149e-02f,+5.98398261e-02f,
	+5.20390533e-02f,+3.35992686e-02f,+7.75776384e-03f,-4.42514084e-02f,+7.82890916e-02f,
	-2.70216707e-02f,-2.87197307e-02f,-3.78710367e-02f,-4.50188778e-02f,+1.47236520e-02f,
	-3.28293480e-02f,+5.41537292e-02f,+3.56518365e-02f,+4.35905084e-02f,-2.24193744e-02f,
	+2.31402665e-02f,+9.53049436e-02f,+7.48704523e-02f,-4.87650260e-02f,-6.19138181e-02f,
	+4.08585891e-02f,+2.69027669e-02f,+1.71995759e-01f,-1.10032065e-02f,+9.51405540e-02f,
	+2.01441348e-02f,-1.58319082e-02f,+4.77148145e-02f,+5.39605655e-02f,+1.33886570e-02f,
	-3.42396796e-02f,-8.62073228e-02f,-4.93623093e-02f,-8.33886024e-03f,-3.91842350e-02f,
	+2.83563640e-02f,+7.48886168e-03f,+2.66306801e-03f,+7.59794936e-02f,+7.60408938e-02f,
	+4.85588536e-02f,+6.23086095e-02f,+4.58967276e-02f,+2.98129916e-02f,-6.21789582e-02f,
	-5.72285205e-02f,-4.70024459e-02f,-9.20242742e-02f,+6.79148454e-03f,+1.00513771e-02f,
	-5.51919490e-02f,+3.29114608e-02f,+3.10428720e-02f,+3.86527628e-02f,-1.20917046e-02f,
	-8.36833343e-02f,-6.26551732e-03f,+2.85572298e-02f,+7.60300234e-02f,-4.98292744e-02f,
	+7.35295117e-02f,-1.06820107e-01f,-4.38896939e-02f,+6.12608977e-02f,+1.72227621e-02f,
	+3.28147672e-02f,-2.48682499e-03f,-2.99106911e-02f,+3.28369066e-02f,-1.77638419e-02f,
	-4.08957750e-02f,+2.86272168e-02f,-1.10375360e-02f,+2.91333422e-02f,+3.05910949e-02f,
	+1.97074208e-02f,-1.26392897e-02f,-3.38501818e-02f,-3.30453701e-02f,-2.66460348e-02f,
	+3.02145313e-02f,+8.84119980e-03f,-4.15084474e-02f,+1.63397118e-02f,+6.56155720e-02f,
	+3.78223397e-02f,+8.07453878e-03f,-4.06909026e-02f,-3.39777581e-03f,+6.68079704e-02f,
	+8.93408153e-03f,-6.32604305e-03f,-3.62751670e-02f,+4.76611294e-02f,+7.18685612e-03f,
	+8.13848525e-03f,+3.27456258e-02f,+1.53308082e-02f,+2.32469030e-02f,+6.00893907e-02f,
	-1.49486382e-02f,-2.37068366e-02f,+6.09951429e-02f,+5.20333610e-02f,+3.98746580e-02f,
	+3.24303545e-02f,-5.27468622e-02f,+3.74927768e-03f,-2.91799866e-02f,-8.52900557e-03f,
	+2.15592477e-02f,-1.73733719e-02f,+1.17233107e-02f,-2.19012462e-02f,-3.72892395e-02f,
	-3.27466168e-02f,+5.86924180e-02f,-2.09873896e-02f,-8.65943264e-03f,-4.23953161e-02f,
	+1.16052097e-02f,-2.45683454e-02f,+3.04034799e-02f,+2.43176473e-03f,+1.65555608e-02f,
	-4.67611067e-02f,+1.68349221e-02f,-1.05035920e-02f,+3.22145447e-02f,-2.68140268e-02f,
	-2.96522751e-02f,+2.72076223e-02f,+2.78843511e-02f,-3.23698483e-02f,+2.05808785e-02f,
	-3.13895047e-02f,-4.39541303e-02f,+2.87660621e-02f,+4.78631957e-03f,+2.42890958e-02f,
	-1.52741503e-02f,-3.06186778e-03f,-4.23881039e-02f,-1.43302390e-02f,+2.62490045e-02f,
	+4.03970405e-02f,-3.36989686e-02f,+4.74431664e-02f,-1.94693494e-04f,+4.44289148e-02f,
	+5.06646093e-03f,+2.30938289e-03f,+5.69785498e-02f,+2.63915844e-02f,+1.81267206e-02f,
	+4.75354232e-02f,+7.00101536e-03f,-3.18806991e-02f,+3.41248140e-03f,-3.87217179e-02f,
	+2.54815128e-02f,-1.30328350e-02f,+1.60098262e-02f,-2.70280465e-02f,-2.58477405e-02f,
	-1.75882243e-02f,+3.82728241e-02f,+2.61036437e-02f,+4.50043567e-02f,+9.91274975e-03f,
	+3.03734466e-02f,+3.46942581e-02f,-9.57722403e-03f,-3.73077840e-02f,+4.72206995e-02f,
	-1.26473475e-02f,+3.11532933e-02f,+3.40120168e-03f,-1.49492659e-02f,+2.75473949e-02f,
	+1.97464675e-02f,+3.50688547e-02f,-5.13837161e-03f,-3.55885960e-02f,+4.39047515e-02f,
	-2.60945577e-02f,+1.26112578e-02f,-3.43747437e-02f,-2.78799236e-02f,-7.66911125e-03f,
	+3.31313834e-02f,-7.32873473e-03f,-1.49853006e-02f,+2.74270587e-02f,-2.39769071e-02f,
	+2.37599369e-02f,+8.58202670e-03f,-3.69982212e-03f,-3.78798172e-02f,+2.86855623e-02f,
	-4.16333005e-02f,+3.03034503e-02f,+2.73342319e-02f,-1.53036760e-02f,+2.74107413e-04f,
	-3.34790125e-02f,-2.85548307e-02f,-2.98800459e-03f,+4.26777713e-02f,+4.23610769e-02f,
	+3.15208174e-02f,+1.00061903e-03f,+2.05087829e-02f,+3.58170010e-02f,+3.89712229e-02f,
	-5.38231246e-02f,+3.16542760e-02f,+2.55951416e-02f,-2.71603232e-03f,-2.40379740e-02f,
	+3.56051512e-02f,+1.82074104e-02f,+2.94646323e-02f,+1.06105041e-02f,-3.59136499e-02f,
	+3.24251712e-03f,-5.12601361e-02f,+1.28038460e-02f,+2.66608912e-02f,-1.44336047e-02f,
	+5.11712581e-02f,+4.54015210e-02f,-2.44227201e-02f,+5.32025136e-02f,+7.87484460e-03f,
	+6.38478473e-02f,+3.89513299e-02f,-4.53344062e-02f,-4.94083501e-02f,-4.88096252e-02f,
	-3.88285890e-02f,-8.71712156e-03f,+1.48195336e-02f,+4.25384603e-02f,-1.76282022e-02f,
	-2.62745153e-02f,+6.80879503e-03f,-8.30887537e-03f,-1.08645763e-02f,+2.48050038e-02f,
	+9.98094212e-03f,-3.21412310e-02f,+1.52947837e-02f,+1.53679866e-03f,-4.05236781e-02f,
	+7.25900158e-02f,+7.97452126e-03f,+3.55768465e-02f,-7.72040617e-03f,+4.81044129e-02f,
	-8.55898298e-03f,+3.66244875e-02f,-4.63362550e-03f,-3.55617739e-02f,+8.54709744e-03f,
	-3.45860794e-02f,-2.72367168e-02f,+1.69690792e-02f,-4.17323411e-03f,-1.88801903e-02f,
	+3.20158061e-03f,-2.42454130e-02f,-3.25361565e-02f,+8.09598900e-03f,+5.00639156e-02f,
	-4.13345844e-02f,+4.19356599e-02f,+3.04339994e-02f,-3.99969053e-03f,-2.90122232e-04f,
	+3.59530188e-02f,+2.06222869e-02f,+5.63567644e-03f,+5.02077723e-03f,+2.45785229e-02f,
	+3.12799364e-02f,-3.36994641e-02f,-2.32830215e-02f,+3.60172354e-02f,+4.43044417e-02f,
	-2.72325128e-02f,-6.50531845e-03f,-9.21348110e-03f,-2.29763016e-02f,+1.30837652e-04f,
	+3.07438225e-02f,+4.16486301e-02f,-2.58002914e-02f,-8.72350670e-03f,-5.17970137e-03f,
	-1.99770252e-03f,-4.14320193e-02f,-1.66629888e-02f,-4.76922877e-02f,-2.28229500e-02f,
	-2.70601455e-02f,+4.50660624e-02f,+3.82641070e-02f,-3.48512791e-02f,+1.46073354e-02f,
	+2.64983475e-02f,-9.64563433e-03f,-4.93823132e-03f,-4.41959575e-02f,+6.98310211e-02f,
	-4.06553634e-02f,+9.04044230e-03f,-1.36771491e-02f,-2.01799162e-02f,+2.23460887e-02f,
	+2.09426656e-02f,-2.10793987e-02f,+5.95533624e-02f,+3.95921059e-02f,+1.35091031e-02f,
	-9.97395720e-03f,-3.76220532e-02f,+1.14271203e-02f,+9.39686783e-03f,+2.04094276e-02f,
	+1.32188238e-02f,+2.35242527e-02f,+4.73711118e-02f,-4.81796376e-02f,-2.37422157e-02f,
	-4.87671234e-02f,+3.75984199e-02f,-7.33915623e-03f,+4.68341783e-02f,-1.29216034e-02f,
	+2.95423437e-02f,+1.88314402e-03f,-8.94326833e-04f,-3.36046405e-02f,+6.42297789e-02f,
	-1.59619469e-03f,+2.30345149e-02f,-1.55975940e-02f,+2.92136669e-02f,-1.70705803e-02f,
	+3.00339609e-02f,-5.52951097e-02f,-8.24122038e-03f,+4.23124805e-02f,-5.81377782e-02f,
	+1.81206819e-02f,-2.75224522e-02f,+4.01766412e-02f,-2.36291643e-02f,+2.01088134e-02f,
	+1.70729365e-02f,-1.47392964e-02f,-3.84136066e-02f,+4.84765768e-02f,-3.04230582e-03f,
	+3.86188440e-02f,+1.59463659e-02f,+2.77386699e-02f,-2.69090589e-02f,+4.95318919e-02f,
	+2.30943505e-02f,+1.40823552e-03f,+3.76209468e-02f,+2.55748089e-02f,-4.37783683e-03f,
	+2.02078912e-02f,+2.41014324e-02f,+2.64629871e-02f,-2.43611243e-02f,-2.56722383e-02f,
	-6.13165125e-02f,-2.95978487e-02f,-3.78913283e-02f,-1.00754332e-02f,+4.28738631e-02f,
	+2.36462820e-02f,-2.49727853e-02f,-1.12894708e-02f,+1.75164826e-02f,-1.18846698e-02f,
	+2.89752148e-02f,+2.53882352e-02f,-6.90150959e-03f,+3.03151011e-02f,+3.74288335e-02f,
	+2.89704707e-02f,+4.22730893e-02f,+4.89208847e-02f,-3.15101668e-02f,+6.64993078e-02f,
	+1.05329618e-01f,+4.05238047e-02f,-2.71948632e-02f,-1.20247835e-02f,-2.64361827e-03f,
	+2.47851722e-02f,+1.72643542e-01f,-6.64918646e-02f,+1.27870977e-01f,+7.79918879e-02f,
	-1.78753189e-03f,+1.01512736e-02f,+5.25785461e-02f,-4.71294746e-02f,+3.97721604e-02f,
	-1.00148246e-01f,-7.00431541e-02f,-1.79274622e-02f,-5.02220094e-02f,+2.70863436e-03f,
	+3.15494351e-02f,-3.64309410e-04f,+5.88006712e-02f,+5.67773432e-02f,+5.95755316e-02f,
	+4.17111367e-02f,-4.09723818e-02f,-3.25816087e-02f,-1.18625967e-03f,-2.53293030e-02f,
	-9.53767449e-02f,-2.54032966e-02f,+6.72100019e-03f,-3.39610223e-03f,-4.67373282e-02f,
	-6.26511797e-02f,+7.97076896e-03f,+3.29540260e-02f,+3.19952592e-02f,-7.02643991e-02f,
	-1.99220218e-02f,-3.54222283e-02f,+9.11555141e-02f,-2.24758009e-03f,+1.14016952e-02f,
	-4.30543236e-02f,-4.00185138e-02f,-2.65588355e-03f,+1.66673120e-02f,+5.42534404e-02f,
	+4.55466658e-02f,+4.11218442e-02f,+6.60519376e-02f,-8.31883773e-02f,+7.73716997e-03f,
	-3.51441503e-02f,-1.77899431e-02f,+4.22428139e-02f,-5.47514707e-02f,-2.37489846e-02f,
	+5.72003387e-02f,-2.23872140e-02f,-1.38928648e-03f,+3.07956226e-02f,+5.27657792e-02f,
	+4.03418690e-02f,-4.54922467e-02f,+3.31671606e-03f,-1.39076710e-02f,+3.67271788e-02f,
	+6.90434966e-03f,-1.87822469e-02f,+3.21543291e-02f,+3.65350097e-02f,-4.81837280e-02f,
	+6.55937120e-02f,-5.17858155e-02f,+1.91431511e-02f,+3.95210460e-02f,+1.94391441e-02f,
	+1.30866636e-02f,-4.81103361e-02f,+9.61495563e-03f,+1.08297653e-02f,+6.92800730e-02f,
	+1.69262867e-02f,-6.29100669e-03f,+5.39568588e-02f,-3.25011611e-02f,-1.39267382e-03f,
	+3.17941187e-04f,-1.03152432e-02f,-2.91865226e-02f,-8.57372954e-03f,+3.88629129e-03f,
	-2.14003455e-02f,+6.23624027e-03f,-2.01826193e-03f,+1.37661686e-02f,-4.45843069e-03f,
	+1.28411446e-02f,+3.86429206e-02f,+4.44093645e-02f,-4.73913886e-02f,-8.88262875e-03f,
	+5.15465848e-02f,+4.50444482e-02f,-2.82156207e-02f,+1.01578457e-03f,-6.39860108e-02f,
	-4.81938608e-02f,+6.91682920e-02f,+2.97432649e-03f,-3.13757583e-02f,+4.52174731e-02f,
	+4.44508418e-02f,-1.30850440e-02f,-4.36178781e-02f,+5.10580689e-02f,-4.32557128e-02f,
	-3.43791619e-02f,-2.87654437e-02f,-7.78857386e-04f,+1.79787334e-02f,+1.15640676e-02f,
	-2.68584397e-03f,-2.50481386e-02f,+5.21610044e-02f,+5.42576127e-02f,-6.84710627e-04f,
	-2.15488393e-02f,+2.77365297e-02f,+4.84441593e-02f,-3.90830413e-02f,+4.80067097e-02f,
	-4.91245277e-02f,+5.86648807e-02f,+1.55084413e-02f,-2.11232100e-02f,+2.60224640e-02f,
	-2.93724481e-02f,-9.23229381e-03f,+1.30198896e-02f,-3.22173312e-02f,-7.42915366e-03f,
	+4.44682688e-02f,+2.24397536e-02f,-1.09036593e-02f,+2.09293906e-02f,-1.54919131e-02f,
	+5.60017154e-02f,+1.68397054e-02f,-1.95461642e-02f,+3.38258967e-02f,+2.27500480e-02f,
	-2.39219218e-02f,-1.19205853e-02f,-5.70849739e-02f,-3.42454761e-02f,-5.90968616e-02f,
	+1.52952727e-02f,-5.05487211e-02f,+4.78677079e-02f,+3.72040644e-02f,-2.94138063e-02f,
	+2.44071912e-02f,+1.58266481e-02f,+3.51578817e-02f,-2.33984776e-02f,+1.43728754e-03f,
	+5.22388071e-02f,-2.87456848e-02f,+2.01501399e-02f,+1.66142453e-02f,-3.28986570e-02f,
	+1.44935539e-02f,+1.92758664e-02f,+4.72805090e-02f,+7.87784345e-03f,-2.80051045e-02f,
	+7.06927106e-02f,-3.52341570e-02f,-2.16222722e-02f,-8.51215795e-03f,-5.17926589e-02f,
	-3.53365391e-03f,-2.21794154e-02f,+2.36081462e-02f,+3.14634703e-02f,-3.66085432e-02f,
	-1.06801353e-02f,-2.37629190e-02f,+3.48169878e-02f,+1.81121603e-02f,-4.35342453e-02f,
	-4.59287539e-02f,+9.22490656e-03f,+7.97818601e-03f,+8.70086774e-02f,-8.34533479e-03f,
	-9.03494656e-03f,-6.81558251e-03f,+2.84799598e-02f,+2.57856995e-02f,-2.34252196e-02f,
	+2.63055619e-02f,-3.90897468e-02f,+2.22153887e-02f,+7.02151004e-03f,+5.57940565e-02f,
	-1.81728937e-02f,+9.13017429e-03f,-2.76085008e-02f,+5.24175689e-02f,+2.04698890e-02f,
	+3.68516147e-02f,-2.76147071e-02f,+3.63851562e-02f,+2.75981985e-02f,+2.58891713e-02f,
	+7.56385829e-03f,-5.54262614e-03f,-2.64633484e-02f,-4.04371619e-02f,-1.50061026e-02f,
	-4.87519018e-02f,-4.23308602e-03f,+3.63119156e-03f,+2.85596959e-02f,-1.80400610e-02f,
	+5.65808378e-02f,-1.94274429e-02f,-3.50708775e-02f,-1.35278348e-02f,+5.76545671e-02f,
	-1.01181595e-02f,-5.40071493e-03f,+8.84966180e-03f,+8.27773288e-03f,+1.84193207e-03f,
	+5.39890155e-02f,-3.78321693e-03f,+6.47451775e-03f,-1.02150720e-02f,-5.40711684e-03f,
	-3.92690264e-02f,-5.07941879e-02f,-1.94016788e-02f,-6.39363285e-03f,+3.04309092e-02f,
	+3.62181440e-02f,-6.59990832e-02f,+8.34016874e-02f,-1.02806799e-01f,-1.98122598e-02f,
	-5.25008552e-02f,-2.68732477e-02f,-1.82202999e-02f,+7.14987740e-02f,+2.84522995e-02f,
	+5.72878979e-02f,+2.84219570e-02f,-4.53606732e-02f,-2.36341804e-02f,+1.30455628e-01f,
	+5.02751656e-02f,+1.11045418e-02f,-2.87928293e-03f,+9.39186662e-03f,+4.01267335e-02f,
	+1.44707598e-02f,-5.47341444e-02f,+2.54343189e-02f,+6.36419952e-02f,-1.16301142e-03f,
	+1.00708567e-01f,+2.66583227e-02f,+4.47358862e-02f,+3.83638963e-02f,+4.61657196e-02f,
	-3.82422246e-02f,+2.28155311e-02f,-4.59305272e-02f,+1.17313713e-01f,+4.88208011e-02f,
	+5.54114617e-02f,-2.79600434e-02f,-6.88803568e-02f,+2.97510251e-02f,-8.03515967e-03f,
	-2.85101496e-03f,-4.17158678e-02f,+1.97902545e-02f,+3.19075100e-02f,-3.92530579e-03f,
	+5.42690270e-02f,+3.35812545e-03f,-1.53717995e-02f,+2.21160153e-04f,+5.91195561e-02f,
	-5.78734577e-02f,-2.14488748e-02f,-2.76066759e-03f,-9.78150219e-03f,+5.42053990e-02f,
	+1.70496304e-03f,+3.48850749e-02f,-1.30707514e-03f,+1.58731919e-02f,-1.86004117e-02f,
	+3.08044776e-02f,-3.46567705e-02f,-1.29472474e-02f,+2.63257828e-02f,+4.90363091e-02f,
	+6.26218915e-02f,-6.14227215e-03f,-1.65100452e-02f,-3.85666862e-02f,-2.54853554e-02f,
	+1.75723638e-02f,-1.98018446e-04f,+1.44073442e-02f,+7.41056073e-03f,-6.85174426e-04f,
	+3.86124738e-02f,-6.75550196e-03f,+2.90900934e-02f,+3.74453366e-02f,+1.13031790e-02f,
	+4.50944193e-02f,+4.87875752e-02f,+1.27046439e-03f,-5.28642014e-02f,-3.59302238e-02f,
	+4.59753489e-03f,-2.91985124e-02f,-9.44720581e-03f,+2.50934716e-03f,+4.69757468e-02f,
	+1.46080162e-02f,+3.02970484e-02f,+5.15302271e-03f,+6.49530813e-02f,-7.61836395e-03f,
	+6.40699491e-02f,+2.32321359e-02f,+4.48692031e-02f,+1.97551697e-02f,-3.86327766e-02f,
	+2.59482712e-02f,-2.47308500e-02f,-2.88478900e-02f,-3.28922383e-02f,+4.33663912e-02f,
	-4.18103486e-02f,+2.99981888e-03f,+2.07024515e-02f,+4.35869135e-02f,-5.87702133e-02f,
	+3.64772975e-02f,+2.56389542e-03f,+5.95392324e-02f,+3.30266729e-02f,-2.25327555e-02f,
	-2.83889752e-02f,+2.93243490e-02f,+1.59177603e-03f,+2.24489328e-02f,+2.01829486e-02f,
	+6.60126284e-02f,+3.39396410e-02f,+2.67814919e-02f,-2.33223476e-02f,-4.60547097e-02f,
	+8.35786667e-03f,+8.38791952e-03f,-4.54964601e-02f,+1.15226964e-02f,-2.78079417e-02f,
	+1.04728686e-02f,+2.28370242e-02f,+2.21216083e-02f,-2.65698470e-02f,+3.49052660e-02f,
	+5.23082865e-03f,+6.48825914e-02f,+4.89769951e-02f,-1.00747393e-02f,+2.22082324e-02f,
	+7.32434466e-02f,-1.18205408e-02f,+5.42129725e-02f,+3.88426632e-02f,-1.88908931e-02f,
	+6.35600090e-02f,-4.10856009e-02f,+3.55155021e-02f,-2.88950447e-02f,-1.04528535e-02f,
	+2.40252055e-02f,+2.32676300e-03f,-2.46140901e-02f,+4.26574834e-02f,+4.70319279e-02f,
	+3.77837606e-02f,-1.44214286e-02f,+5.67611232e-02f,+3.17049511e-02f,-1.34944832e-02f,
	+1.81772001e-02f,+4.03759181e-02f,-3.16458307e-02f,+2.13674121e-02f,+2.79312730e-02f,
	+2.22669216e-03f,+4.03291099e-02f,-1.49910022e-02f,-3.71317044e-02f,-2.14112140e-02f,
	-1.25519065e-02f,-2.91743930e-02f,+5.24441116e-02f,-3.06876446e-03f,+5.67921624e-03f,
	-3.10615320e-02f,+1.01508861e-02f,-7.44925207e-03f,-2.61713546e-02f,-5.73910885e-02f,
	+1.16962269e-02f,+5.34347892e-02f,-1.15651581e-02f,+3.88974547e-02f,+4.75698635e-02f,
	-4.13052030e-02f,+6.56533390e-02f,+2.02346183e-02f,-1.30091719e-02f,+4.39465493e-02f,
	+1.01999342e-02f,+1.96932512e-03f,+2.00021546e-03f,+1.31291552e-02f,-3.71065922e-02f,
	-4.13522087e-02f,-1.42679894e-02f,+4.62990478e-02f,-1.48610314e-02f,+3.15523520e-02f,
	+1.26891900e-02f,-2.75596622e-02f,+4.31962311e-02f,+3.64768058e-02f,+5.30949086e-02f,
	-7.58843422e-02f,+7.57445917e-02f,+1.89052112e-02f,+2.91179474e-02f,+2.54500695e-02f,
	-2.75574364e-02f,+9.63531341e-03f,+4.55117896e-02f,-6.55821115e-02f,+6.22711293e-02f,
	+3.65193672e-02f,-3.61721814e-02f,+4.46098298e-02f,-1.02607009e-04f,-2.61386000e-02f,
	-5.28939255e-03f,+5.95524535e-02f,+4.88780625e-02f,+5.40785827e-02f,-1.95604898e-02f,
	+5.04325889e-02f,-3.27420235e-02f,+1.16960164e-02f,+1.05025638e-02f,-3.17412242e-02f,
	+3.03022191e-02f,-4.23059911e-02f,-1.87838525e-02f,-3.72388251e-02f,-3.60680297e-02f,
	+8.78351927e-03f,+1.25308037e-02f,-2.13021301e-02f,+7.39831431e-03f,-5.32777198e-02f,
	+5.04272617e-02f,-3.11826915e-02f,-6.31083250e-02f,+1.87262101e-03f,-3.45615037e-02f,
	+6.28032535e-02f,-2.47675814e-02f,-1.14407921e-02f,-1.27089501e-04f,+1.92774292e-02f,
	+6.64691404e-02f,-3.58290672e-02f,-1.80249345e-02f,+3.26801203e-02f,-4.58101295e-02f,
	+3.24822143e-02f,-3.10401395e-02f,+4.96941470e-02f,+3.38992216e-02f,-1.28237354e-02f,
	-9.56609938e-03f,+7.94246793e-02f,+1.91195812e-02f,+8.42664912e-02f,+5.31506538e-03f,
	-3.21631208e-02f,-8.60540569e-03f,+1.54305063e-02f,+7.22171441e-02f,+8.16870946e-03f,
	+1.19782969e-01f,+8.37437883e-02f,+4.63468507e-02f,+8.00864771e-02f,+3.62020964e-03f,
	+1.45985698e-02f,-4.10950482e-02f,-5.82289882e-02f,-4.42933291e-02f,-2.42843162e-02f,
	-3.75129953e-02f,+5.81704527e-02f,+4.95791361e-02f,-1.00477813e-02f,+4.13038470e-02f,
	+1.98848136e-02f,+6.00178447e-03f,+3.98379052e-03f,-1.60571970e-02f,+2.21420750e-02f,
	-3.41360383e-02f,-2.45136749e-02f,-6.53736219e-02f,-1.15209492e-02f,-4.14375104e-02f,
	-2.35433597e-02f,-2.24140361e-02f,+1.68303605e-02f,-2.43468527e-02f,+5.58255725e-02f,
	+2.31452025e-02f,+8.45630746e-03f,+1.30102290e-02f,+5.05935051e-04f,+7.37647712e-02f,
	+1.34950709e-02f,+1.46411601e-02f,-4.44825971e-03f,+2.34275330e-02f,-2.43169684e-02f,
	+5.96825816e-02f,+4.68662456e-02f,-3.57953086e-02f,+3.97003293e-02f,+3.50856595e-02f,
	+3.48282000e-03f,+2.02863421e-02f,+4.01826426e-02f,-4.73390743e-02f,+3.97085994e-02f,
	-4.13370952e-02f,+8.20076913e-02f,+1.35918064e-02f,-4.22935188e-02f,+2.55221650e-02f,
	+2.75295004e-02f,+4.06622924e-02f,+2.29033493e-02f,+2.07191315e-02f,+4.75509576e-02f,
	+1.78540684e-02f,-2.46647447e-02f,+3.81884202e-02f,-2.09230613e-02f,+8.49497691e-02f,
	+7.66660050e-02f,-3.55493068e-03f,+9.03917775e-02f,+5.60791194e-02f,-9.60581191e-03f,
	-2.09851954e-02f,+1.51855974e-02f,+1.57442335e-02f,+8.13428499e-03f,-5.38595370e-04f,
	+7.93773979e-02f,+6.41650939e-03f,+2.24311091e-02f,+3.52123417e-02f,+3.82072441e-02f,
	+2.46642288e-02f,+2.48252023e-02f,-4.48663868e-02f,+9.32782739e-02f,+8.60218331e-03f,
	-6.95424378e-02f,-5.14278896e-02f,-3.62166651e-02f,-4.46444899e-02f,+2.25166650e-03f,
	-8.99334066e-03f,+4.52856943e-02f,+3.62712964e-02f,+3.03037651e-02f,-1.97339728e-02f,
	-7.19700307e-02f,+2.99872234e-02f,+2.78871562e-02f,+6.34879544e-02f,+5.05606644e-02f,
	-6.23560287e-02f,+3.68896592e-03f,+4.24840301e-02f,-2.69299708e-02f,-4.36188607e-03f,
	-2.25061830e-02f,-2.89495587e-02f,-2.97287386e-02f,+6.22102804e-02f,-3.70900705e-02f,
	-1.03641010e-03f,+2.79232375e-02f,+2.27861628e-02f,-3.13648507e-02f,+9.82913747e-03f,
	+7.92357698e-02f,+2.31222641e-02f,+6.01459704e-02f,+2.75518149e-02f,+5.29753976e-02f,
	+6.77338541e-02f,+9.59640965e-02f,-5.05052553e-03f,-6.59898967e-02f,+1.99271012e-02f,
	+3.73626910e-02f,+1.18516602e-01f,-3.27488258e-02f,+9.07064900e-02f,+9.45314765e-02f,
	+7.00435787e-02f,+4.99088652e-02f,+5.52928485e-02f,-4.72165551e-03f,-3.54267061e-02f,
	-3.76442522e-02f,-1.96731407e-02f,-1.64462756e-02f,-3.48767103e-03f,-2.42227055e-02f,
	-2.87886127e-03f,+8.02480709e-03f,+1.00792184e-01f,+4.03197296e-02f,+8.63147825e-02f,
	+3.99655476e-02f,+5.24462061e-03f,+2.71525350e-03f,-5.85330687e-02f,-4.68427390e-02f,
	-2.98084430e-02f,-5.32706790e-02f,+2.27901284e-02f,+9.16364510e-03f,-7.21278116e-02f,
	+1.24735590e-02f,+2.78937891e-02f,+6.62663653e-02f,+4.63073291e-02f,-1.81043204e-02f,
	-3.99106666e-02f,-3.19003351e-02f,+9.36353654e-02f,-1.05127618e-02f,+3.54018360e-02f,
	-6.64846674e-02f,-9.56919882e-03f,+4.58148308e-02f,+5.73111176e-02f,+5.18044569e-02f,
	+5.28067127e-02f,-2.52147466e-02f,+7.05305114e-02f,-7.75166154e-02f,-2.56524477e-02f,
	-1.25160068e-02f,+1.09493509e-02f,+3.93877812e-02f,+3.29975076e-02f,+2.70401221e-02f,
	+3.78737301e-02f,-2.23870389e-02f,+5.46202529e-03f,+2.42865998e-02f,+2.42308546e-02f,
	-6.67760009e-03f,+2.60410216e-02f,+2.50710715e-02f,-2.43117358e-03f,-9.60404333e-03f,
	+1.49529064e-02f,-2.63559856e-02f,+2.54229419e-02f,+3.43713649e-02f,-4.17425409e-02f,
	+2.76865661e-02f,-4.99208132e-03f,+2.66768225e-02f,-1.96318533e-02f,-3.67249809e-02f,
	-1.84300821e-02f,+6.81327879e-02f,-5.76812066e-02f,+1.06415689e-01f,+1.77382082e-02f,
	-1.95090640e-02f,-1.17675709e-02f,+1.96292289e-02f,-7.13020097e-03f,+2.96229385e-02f,
	-5.06145041e-03f,+6.65447339e-02f,+2.09192075e-02f,-2.53074300e-02f,-6.12064078e-02f,
	-6.95891976e-02f,-1.69168413e-02f,+1.32510327e-02f,-1.05319405e-02f,+4.41887183e-03f,
	-3.55551802e-02f,-1.68582413e-03f,-2.25555673e-02f,+9.39749833e-03f,+1.36756403e-02f,
	+3.08780521e-02f,+3.70594747e-02f,+7.00386539e-02f,-4.16316241e-02f,-2.34526265e-02f,
	-1.81735922e-02f,+2.15303134e-02f,+4.01591808e-02f,-7.70914415e-03f,-1.80988014e-02f,
	-4.57122847e-02f,+4.86295344e-03f,-4.09713089e-02f,+5.57948537e-02f,-4.69436273e-02f,
	+2.78625786e-02f,+6.49630511e-03f,-7.53036737e-02f,-1.70336254e-02f,-4.59824055e-02f,
	-2.49384828e-02f,+5.64491712e-02f,+4.32784967e-02f,-1.24462321e-02f,-3.18770632e-02f,
	+1.79118535e-03f,+1.82564370e-03f,+1.70063209e-02f,+3.96628305e-02f,+4.05179337e-02f,
	-8.14987570e-02f,+4.51378822e-02f,-6.50337990e-03f,+2.03987267e-02f,+2.84325480e-02f,
	+3.26659903e-02f,+1.18097048e-02f,+2.24348754e-02f,-6.96738064e-02f,-1.30894384e-03f,
	+1.98462792e-02f,+2.18682177e-02f,+4.69508059e-02f,+3.72748114e-02f,+2.11725738e-02f,
	+4.52187546e-02f,+6.67930171e-02f,-1.48514509e-02f,-6.99459529e-03f,+1.09764542e-02f,
	+3.56654264e-02f,+1.59961842e-02f,+2.83152834e-02f,-4.49893028e-02f,-1.29293716e-02f,
	-4.19159085e-02f,-5.29046021e-02f,-1.16486950e-02f,-2.82593584e-03f,+6.09052950e-04f,
	+6.07389286e-02f,+4.43929248e-02f,-3.89289595e-02f,-5.34235081e-03f,-8.02012160e-03f,
	+5.75332008e-02f,-1.74782015e-02f,-3.07015143e-02f,+3.88728222e-03f,-3.26970480e-02f,
	+1.21024242e-02f,+2.86144167e-02f,-1.23735163e-02f,+4.32242528e-02f,+1.51991844e-02f,
	+5.95145039e-02f,-1.88331921e-02f,+4.00660373e-02f,+3.68247479e-02f,-3.12367212e-02f,
	+1.96043253e-02f,+8.41868855e-03f,+5.71163855e-02f,+4.64257933e-02f,+7.51765911e-03f,
	+5.22799650e-03f,-1.41920405e-03f,+2.81968340e-02f,-1.46226371e-02f,+6.27469346e-02f,
	+5.78923663e-03f,+6.95140436e-02f,-4.11780626e-02f,+2.65192557e-02f,-2.31083781e-02f,
	+7.71018714e-02f,+5.25513589e-02f,+5.49807847e-02f,+7.01944157e-02f,+3.98268551e-02f,
	-4.05614302e-02f,-1.05789900e-02f,-2.74111629e-02f,+7.09909275e-02f,+3.39564160e-02f,
	-4.47561294e-02f,+8.48534796e-03f,+1.69644430e-02f,+5.19388616e-02f,-7.35431444e-03f,
	+6.08157692e-03f,-4.84795459e-02f,-3.04417964e-02f,+9.89022944e-03f,+4.15324792e-03f,
	-5.78208035e-03f,-2.40254924e-02f,+1.93695053e-02f,+2.51963921e-02f,+4.21940833e-02f,
	-5.61139509e-02f,-7.28416489e-03f,+1.01259230e-02f,-4.19488959e-02f,+7.57169574e-02f,
	+3.68914451e-03f,+2.55880188e-02f,+1.08823385e-02f,-1.79342777e-02f,-1.38551211e-02f,
	+7.16339126e-02f,-2.97835544e-02f,-3.58195081e-02f,+2.50513051e-02f,-4.14689071e-02f,
	+3.70499976e-02f,+1.61853228e-02f,+6.01000041e-02f,+5.24918456e-03f,+7.52311572e-02f,
	+1.32810809e-02f,+7.46401609e-04f,-1.04070101e-02f,+2.19319146e-02f,-4.30448726e-02f,
	+6.41495883e-02f,-2.92836018e-02f,+5.81458285e-02f,-1.03318587e-01f,-1.80195051e-03f,
	+4.99115512e-02f,-7.51621425e-02f,-1.79910809e-02f,+1.85267124e-02f,+5.65605834e-02f,
	-1.68749895e-02f,-4.16589901e-03f,+4.22089249e-02f,+3.66838239e-02f,+5.78863211e-02f,
	-5.70711261e-03f,-6.80440888e-02f,-1.33126089e-02f,-1.16307409e-02f,-5.64487763e-02f,
	+6.48484379e-03f,-3.37296799e-02f,-8.27190503e-02f,+8.86693671e-02f,-6.27196506e-02f,
	-2.27699033e-03f,-5.83936498e-02f,+7.03151673e-02f,-2.90484689e-02f,+2.36145593e-02f,
	-7.57228062e-02f,+7.31815472e-02f,-1.80855971e-02f,+4.29419205e-02f,-5.31977080e-02f,
	+8.98218080e-02f,-1.88516509e-02f,+1.86770707e-02f,+3.64198014e-02f,+4.05868068e-02f,
	-7.80027881e-02f,-4.39364277e-02f,-4.40031923e-02f,-1.09930784e-02f,-5.86067466e-03f,
	+5.20529263e-02f,+2.70250179e-02f,+4.68922332e-02f,+3.51192802e-02f,+7.95699060e-02f,
	-6.20642304e-02f,-1.35180661e-02f,+2.07642349e-03f,-3.50230448e-02f,+9.21613909e-03f,
	+1.06718838e-02f,-5.32367826e-02f,+4.20134775e-02f,-1.33147873e-02f,-1.98966339e-02f,
	-2.20005605e-02f,+3.61125432e-02f,-1.60151292e-02f,-4.09195051e-02f,+3.47079076e-02f,
	-5.29403053e-02f,+8.28723330e-03f,-1.11735754e-01f,+8.38886946e-02f,-3.44779082e-02f,
	-2.98307766e-03f,-2.06658598e-02f,+1.01413392e-01f,+2.81273108e-02f,-6.46540150e-02f,
	+3.44041623e-02f,+2.87984908e-02f,+2.37004496e-02f,+1.36149868e-01f,-1.05135981e-02f,
	-4.30525057e-02f,-1.26205143e-02f,-6.30988628e-02f,+1.01195313e-02f,+4.47300002e-02f,
	-4.95557748e-02f,-2.66221333e-02f,+3.62476222e-02f,-6.18200861e-02f,+1.34955244e-02f,
	-1.03823198e-02f,+1.52050625e-05f,-5.33407042e-03f,-7.37419501e-02f,-1.01338826e-01f,
	+5.68776540e-02f,+4.43782322e-02f,+4.58996892e-02f,-7.79263629e-03f,+4.53365371e-02f,
	+2.38257833e-02f,+1.18226297e-02f,-3.87306954e-03f,+4.65244539e-02f,-7.06356242e-02f,
	-5.24183437e-02f,-7.53299296e-02f,+2.21178681e-02f,-3.09424363e-02f,+1.29796071e-02f,
	-1.88904852e-02f,-3.44462804e-02f,-4.69586402e-02f,+1.64019875e-02f,-3.29344422e-02f,
	-3.35841551e-02f,-2.22704895e-02f,-4.34650518e-02f,+4.96538589e-03f,+7.71532906e-03f,
	-2.73658242e-02f,+1.51346698e-02f,-1.32129723e-02f,-2.96850223e-02f,-5.59081230e-03f,
	+1.42196554e-03f,+5.58796292e-03f,-3.70306373e-02f,+2.40425337e-02f,+3.09250169e-02f,
	+5.51007362e-03f,-3.86534259e-02f,+8.67705885e-03f,+6.91939518e-02f,+1.01308756e-01f,
	+8.85767862e-02f,-5.70803173e-02f,-5.05376607e-02f,+3.62476930e-02f,+3.45396984e-04f,
	+1.37624770e-01f,-5.73297739e-02f,+8.14822912e-02f,+4.96247709e-02f,+4.23658937e-02f,
	+7.51355439e-02f,+5.59458928e-03f,-4.29478288e-02f,-1.91826411e-02f,-6.69616461e-02f,
	-1.01060428e-01f,-3.15689743e-02f,-4.97056656e-02f,-1.21029969e-02f,+3.35761637e-04f,
	-2.03245748e-02f,+1.16997793e-01f,-7.48432847e-03f,+2.57339925e-02f,+1.24744490e-01f,
	+4.02919427e-02f,+7.56735494e-03f,-8.07110667e-02f,+3.59080825e-03f,-7.15358034e-02f,
	-4.02806960e-02f,+1.65835358e-02f,-2.46289168e-02f,-6.24802634e-02f,-3.84140387e-02f,
	-1.28985569e-02f,+3.54594924e-02f,-2.61332374e-02f,-4.55772765e-02f,+2.23169141e-02f,
	+3.09636146e-02f,+8.92298073e-02f,-2.04884373e-02f,+1.14924163e-02f,-6.51549846e-02f,
	+2.77829468e-02f,-3.64113152e-02f,+1.48530137e-02f,+1.91752408e-02f,-1.72025226e-02f,
	+9.03481059e-03f,+3.16185877e-02f,-6.15965091e-02f,-4.16857488e-02f,-3.47396471e-02f,
	+1.85750909e-02f,+3.48668881e-02f,-1.10104479e-01f,+4.53427881e-02f,+3.73177859e-03f,
	-4.40409742e-02f,+1.84381306e-02f,+8.19367841e-02f,-2.70108283e-02f,+1.12352660e-02f,
	+8.97988752e-02f,-1.03459973e-02f,+3.28180157e-02f,+3.74763235e-02f,-7.01681431e-03f,
	-9.31624919e-02f,+7.27843046e-02f,+2.01468403e-03f,+5.72957210e-02f,+7.09794164e-02f,
	+5.94346561e-02f,+7.04040984e-03f,+3.65871042e-02f,-2.44780127e-02f,+6.54674694e-02f,
	+6.18770719e-02f,-7.54933571e-03f,+5.09513319e-02f,+3.99086513e-02f,+3.87409292e-02f,
	+5.71224466e-02f,+7.92827737e-03f,+1.23516107e-02f,-1.30812358e-02f,-2.16701403e-02f,
	+1.07553981e-01f,-3.95246595e-02f,-2.91490043e-03f,-3.76304451e-05f,-1.06474552e-02f,
	+2.66247820e-02f,+3.43091926e-03f,-5.75439669e-02f,+5.02366982e-02f,-2.02361885e-02f,
	-1.02720642e-02f,+1.31548755e-02f,-2.90176906e-02f,-4.84188199e-02f,-4.20163665e-03f,
	+6.78127259e-02f,+2.44784579e-02f,-6.59494251e-02f,-1.80634223e-02f,-6.25136599e-04f,
	+2.99820043e-02f,+5.08014709e-02f,+3.05307470e-02f,-3.18217501e-02f,+2.84868348e-02f,
	+4.90682721e-02f,-2.11035144e-02f,-6.16350286e-02f,+2.55198553e-02f,+5.37658576e-04f,
	+5.85771259e-03f,-3.01986877e-02f,-1.30510447e-03f,-2.78741103e-02f,-8.92069470e-03f,
	+6.81454316e-03f,+4.96555977e-02f,+2.79924576e-03f,+6.33437410e-02f,+5.35448082e-02f,
	+3.10077369e-02f,+5.79966567e-02f,+1.85739193e-02f,+3.05108987e-02f,-3.21509391e-02f,
	+5.35140932e-02f,+6.53970707e-03f,+1.76008958e-02f,+2.81812977e-02f,+2.69238781e-02f,
	+2.36031637e-02f,+7.67142698e-03f,-2.68783364e-02f,+2.48524044e-02f,-4.45998786e-03f,
	+2.50195116e-02f,-1.94574241e-02f,+2.89374422e-02f,+3.29057425e-02f,+2.22718297e-03f,
	+4.90946695e-02f,-1.21619059e-02f,-3.45952832e-03f,+1.35433991e-02f,+5.67825213e-02f,
	+1.88954398e-02f,-4.44195606e-02f,+7.30877975e-03f,-3.31046470e-02f,+3.44831385e-02f,
	-1.23748230e-02f,-2.18595378e-02f,+7.32871424e-03f,+2.47704089e-02f,+4.81460579e-02f,
	-2.79888660e-02f,-3.07150446e-02f,+2.92056277e-02f,-3.74077186e-02f,+4.97999005e-02f,
	-1.81744937e-02f,-3.85939106e-02f,+1.33681186e-02f,-3.43484543e-02f,-5.45887985e-07f,
	-6.77748583e-03f,-2.18183007e-02f,-3.37320641e-02f,-1.21416897e-02f,+9.29506496e-03f,
	+4.63075889e-03f,+1.68287549e-02f,+1.86450854e-02f,-2.27584541e-02f,+4.22076136e-02f,
	+2.96086259e-02f,+1.37480069e-02f,+3.11588794e-02f,+2.00810377e-02f,-3.57724167e-02f,
	+6.28160387e-02f,+4.91248593e-02f,+5.91788292e-02f,+3.42616700e-02f,-4.02166285e-02f,
	-1.22933527e-02f,+2.62298472e-02f,+5.62417507e-02f,-5.19366078e-02f,+6.07505888e-02f,
	+1.54828734e-03f,-3.52687538e-02f,+1.32563254e-02f,-6.67021656e-03f,+2.24662200e-02f,
	+2.21630931e-03f,-7.43455300e-03f,+1.31544296e-03f,-1.90881994e-02f,-5.24547836e-03f,
	+3.75009403e-02f,-2.86563765e-02f,+1.44926133e-02f,+1.79382856e-03f,+4.61768731e-02f,
	-2.35009696e-02f,+1.48036638e-02f,-2.97413263e-02f,-7.41216081e-06f,-5.38430065e-02f,
	-5.45667000e-02f,+1.96511624e-03f,+2.43628770e-02f,+3.34339812e-02f,-1.73898954e-02f,
	+5.31751895e-03f,+1.45292608e-02f,+2.44326331e-02f,-1.95902884e-02f,+2.62122788e-02f,
	+1.50957676e-02f,+9.63422284e-03f,+4.31766883e-02f,-1.17321021e-03f,+1.01781851e-02f,
	-2.88018305e-02f,-6.50819317e-02f,-8.51045921e-03f,-1.30347461e-02f,+2.03125719e-02f,
	+5.90577275e-02f,-3.09427232e-02f,+1.95838399e-02f,+4.55076471e-02f,+2.94227544e-02f,
	-4.13575806e-02f,-4.51702252e-03f,+1.07836248e-02f,+1.94344763e-02f,+9.89380553e-02f,
	-1.20881893e-01f,+6.09246269e-02f,-1.35229558e-01f,+1.05268225e-01f,+1.36281457e-02f,
	-1.29607275e-01f,-3.60973477e-02f,+7.81937689e-02f,+6.56186864e-02f,+7.13375281e-04f,
	-6.14230484e-02f,-6.01945035e-02f,+8.97155702e-02f,+1.31009266e-01f,+3.05303503e-02f,
	-1.65656105e-01f,+3.48590501e-02f,+2.06052884e-02f,-7.98457190e-02f,+3.44161987e-02f,
	-2.80765649e-02f,-1.15449853e-01f,+1.38404980e-01f,-1.18050098e-01f,+1.37767754e-02f,
	-2.15672508e-01f,+1.12091929e-01f,-4.06975597e-02f,-4.28426675e-02f,-8.75129178e-02f,
	+1.17601916e-01f,+1.82723161e-02f,+9.47825685e-02f,-5.83402589e-02f,+1.49652094e-01f,
	+1.40981497e-02f,+1.61734372e-01f,+3.07082906e-02f,+6.77208751e-02f,-1.20017514e-01f,
	-5.18381819e-02f,-1.33291692e-01f,+5.71646579e-02f,-1.05773389e-01f,+4.70953695e-02f,
	+3.14017981e-02f,+7.57965213e-03f,-1.97009221e-02f,+6.71030656e-02f,-9.19149444e-02f,
	+4.32228856e-02f,-2.96294335e-02f,-1.31990895e-01f,+4.95109968e-02f,+6.59420574e-03f,
	-7.00856894e-02f,-4.01603132e-02f,+5.33220842e-02f,-2.77855005e-02f,+2.24035867e-02f,
	+1.74953919e-02f,+9.88076348e-03f,-4.04635184e-02f,+1.15736481e-02f,+1.11462539e-02f,
	+1.38217378e-02f,-5.54546993e-03f,+1.57033000e-02f,+2.18436960e-03f,-4.41797040e-02f,
	+1.32870236e-02f,+7.58281499e-02f,+4.75401133e-02f,+6.08730726e-02f,-1.04558589e-02f,
	+6.41081333e-02f,-8.80216900e-03f,+1.23873707e-02f,-2.41664462e-02f,-9.04596597e-02f,
	-1.06194464e-03f,-9.99840535e-03f,-4.77808788e-02f,+1.94075629e-02f,-4.24884930e-02f,
	-1.03131451e-01f,+2.43787691e-02f,-2.23808102e-02f,+1.34944236e-02f,-6.65713623e-02f,
	+2.08345964e-03f,+3.26511562e-02f,+4.57167439e-02f,+1.05796922e-02f,+9.19601619e-02f,
	+8.46960861e-03f,+5.84562346e-02f,-2.46099774e-02f,+6.63266927e-02f,+3.89251597e-02f,
	+5.15305251e-02f,-1.37388054e-03f,+7.25480765e-02f,-2.67352238e-02f,-3.35853435e-02f,
	-2.15640552e-02f,+2.57789511e-02f,+9.04256653e-04f,+2.13649329e-02f,+1.70263797e-02f,
	+3.88311148e-02f,+1.42514203e-02f,+4.34756503e-02f,-4.80118990e-02f,-3.02986298e-02f,
	-1.21941287e-02f,-6.60024285e-02f,-6.42582867e-03f,+1.60459727e-02f,-4.20301519e-02f,
	-3.15449238e-02f,-1.37066627e-02f,-5.43271005e-02f,-3.34298722e-02f,+1.04191471e-02f,
	+1.46038216e-02f,-4.30289842e-03f,+1.08500369e-01f,-8.52091163e-02f,+3.88227142e-02f,
	-1.08721718e-01f,+1.46151721e-01f,-4.56472598e-02f,-4.11684290e-02f,-3.52309570e-02f,
	+7.96635374e-02f,+3.22023481e-02f,-2.48766299e-02f,+5.05787283e-02f,-1.80146154e-02f,
	+3.74250598e-02f,+8.40095207e-02f,+6.11698292e-02f,-1.11303046e-01f,+3.53368111e-02f,
	-3.17795910e-02f,-5.64384051e-02f,-3.41703929e-02f,-4.03502919e-02f,-6.52708784e-02f,
	+5.44335023e-02f,-1.46811858e-01f,+9.15251672e-02f,-5.35428450e-02f,+6.87484816e-02f,
	+4.34749126e-02f,-1.54195465e-02f,-7.55794719e-02f,+7.77595937e-02f,-4.81710434e-02f,
	+1.25025615e-01f,+3.36852670e-02f,+1.33282080e-01f,-6.62390515e-02f,+8.91411398e-03f,
	+1.06086954e-02f,+9.44278240e-02f,-6.05243482e-02f,-9.34250131e-02f,-1.83027461e-02f,
	+6.12940826e-02f,-6.89936355e-02f,+4.00819629e-02f,-4.63632010e-02f,-1.72214769e-02f,
	-6.93589300e-02f,+1.19941078e-01f,-1.11913413e-01f,-3.10659166e-02f,+3.85897681e-02f,
	-4.49036248e-02f,+2.06689108e-02f,+1.67792793e-02f,-5.36389984e-02f,+4.17799875e-02f,
	+4.82955575e-02f,-6.04815744e-02f,-4.72899973e-02f,+3.31585668e-02f,+8.41225777e-03f,
	+7.97597598e-03f,+5.63677065e-02f,+4.99233417e-03f,+3.06095518e-02f,-4.04548161e-02f,
	+9.55686122e-02f,+6.79683164e-02f,-3.41027230e-02f,-7.96813965e-02f,+7.66954646e-02f,
	+6.20683059e-02f,+7.25274980e-02f,+5.02601638e-03f,+1.97072867e-02f,-3.03156581e-02f,
	+5.72741292e-02f,+5.47511019e-02f,-1.26909418e-02f,+8.23793635e-02f,+1.13972528e-02f,
	-5.96599653e-02f,-2.96313465e-02f,+9.57239186e-04f,+2.09166892e-02f,+5.54689616e-02f,
	-4.69894744e-02f,+1.77981332e-02f,-4.28287536e-02f,+3.10935341e-02f,+5.18018939e-02f,
	+3.25902738e-02f,-2.98281629e-02f,-1.64367035e-02f,-6.82480410e-02f,+9.33915153e-02f,
	-8.08416381e-02f,-1.39666786e-02f,-1.12364404e-02f,+6.54295012e-02f,-3.36802155e-02f,
	+1.66429505e-02f,-1.07790813e-01f,-1.56597532e-02f,-6.40800819e-02f,+3.27703878e-02f,
	-5.65735996e-03f,+9.46792215e-03f,+2.84064524e-02f,-6.12418540e-03f,+1.51625024e-02f,
	+1.17342807e-01f,-4.55459990e-02f,-3.06002721e-02f,+4.62447703e-02f,-1.98976230e-02f,
	-2.23406926e-02f,-1.14698661e-02f,+5.79982484e-03f,-3.57758142e-02f,+4.97228652e-03f,
	-3.23165320e-02f,+9.12949815e-03f,+1.22422380e-02f,-6.55383840e-02f,+2.69347299e-02f,
	+7.61409849e-02f,-5.86797930e-02f,+6.58465475e-02f,-5.88570721e-02f,+1.03060506e-01f,
	-6.82938844e-03f,-5.15137464e-02f,+6.85383454e-02f,+1.04066124e-02f,+5.98017126e-02f,
	+4.05040160e-02f,+2.70160269e-02f,+1.26955405e-01f,-4.14367802e-02f,+7.39923865e-02f,
	+4.73361053e-02f,-6.54833168e-02f,+4.22693864e-02f,+4.59606387e-02f,-7.38061965e-03f,
	+3.97739522e-02f,+2.86282646e-03f,-6.75784200e-02f,+6.82581440e-02f,-7.50238672e-02f,
	-5.88988792e-03f,-3.46822143e-02f,+1.48457494e-02f,+6.17583394e-02f,+5.95899336e-02f,
	-3.10230125e-02f,+1.32437065e-01f,-1.13910921e-02f,+9.03305039e-02f,-5.26658930e-02f,
	-1.21740503e-02f,-7.44160861e-02f,-2.95702275e-02f,+3.48249078e-02f,-7.75141595e-03f,
	-1.07865274e-01f,-8.00588578e-02f,+6.83119241e-03f,+2.28711627e-02f,-8.05183500e-03f,
	-1.47348223e-03f,-1.87505297e-02f,-7.36769335e-03f,+1.77024733e-02f,+2.15497543e-03f,
	-2.15680376e-02f,+3.22330091e-03f,-1.20656788e-02f,-7.76137644e-03f,+7.94800967e-02f,
	+2.66355975e-03f,-2.89918724e-02f,-4.01975624e-02f,+4.81801368e-02f,-2.31190901e-02f,
	-4.97586168e-02f,-1.68275777e-02f,+7.09914835e-03f,-1.13409767e-02f,+1.15609035e-01f,
	-7.42646381e-02f,+9.39002261e-02f,-6.94727674e-02f,+1.08061209e-01f,-2.17504818e-02f,
	-2.83555798e-02f,-8.71296506e-03f,+3.12025044e-02f,+3.93084921e-02f,+1.92640722e-02f,
	-3.63774896e-02f,+3.98702472e-02f,+1.52717084e-02f,+1.03919163e-01f,+6.06290251e-02f,
	-6.78266957e-02f,+3.92717607e-02f,-1.18784029e-02f,-7.13256747e-02f,-1.25784799e-02f,
	+6.10894114e-02f,-7.63826445e-02f,+8.89924765e-02f,-9.46299359e-02f,-2.04729289e-02f,
	-8.77164006e-02f,+4.18242551e-02f,-4.05025063e-03f,-3.75845954e-02f,-1.01367883e-01f,
	+5.74638844e-02f,+3.56911160e-02f,+8.07863399e-02f,-7.41004944e-02f,+2.69899555e-02f,
	-1.03676505e-02f,+7.70002231e-02f,+4.28583622e-02f,+1.03011712e-01f,-5.71663901e-02f,
	-2.43732017e-02f,-6.58454448e-02f,+8.34889710e-02f,-7.70349577e-02f,+2.39212792e-02f,
	-5.56181408e-02f,-1.56001979e-02f,+3.92826982e-02f,+8.75637829e-02f,-4.20483425e-02f,
	+1.12319579e-02f,+1.08591160e-02f,-1.07679524e-01f,+1.00886989e-02f,+4.55349423e-02f,
	+4.62289760e-03f,+1.62229575e-02f,+8.74763653e-02f,-8.66391063e-02f,+6.02243422e-03f,
	-4.45246100e-02f,-6.16403110e-02f,-2.64697559e-02f,+6.96645603e-02f,-5.36017958e-03f,
	+5.74178360e-02f,+3.93777452e-02f,+8.08059797e-03f,+6.06518388e-02f,+3.57991494e-02f,
	+3.36349159e-02f,+4.81730443e-04f,+2.72107832e-02f,+2.31090616e-02f,-7.28096440e-03f,
	+9.29874703e-02f,-1.65599920e-02f,+9.38268453e-02f,+8.17244053e-02f,+2.93348543e-02f,
	+4.33937311e-02f,+4.09027375e-03f,-1.00439889e-02f,-3.02900970e-02f,-3.66721638e-02f,
	-1.06253356e-01f,+3.73101793e-03f,-2.93800309e-02f,-3.26728933e-02f,+5.17606270e-03f,
	+7.70557225e-02f,+2.34884880e-02f,+3.20797227e-02f,-2.98535880e-02f,+8.47400278e-02f,
	+4.68425564e-02f,+5.68693541e-02f,-4.44261506e-02f,-7.27424119e-03f,-4.66961116e-02f,
	-3.50403264e-02f,-2.92280782e-02f,+2.29399633e-02f,-7.24071786e-02f,-1.50277726e-02f,
	+1.94059908e-02f,+7.20503256e-02f,+1.03336782e-03f,-4.16934723e-03f,-7.55097065e-03f,
	-9.67859849e-03f,+7.55760521e-02f,-2.58152857e-02f,+1.21278157e-02f,-7.99897090e-02f,
	-8.62667430e-03f,+3.99446897e-02f,+1.09811969e-01f,+2.52111815e-02f,+1.65059157e-02f,
	-1.48277739e-02f,+9.81717259e-02f,-6.04379885e-02f,-7.06299394e-02f,+2.17383672e-02f,
	+6.06905483e-03f,-3.14465538e-02f,+7.09792003e-02f,-1.50446370e-01f,+3.15529294e-02f,
	-1.24221139e-01f,+1.06085554e-01f,+9.04367492e-03f,-6.43620491e-02f,-7.13828504e-02f,
	+8.80743712e-02f,+1.14635881e-02f,-8.95963013e-02f,-2.12498358e-03f,+7.38204224e-03f,
	+6.02216534e-02f,+1.50564298e-01f,+7.76403723e-03f,-8.86850208e-02f,-1.42012760e-02f,
	-7.14422390e-03f,-7.17355460e-02f,+1.38222612e-02f,-4.42274027e-02f,-1.11501083e-01f,
	+1.39451802e-01f,-1.51886985e-01f,+7.97719732e-02f,-1.15678743e-01f,+4.05818075e-02f,
	-5.20868562e-02f,-1.04522824e-01f,-1.07003078e-01f,+1.01563774e-01f,+2.50810036e-03f,
	+1.43722817e-01f,+8.34276062e-03f,+1.00772329e-01f,-4.38555777e-02f,+2.65696626e-02f,
	-2.15099044e-02f,+1.66747361e-01f,-8.39128941e-02f,-9.86462906e-02f,-4.88634482e-02f,
	+2.84985509e-02f,-4.99341823e-02f,+1.07853554e-01f,-4.87295026e-03f,+5.22008128e-02f,
	-2.89842300e-02f,+1.27443835e-01f,-1.06025994e-01f,-3.40199284e-02f,+4.36475538e-02f,
	-6.27098158e-02f,+1.62955504e-02f,+2.50234865e-02f,-3.34125273e-02f,+2.09351126e-02f,
	+7.73828700e-02f,-4.56869490e-02f,-2.76767202e-02f,-2.22805310e-02f,-4.92402650e-02f,
	-8.34497064e-03f,+7.42201433e-02f,-6.69313371e-02f,+1.07664894e-02f,-6.67703524e-02f,
	+1.05347326e-02f,+4.10602726e-02f,-2.27417946e-02f,-2.39865556e-02f,+1.15928333e-02f,
	-1.56956818e-02f,-9.10797343e-02f,-1.45347035e-02f,+3.74303162e-02f,-3.36617529e-02f,
	+1.21773414e-01f,+9.18190405e-02f,-1.21714115e-01f,+4.11059298e-02f,-7.81307090e-03f,
	-2.24318448e-02f,-1.32176541e-02f,-6.51944578e-02f,-1.14394188e-01f,+7.81755671e-02f,
	-2.29145717e-02f,+6.42806068e-02f,-8.19485411e-02f,+4.50022630e-02f,-6.71317289e-03f,
	-5.29156215e-02f,-1.04955204e-01f,+8.00653026e-02f,-2.70435843e-03f,+8.47085938e-02f,
	-2.02119909e-02f,+3.11507843e-02f,-2.37504989e-02f,-8.87807831e-03f,+3.72559577e-02f,
	+8.95272717e-02f,-1.19250260e-01f,-1.08179510e-01f,+8.94840248e-03f,-1.53025391e-03f,
	-4.74053249e-03f,+1.03648089e-01f,-4.04895246e-02f,+1.33211575e-02f,-4.60332521e-04f,
	+1.15167879e-01f,-1.27169266e-01f,-5.53864874e-02f,-4.57169712e-02f,-9.54599082e-02f,
	+3.02247815e-02f,+7.93297514e-02f,-9.13123116e-02f,-1.50359573e-03f,+8.01627040e-02f,
	-6.24711998e-02f,+2.45712642e-02f,-2.45667249e-02f,-2.69797891e-02f,-2.62818299e-02f,
	+9.66165811e-02f,-2.97832750e-02f,+3.17095369e-02f,-6.27315417e-02f,+8.88630152e-02f,
	+1.44746760e-02f,-1.25354588e-01f,+3.94678675e-02f,+5.17051183e-02f,+5.82775660e-03f,
	-4.70796302e-02f,-2.39021350e-02f,+2.65923366e-02f,+6.81297854e-02f,+6.73948005e-02f,
	-4.60385252e-03f,-1.48227796e-01f,+3.81370820e-02f,-5.26196603e-03f,+1.47448909e-02f,
	-2.75281370e-02f,-4.88925576e-02f,-1.77157894e-01f,+1.29642203e-01f,-1.45772755e-01f,
	+4.68205065e-02f,-1.25765502e-01f,+8.39642435e-02f,+1.83488876e-02f,+1.76568329e-02f,
	-1.05512165e-01f,+9.91600230e-02f,+2.75596380e-02f,+3.51055525e-02f,-8.00227523e-02f,
	+6.80656359e-02f,+3.61496670e-04f,+4.16576862e-02f,-4.82547283e-02f,+1.20304056e-01f,
	-1.31099775e-01f,-9.17694718e-02f,-5.65178171e-02f,+7.65965283e-02f,-1.77556332e-02f,
	+1.91691965e-02f,-1.28297862e-02f,-1.52281057e-02f,+6.28376100e-03f,+4.03368883e-02f,
	-1.00256950e-01f,-1.43726775e-02f,+3.76188718e-02f,-6.60869852e-02f,-1.53093589e-02f,
	+1.58216152e-02f,-7.27866171e-03f,-1.76660642e-02f,+4.64318059e-02f,-2.48430036e-02f,
	+5.07328436e-02f,-1.12473322e-02f,+2.26296615e-02f,-2.91050170e-02f,+9.77772698e-02f,
	-5.96346967e-02f,+7.91534723e-04f,-2.82381326e-02f,+1.02095038e-01f,+1.40658964e-03f,
	-1.36181220e-01f,+4.11863960e-02f,+1.29410565e-01f,+8.32936242e-02f,-1.78874284e-02f,
	+4.91263717e-02f,-6.44334108e-02f,+4.60463800e-02f,+1.04529470e-01f,+2.94203255e-02f,
	-7.71260485e-02f,+6.73917904e-02f,-8.93861894e-03f,+2.12096665e-02f,+4.49098051e-02f,
	+7.45145902e-02f,-6.53018355e-02f,+5.04381098e-02f,-1.73203692e-01f,+5.70196509e-02f,
	-8.89381617e-02f,+1.51587659e-02f,-5.84706403e-02f,-5.89220263e-02f,-1.58752054e-01f,
	+3.59582305e-02f,+1.97422560e-02f,+4.94530685e-02f,-3.10084876e-02f,+3.03408392e-02f,
	-2.52807271e-02f,+1.28171444e-01f,-4.73726504e-02f,+1.03512816e-01f,-7.26478472e-02f,
	-4.99502420e-02f,-5.03110625e-02f,+9.10124835e-03f,-8.79453421e-02f,+1.84330493e-02f,
	-1.42526058e-02f,+5.34068011e-02f,-3.59057821e-02f,+8.03334191e-02f,-7.54545704e-02f,
	-3.16753909e-02f,-3.99944223e-02f,-8.83275494e-02f,+5.99929728e-02f,-1.28521593e-02f,
	-3.75092998e-02f,+1.24509828e-02f,+4.78913859e-02f,+8.34147260e-03f,+2.24156734e-02f,
	+3.19021009e-02f,+8.27547908e-03f,+2.49805003e-02f,+2.59949490e-02f,-7.27014914e-02f,
	+6.33428991e-02f,-1.04861803e-01f,+1.56166300e-01f,-4.65659238e-02f,-8.92766267e-02f,
	+3.00719216e-03f,+1.23738214e-01f,+9.31161493e-02f,-9.30461008e-03f,+4.41052243e-02f,
	-3.13579664e-02f,+7.13907555e-02f,+1.10861152e-01f,+1.87438279e-02f,-4.73670214e-02f,
	+2.43223291e-02f,-2.65109651e-02f,-2.70501594e-03f,-3.11379489e-02f,+8.62626638e-03f,
	-1.11338750e-01f,+9.68682915e-02f,-1.58474848e-01f,+3.28758769e-02f,-1.13074303e-01f,
	+2.38991412e-03f,-1.80569012e-02f,-2.62532774e-02f,-9.83070582e-02f,+1.16356060e-01f,
	+4.59087640e-02f,+3.89294252e-02f,-7.80983130e-03f,+7.22584203e-02f,+1.42927552e-02f,
	+1.08303927e-01f,+1.31588206e-02f,+6.63446635e-02f,-8.20101649e-02f,-9.05017406e-02f,
	+3.93657573e-03f,-1.74757279e-02f,-1.10708937e-01f,+9.66978595e-02f,-8.75354977e-04f,
	+1.23648746e-02f,-5.75847924e-02f,+1.04504086e-01f,-6.82426691e-02f,-4.36892845e-02f,
	+2.44565941e-02f,-2.00792160e-02f,+6.44966513e-02f,+5.87223098e-02f,-2.91767456e-02f,
	+7.88132008e-03f,+5.84023781e-02f,+3.91533710e-02f,+1.06527805e-02f,-1.30380103e-02f,
	-1.94135904e-02f,+3.00424621e-02f,+8.97344947e-02f,+3.65302414e-02f,+7.88850058e-03f,
	-6.40230998e-03f,+4.11426509e-03f,+6.73191668e-03f,-1.22230398e-02f,+1.00737639e-01f,
	-6.24214746e-02f,-1.65943392e-02f,-1.10638374e-02f,-3.06477081e-02f,+1.18228562e-01f,
	-4.17862087e-02f,+1.03994019e-01f,+8.14379677e-02f,-4.14794497e-02f,+2.02088244e-02f,
	-1.20616667e-02f,+2.49494892e-02f,+5.89986611e-03f,+4.87231603e-03f,-1.12688936e-01f,
	-3.79671529e-02f,-1.03466064e-01f,-7.22952280e-03f,-7.65893534e-02f,+3.78438644e-02f,
	+2.79747378e-02f,+5.36878034e-02f,+1.57733113e-02f,+7.05901757e-02f,-1.79011691e-02f,
	-1.27311181e-02f,-6.24315292e-02f,-7.65524283e-02f,-2.60564256e-02f,-1.20692179e-02f,
	+1.57085471e-02f,+3.25639881e-02f,-4.74874340e-02f,+1.07212709e-02f,-2.76196841e-02f,
	+7.43986368e-02f,+1.36686964e-02f,-3.95267196e-02f,+1.79106481e-02f,+2.69424524e-02f,
	+6.94278404e-02f,+3.31109576e-02f,+6.99605048e-03f,-7.72745386e-02f,+3.65425348e-02f,
	-1.69550963e-02f,+6.54490516e-02f,+7.23217102e-03f,+6.05674684e-02f,-2.48105619e-02f,
	+1.38863832e-01f,-8.11703354e-02f,+2.69217957e-02f,-1.52020231e-02f,+3.82901020e-02f,
	-3.27565474e-03f,+1.12703294e-01f,-8.03714022e-02f,+6.38162270e-02f,-9.15481299e-02f,
	+1.12414204e-01f,-1.67590566e-02f,-9.03211609e-02f,-5.07148802e-02f,+1.15694784e-01f,
	+3.95370573e-02f,-5.56436144e-02f,-1.00367609e-02f,+4.29302976e-02f,-1.35812582e-02f,
	+1.43965393e-01f,-1.11967642e-02f,-9.92107391e-02f,-1.19575337e-02f,-6.22984506e-02f,
	-3.06783542e-02f,-1.58963539e-02f,-9.16791707e-02f,-1.37925774e-01f,+6.35957271e-02f,
	-1.23848952e-01f,+1.41751757e-02f,-1.40751585e-01f,+7.33811930e-02f,+1.66354645e-02f,
	-4.88603301e-02f,-8.19787905e-02f,+1.46898165e-01f,+2.30936669e-02f,+1.54327855e-01f,
	-8.59503355e-03f,+9.34869200e-02f,-2.88637895e-02f,+2.38859151e-02f,-2.42970698e-02f,
	+1.37326971e-01f,-1.43096223e-01f,-7.91710615e-02f,-6.64937124e-02f,+4.86322977e-02f,
	-2.09249817e-02f,+3.87115479e-02f,-8.52495618e-03f,+2.51464453e-02f,-4.94422391e-03f,
	+8.30755383e-02f,-1.72525704e-01f,-4.02902886e-02f,+5.47990552e-04f,-3.09955981e-02f,
	+1.13911638e-02f,+5.99930156e-03f,-9.72992703e-02f,+6.69305250e-02f,+1.59854884e-03f,
	+8.13089125e-03f,+1.61042120e-02f,-7.07342103e-03f,-3.80133055e-02f,+3.97932604e-02f,
	+6.14435859e-02f,-5.36137223e-02f,+7.50028016e-03f,-7.95941576e-02f,+1.23687275e-01f,
	-3.63179743e-02f,-2.22770292e-02f,-1.36124892e-02f,+9.00313184e-02f,-2.76435837e-02f,
	-2.70160697e-02f,-1.65281352e-02f,+4.10285071e-02f,+3.34682912e-02f,+8.99675563e-02f,
	-1.21350000e-02f,-9.43999514e-02f,+7.49521106e-02f,-2.57809609e-02f,-3.70610058e-02f,
	-3.54624726e-02f,+1.20141366e-02f,-7.57646710e-02f,+2.08052341e-02f,-6.20522909e-02f,
	+4.50531952e-02f,-3.09361499e-02f,+3.47307101e-02f,+3.26332101e-03f,-4.82888743e-02f,
	-2.99002435e-02f,+1.34585559e-01f,-6.61414629e-03f,+6.76705539e-02f,-6.07819520e-02f,
	+6.92407787e-02f,-1.60081275e-02f,+5.17085046e-02f,-2.42612958e-02f,+4.34136242e-02f,
	-1.09621435e-01f,-8.72055218e-02f,-7.23625124e-02f,+4.67353798e-02f,-4.49699610e-02f,
	+6.41108751e-02f,+7.32838089e-05f,-3.10000256e-02f,-1.75418071e-02f,+8.64811018e-02f,
	-3.69861238e-02f,-4.98845093e-02f,+1.53456889e-02f,-7.01092482e-02f,+1.24704372e-02f,
	-1.59136783e-02f,+4.29385481e-03f,-1.03499629e-02f,+5.80366440e-02f,-5.57203144e-02f,
	+8.37286375e-03f,+4.09451276e-02f,-3.86743173e-02f,+8.96495953e-03f,-3.53124775e-02f,
	+1.49878883e-03f,+1.63933709e-02f,-4.22440432e-02f,-4.61230613e-02f,+6.70677982e-03f,
	+2.03439239e-02f,+6.64947480e-02f,-2.88187377e-02f,-4.16268706e-02f,+1.72597598e-02f,
	+3.08264270e-02f,+6.39826208e-02f,-9.93552152e-04f,+3.36097889e-02f,-2.61375960e-02f,
	+4.10430990e-02f,+5.04421145e-02f,+2.26579234e-02f,-3.40688564e-02f,-4.02444154e-02f,
	+1.93331428e-02f,-8.23806040e-03f,+1.07436385e-02f,+2.60326546e-02f,-1.44191021e-02f,
	+3.97911705e-02f,-1.81866484e-03f,+1.01212533e-02f,+6.88686548e-03f,+1.08327093e-02f,
	+4.78530787e-02f,-2.68442854e-02f,-1.20985284e-02f,+2.62358487e-02f,+2.29307953e-02f,
	+3.16471271e-02f,-1.73414294e-02f,+1.11162104e-02f,-4.82993834e-02f,-3.91507661e-03f,
	-3.92247066e-02f,-2.86737122e-02f,+4.09454331e-02f,-2.43495386e-02f,+8.22043139e-03f,
	+2.92138215e-02f,-1.22697372e-02f,+5.06654801e-03f,-2.91045643e-02f,+2.11716257e-02f,
	-6.40099049e-02f,-1.64691377e-02f,-3.91796557e-03f,-2.00383570e-02f,-9.81483702e-03f,
	+3.74636874e-02f,+5.22103943e-02f,+3.31335589e-02f,-3.02534364e-02f,-5.08128442e-02f,
	-9.86310467e-03f,+3.00137401e-02f,-2.15913860e-05f,+7.49968812e-02f,-7.42487013e-02f,
	-4.91070673e-02f,-1.02247097e-01f,+1.26565233e-01f,-8.81942362e-02f,-1.29368410e-01f,
	+9.28408504e-02f,+1.71368793e-01f,+6.15049936e-02f,-4.28409725e-02f,-2.69387662e-02f,
	-4.61761318e-02f,-1.54508529e-02f,+1.26973018e-01f,-4.69782576e-02f,-1.73005387e-01f,
	-1.55763375e-02f,-2.94708349e-02f,+1.33311851e-02f,+4.44810167e-02f,-3.98204150e-03f,
	-5.17500453e-02f,+8.40298831e-02f,-2.19159991e-01f,-4.76305895e-02f,-1.56515896e-01f,
	-7.66338706e-02f,-1.33897543e-01f,-6.52124509e-02f,-9.38090160e-02f,+4.56287079e-02f,
	+2.23005787e-02f,+9.27857086e-02f,+5.99378049e-02f,+6.92941472e-02f,+4.73484360e-02f,
	+1.12327881e-01f,+4.56067920e-02f,+9.93517786e-02f,-1.50893778e-01f,-3.00692171e-02f,
	-3.38712558e-02f,-2.60795895e-02f,-3.46748047e-02f,+6.35319343e-03f,-2.27451557e-03f,
	+5.17997965e-02f,-9.27268565e-02f,+1.29192591e-01f,-7.95368627e-02f,-7.76816998e-03f,
	+3.46580446e-02f,-9.64459702e-02f,+2.63605844e-02f,+1.40264435e-02f,-2.66611986e-02f,
	+1.42759681e-02f,+2.46165842e-02f,+6.89097941e-02f,+7.90243670e-02f,-2.66797729e-02f,
	-3.61738279e-02f,+3.57917584e-02f,-1.74717599e-04f,-5.01694866e-02f,-2.84135435e-02f,
	-7.40878582e-02f,+1.09526217e-01f,-8.68205726e-02f,+3.90717462e-02f,+1.08343951e-01f,
	-1.19453352e-02f,+5.80288507e-02f,-2.34389734e-02f,+2.54435111e-02f,+9.01383311e-02f,
	-4.76727299e-02f,+1.46105722e-01f,+6.99965060e-02f,-7.20477924e-02f,+7.12806359e-02f,
	+7.23317498e-03f,+9.71000642e-02f,+7.04158470e-03f,+2.71924632e-03f,-1.14849441e-01f,
	+7.28571564e-02f,-8.62428024e-02f,+2.89908741e-02f,-4.45914567e-02f,-8.70468747e-03f,
	+3.75455595e-03f,-4.66112560e-03f,-4.49420474e-02f,+6.56821877e-02f,+6.53343126e-02f,
	+1.30831730e-02f,+1.96936307e-03f,+9.66561772e-03f,+2.74339654e-02f,-2.09053908e-03f,
	-1.14407698e-02f,+6.03700057e-02f,-3.89227867e-02f,+6.30871160e-03f,+6.02537543e-02f,
	-1.00608237e-01f,-3.09785120e-02f,+1.17821153e-03f,+3.18988338e-02f,+7.20118359e-02f,
	+3.10088228e-02f,+5.96445985e-03f,-1.04889616e-01f,-1.92015041e-02f,-3.42018232e-02f,
	-4.23937626e-02f,+5.15588969e-02f,-5.36078513e-02f,-3.46126892e-02f,+8.81608389e-03f,
	+1.00493687e-03f,+1.15701314e-02f,+2.13140231e-02f,+1.78312808e-02f,-7.32341781e-03f,
	-3.71809438e-04f,+4.73472439e-02f,-8.18354562e-02f,-9.53298062e-03f,-9.82602779e-03f,
	+1.02257907e-01f,-1.10009074e-01f,-4.94050197e-02f,+4.34859544e-02f,+3.54074314e-02f,
	+3.15846615e-02f,-2.02490222e-02f,+9.84737054e-02f,-4.29512523e-02f,+4.73247394e-02f,
	+9.74445641e-02f,-4.05762345e-02f,-8.93421620e-02f,+4.70958017e-02f,-3.38975638e-02f,
	+3.35548744e-02f,+5.45421615e-03f,+1.36825312e-02f,-5.94154857e-02f,+7.03693181e-02f,
	-8.22527483e-02f,+5.13653569e-02f,-7.46122897e-02f,+1.39165623e-02f,-4.60779034e-02f,
	-1.02519281e-01f,-8.56278539e-02f,+4.09085155e-02f,+4.80086468e-02f,+5.74363805e-02f,
	+5.26603088e-02f,+1.28433451e-01f,+1.60391741e-02f,+1.96837354e-02f,-2.20949538e-02f,
	+9.65725407e-02f,-6.59882873e-02f,-3.54478545e-02f,-2.39189640e-02f,+6.18131319e-03f,
	-6.52010813e-02f,+3.65288556e-02f,-4.47158217e-02f,+6.23714589e-02f,-2.64501348e-02f,
	+6.61977381e-02f,-7.92996213e-02f,+3.80948149e-02f,-3.89200710e-02f,-1.04760349e-01f,
	-7.12928595e-03f,-3.23035419e-02f,-3.62445526e-02f,+5.88418618e-02f,-2.04301681e-02f,
	+7.68332183e-03f,-3.98937054e-02f,+1.91446580e-02f,+4.34516035e-02f,-4.38899510e-02f,
	+8.50008354e-02f,-1.04145356e-01f,-1.50784468e-02f,-1.92250498e-02f,+1.01242818e-01f,
	-5.51637523e-02f,-3.53963338e-02f,+1.07115880e-01f,+8.73630345e-02f,+1.11979969e-01f,
	-2.83961426e-02f,-6.70962036e-02f,+4.51151421e-03f,+2.33490057e-02f,+1.40231594e-01f,
	-2.58885901e-02f,-1.16390117e-01f,+3.35449614e-02f,-3.46198864e-02f,+3.16948742e-02f,
	+1.55602954e-02f,+6.46508038e-02f,-1.00630477e-01f,+8.82972032e-02f,-1.37739867e-01f,
	+1.22385770e-02f,-9.30818468e-02f,+1.48929181e-02f,-5.81162572e-02f,+2.86551137e-02f,
	-7.31922463e-02f,+3.01994625e-02f,+1.35353645e-02f,+3.18220109e-02f,-1.02964360e-02f,
	+9.91260335e-02f,-2.07382422e-02f,+7.56344125e-02f,-4.93287332e-02f,+9.69773531e-02f,
	-7.42438212e-02f,-4.97386269e-02f,-1.84013788e-02f,-2.75671128e-02f,-6.33852482e-02f,
	+9.17878468e-03f,-4.71221618e-02f,+3.20938639e-02f,-3.23636597e-03f,+6.50250092e-02f,
	-5.50146326e-02f,-8.39381739e-02f,+3.16028930e-02f,-3.36489119e-02f,+2.95772348e-02f,
	-2.31091995e-02f,-4.57013845e-02f,+4.03660769e-03f,+3.28755006e-03f,+1.83924343e-02f,
	+2.40591243e-02f,+2.15846375e-02f,-6.56874552e-02f,-4.78364900e-02f,-3.85219790e-02f,
	-1.89485196e-02f,+2.86769890e-03f,+2.98319198e-02f,+9.42603275e-02f,-1.43213123e-02f,
	-3.70631833e-03f,+1.56448588e-01f,-1.37441000e-03f,+7.02924803e-02f,-2.41992902e-02f,
	-2.93155797e-02f,+1.02412947e-01f,-1.65348779e-02f,+7.86412358e-02f,+4.76287259e-03f,
	-2.93719526e-02f,-6.58980163e-04f,+3.76982871e-03f,+7.31400549e-02f,-2.99788434e-02f,
	-1.13441581e-02f,-1.09529741e-01f,-4.47695982e-03f,-7.45829120e-02f,-4.09211069e-02f,
	-4.90212254e-02f,-3.71272154e-02f,+5.06278574e-02f,+5.00841103e-02f,-5.04625402e-02f,
	+5.03865397e-03f,+4.18852121e-02f,+6.46987930e-02f,+5.64882904e-03f,+6.08338155e-02f,
	-3.21912132e-02f,+1.98476929e-02f,-2.03917399e-02f,-1.50753243e-03f,-1.98161639e-02f,
	-5.49963955e-03f,+1.51767805e-02f,-3.70192155e-02f,-3.74846533e-02f,-7.47030154e-02f,
	-8.33326112e-03f,+9.80810598e-02f,+5.25994152e-02f,+5.35124913e-02f,-2.12536678e-02f,
	-5.86195588e-02f,-3.89684215e-02f,-1.21959904e-02f,-8.72091576e-03f,-5.01511581e-02f,
	-1.24717578e-02f,+4.02673893e-03f,+7.26836920e-02f,+4.10845056e-02f,-1.61949415e-02f,
	-4.57628109e-02f,-2.69958023e-02f,+2.22919974e-02f,+1.80480890e-02f,-4.79248874e-02f,
	+2.21168585e-02f,+4.34581051e-03f,+8.05725679e-02f,-3.77265774e-02f,-4.68578935e-02f,
	+1.59926355e-01f,+1.26879007e-01f,+6.08186312e-02f,-3.09046656e-02f,-2.70683635e-02f,
	-1.12258969e-03f,-2.52873125e-03f,+8.62692222e-02f,+3.33064273e-02f,-1.09565690e-01f,
	-2.97382437e-02f,-2.69668084e-02f,-6.89562736e-03f,-2.15208158e-03f,+1.14862074e-03f,
	-7.55603686e-02f,+1.11436367e-01f,-1.31807745e-01f,+3.12652551e-02f,-1.35228530e-01f,
	-7.33234957e-02f,-2.73084044e-02f,-5.40817045e-02f,-1.04116693e-01f,+1.41200831e-03f,
	-5.39010093e-02f,+1.74521077e-02f,-1.19135005e-03f,+6.23361692e-02f,-4.77336766e-03f,
	+1.17225587e-01f,-1.78279192e-03f,+8.19154456e-02f,-7.01296479e-02f,+2.54202317e-02f,
	+2.64707562e-02f,-3.67970653e-02f,+4.05661762e-02f,+1.46782473e-02f,+5.31364640e-05f,
	+1.03929482e-01f,+7.43644265e-03f,+8.82437751e-02f,-1.06516115e-01f,-4.89706360e-02f,
	+1.36913564e-02f,-1.49676651e-02f,+5.23562133e-02f,+2.27883421e-02f,-4.37777527e-02f,
	+5.15879691e-02f,+2.45086034e-03f,+3.97338755e-02f,+3.71594615e-02f,-1.08610233e-03f,
	-1.17126703e-02f,+1.31068248e-02f,-5.43022761e-03f,+9.73072834e-03f,+5.48970662e-02f,
	-1.73525177e-02f,+5.12225404e-02f,+3.17458925e-03f,-2.66198348e-02f,+8.94404277e-02f,
	-2.96099205e-02f,+5.71715049e-02f,+7.73330592e-03f,-2.55705658e-02f,+9.34859738e-02f,
	-6.75584450e-02f,+8.61495063e-02f,+1.63645614e-02f,-9.42707732e-02f,+4.49286439e-02f,
	-2.41362378e-02f,-3.20039429e-02f,-1.15573425e-02f,-4.04380262e-02f,-1.24134995e-01f,
	-1.03131682e-02f,-1.01204574e-01f,-1.03750462e-02f,-7.71996677e-02f,+9.26020928e-03f,
	+2.52264552e-02f,+1.56089831e-02f,-3.83384526e-02f,+5.01778722e-02f,+4.34438419e-03f,
	+1.60523243e-02f,-2.72596236e-02f,-2.62731891e-02f,-3.98231409e-02f,+3.25704319e-03f,
	-4.64537814e-02f,-1.93595141e-02f,-2.68135704e-02f,+2.21814699e-02f,+7.09690675e-02f,
	-3.65962535e-02f,+2.73063779e-02f,-6.99459687e-02f,-5.54380892e-03f,+7.43026137e-02f,
	+9.30963308e-02f,+6.71660230e-02f,-6.02162965e-02f,-8.96534398e-02f,+1.02052009e-02f,
	+6.28070394e-03f,+5.73240593e-02f,+4.78828792e-03f,-6.37290021e-03f,-3.23243476e-02f,
	+7.61171654e-02f,-5.62109277e-02f,+9.64783784e-03f,-2.31871083e-02f,-3.07298284e-02f,
	+1.42586231e-02f,+3.42971049e-02f,-1.36473879e-01f,-2.90424656e-02f,-8.02249908e-02f,
	+1.53227001e-01f,-1.51871517e-02f,-9.36269760e-02f,+1.51357995e-02f,+9.67146605e-02f,
	+1.07573316e-01f,-5.99916913e-02f,+7.65593350e-03f,-1.30754814e-01f,+8.47956762e-02f,
	+1.16216198e-01f,+5.29742651e-02f,-1.47806406e-01f,+6.72835559e-02f,-7.21708611e-02f,
	+4.30173874e-02f,-2.46390700e-04f,+7.29209706e-02f,-6.77609891e-02f,+4.00993265e-02f,
	-2.02829570e-01f,+6.93765208e-02f,-1.46429151e-01f,-3.38990577e-02f,-3.48177589e-02f,
	-1.05167270e-01f,-1.20935589e-01f,+3.72209623e-02f,+3.25426832e-02f,+6.63121492e-02f,
	+5.65186329e-02f,+8.24503452e-02f,+4.43827696e-02f,+9.21935737e-02f,+3.93170416e-02f,
	+9.41586643e-02f,-9.45278108e-02f,-1.04880333e-01f,-5.44186905e-02f,+3.45156901e-03f,
	-4.96729352e-02f,+8.77698138e-02f,-4.83136438e-02f,+2.69448832e-02f,-5.34787886e-02f,
	+1.40523195e-01f,-6.33070394e-02f,-3.12779546e-02f,+3.47516425e-02f,-9.97718722e-02f,
	+5.40459007e-02f,-3.71036641e-02f,-1.01958528e-01f,+4.13639285e-02f,+4.66719046e-02f,
	-1.02187437e-03f,+4.47178818e-02f,-4.98305671e-02f,-5.67192286e-02f,-1.07501112e-02f,
	+1.30856618e-01f,+1.02870418e-02f,+1.01665407e-01f,-1.39594644e-01f,+1.07146472e-01f,
	-2.70829964e-02f,-1.65687621e-01f,+8.14983323e-02f,+7.76267499e-02f,+1.68857008e-01f,
	-3.57114859e-02f,-2.34128758e-02f,-3.97533327e-02f,+3.42876352e-02f,+1.54387832e-01f,
	+1.35389045e-01f,-1.08494304e-01f,+6.91849515e-02f,-4.37389985e-02f,+8.05825517e-02f,
	+2.97549739e-03f,+1.21461831e-01f,-9.33319479e-02f,+3.41269444e-03f,-2.76423842e-01f,
	+5.97333014e-02f,-5.95756546e-02f,+1.06530804e-02f,-2.89364252e-02f,-3.54569429e-03f,
	-9.98402610e-02f,+5.07639460e-02f,-4.63481173e-02f,+8.07100832e-02f,-3.14723030e-02f,
	+2.28017550e-02f,+1.27394749e-02f,+1.68978348e-01f,-3.22504155e-02f,+2.14591697e-02f,
	-1.20308936e-01f,-3.93504351e-02f,-3.70160714e-02f,+3.94619741e-02f,-1.32053524e-01f,
	-3.34987305e-02f,+6.42576627e-03f,+1.39419055e-02f,+7.40572885e-02f,+1.53568178e-01f,
	-5.10785542e-02f,+3.15144961e-03f,+4.41794237e-03f,-3.71138342e-02f,+1.04482725e-01f,
	-1.27107650e-01f,+1.83766205e-02f,-5.06500863e-02f,+1.32311016e-01f,-7.92537108e-02f,
	+9.92302001e-02f,-3.69691625e-02f,-5.95289432e-02f,+2.25458629e-02f,+4.44000680e-03f,
	-7.19439536e-02f,-2.62779668e-02f,-9.35381204e-02f,+1.67363390e-01f,-1.47837281e-01f,
	+6.02915958e-02f,+1.71758279e-01f,-1.53956946e-03f,+1.21776268e-01f,-8.72843340e-02f,
	+8.61130208e-02f,+8.04056600e-02f,+7.23100326e-04f,+2.37909377e-01f,+4.09053192e-02f,
	-1.08198583e-01f,+3.58536728e-02f,-3.95790599e-02f,+6.94522932e-02f,-2.60793772e-02f,
	+5.61774634e-02f,-8.73390585e-02f,+1.98363103e-02f,-1.29045442e-01f,-4.11283225e-02f,
	-6.35086447e-02f,-8.14702958e-02f,-6.16479330e-02f,-8.91544968e-02f,-1.33934408e-01f,
	+1.36579394e-01f,+2.56425329e-02f,+9.17737633e-02f,+9.21033248e-02f,+4.94535677e-02f,
	-1.51433367e-02f,-7.33057084e-03f,-1.73417088e-02f,+9.11521167e-02f,-8.56309682e-02f,
	-6.37132451e-02f,+1.21661142e-01f,-1.86421514e-01f,-5.37882857e-02f,+5.46457320e-02f,
	+3.64814177e-02f,+1.96160749e-01f,+6.02242537e-02f,+1.13881230e-01f,-1.33993655e-01f,
	-3.98682468e-02f,-6.11110451e-03f,+1.01551460e-02f,+6.74070269e-02f,-9.65002403e-02f,
	-7.06185251e-02f,+1.19917914e-01f,-2.86911279e-02f,+1.36453018e-01f,+4.51259427e-02f,
	+1.91841945e-02f,-2.19740774e-02f,-2.84786280e-02f,-2.90241875e-02f,-9.76543576e-02f,
	-5.60709508e-03f,-1.34517392e-02f,+4.58609611e-02f,-6.28635213e-02f,+5.49930483e-02f,
	+1.27847970e-01f,+2.81392168e-02f,+1.15169927e-01f,-1.03443384e-01f,-6.81792526e-03f,
	+2.59372778e-02f,+1.09863700e-02f,+8.32483452e-03f,-9.81704518e-03f,-9.76057723e-02f,
	-3.11787967e-02f,-1.60543412e-01f,+3.95360105e-02f,-1.27790608e-02f,+3.52701060e-02f,
	-3.72566059e-02f,+1.07775964e-02f,+3.48791778e-02f,+7.36928359e-02f,-7.08801597e-02f,
	-9.24378261e-02f,-7.14170188e-02f,-4.09889296e-02f,-6.57760352e-02f,-4.08801958e-02f,
	-8.21449831e-02f,+4.04566415e-02f,+1.01034485e-01f,+6.61726445e-02f,-4.03777733e-02f,
	+3.61348838e-02f,+1.44274952e-02f,+6.95000142e-02f,+4.71075065e-02f,+8.43385532e-02f,
	+6.63203821e-02f,-4.96976338e-02f,+7.33844489e-02f,-3.93587127e-02f,+2.19547264e-02f,
	+1.55428380e-01f,-1.12002939e-02f,+1.83242559e-02f,-8.98786187e-02f,+2.19894461e-02f,
	+3.86353619e-02f,-6.31322013e-03f,+2.35721841e-03f,+1.02414973e-02f,-2.26531196e-02f,
	+5.73678166e-02f,+1.61282476e-02f,+9.77176428e-02f,+2.06715595e-02f,+2.65054274e-02f,
	-9.08191279e-02f,-1.59744285e-02f,-6.75608963e-02f,-1.01964638e-01f,-6.96329772e-02f,
	+1.23147303e-02f,+5.23581840e-02f,-9.43659991e-02f,+6.93062097e-02f,+1.01621337e-01f,
	-1.75360423e-02f,+1.09275781e-01f,+5.37151098e-03f,+5.74564487e-02f,-1.10154130e-01f,
	+1.70903951e-02f,+8.48309770e-02f,+2.99289078e-03f,-4.45405282e-02f,+7.85726383e-02f,
	-3.13192829e-02f,+4.75742407e-02f,-1.48450211e-03f,-3.83677073e-02f,-7.26202801e-02f,
	+6.94979355e-02f,-1.86580308e-02f,-1.20390859e-02f,-1.47448584e-01f,-1.68960337e-02f,
	-1.92462936e-01f,-1.30524829e-01f,-1.09512538e-01f,+9.01408419e-02f,+2.87779178e-02f,
	+2.91525610e-02f,+9.46408138e-02f,+6.92298785e-02f,+1.41227068e-02f,-8.89587589e-03f,
	+3.39173037e-03f,+1.24792084e-01f,-2.36023078e-03f,-4.44377810e-02f,+4.64934893e-02f,
	-3.49794887e-02f,-8.01828727e-02f,+5.06328829e-02f,+1.05653349e-02f,+1.39953315e-01f,
	+7.11054951e-02f,+2.99907625e-02f,-1.25052616e-01f,+3.14197838e-02f,-3.52091976e-02f,
	-3.15856151e-02f,-1.36862220e-02f,-6.85273334e-02f,-5.86717948e-02f,+9.70186964e-02f,
	-1.03707507e-01f,+7.84694180e-02f,-2.59428993e-02f,+2.62681432e-02f,+1.82290189e-02f,
	-1.45331770e-02f,+3.76673378e-02f,+5.93009125e-03f,+4.35161442e-02f,+5.23272902e-04f,
	+2.74905711e-02f,+3.10570225e-02f,+9.36187953e-02f,+1.40158325e-01f,-3.13913561e-02f,
	+1.36203889e-03f,-2.38397829e-02f,-2.11053044e-02f,+1.58053428e-01f,-2.12040283e-02f,
	+1.23385184e-01f,+6.81465641e-02f,-4.90498878e-02f,-1.37275662e-02f,-2.23877076e-02f,
	+2.43371353e-03f,-3.54737341e-02f,-7.25284498e-03f,-6.15541916e-03f,+2.61594057e-02f,
	-3.63757871e-02f,-2.87542269e-02f,-6.53121471e-02f,+3.33667966e-04f,+5.98802902e-02f,
	+5.95143847e-02f,-5.43325720e-03f,+3.43707763e-03f,-2.77939308e-02f,+2.74392106e-02f,
	+1.85053237e-02f,-7.01716244e-02f,-6.33772314e-02f,+1.72786079e-02f,-3.31538450e-03f,
	+5.60326315e-03f,-6.61186874e-02f,+2.58547291e-02f,+7.72551075e-02f,-4.87037636e-02f,
	+6.16541393e-02f,-1.02366403e-01f,-2.01071836e-02f,+2.17898679e-03f,+4.05373685e-02f,
	+4.47279178e-02f,-4.56756353e-02f,-3.26640978e-02f,-2.94254348e-03f,-2.56680474e-02f,
	+7.19667599e-02f,+2.97260489e-02f,+2.41003875e-02f,+2.12876014e-02f,+1.03157066e-01f,
	+2.50473693e-02f,-1.77809708e-02f,+1.08320639e-03f,-8.02112445e-02f,+2.05443334e-02f,
	+1.44035593e-02f,-5.26653510e-03f,+2.84637604e-02f,-5.16246445e-02f,+1.32320940e-01f,
	-3.65974046e-02f,-3.84799466e-02f,+4.74687554e-02f,+7.74948224e-02f,+1.25712082e-01f,
	-2.99772080e-02f,+1.13484964e-01f,+1.03148669e-02f,+6.38116822e-02f,+1.66136354e-01f,
	+5.18438965e-02f,-1.47847757e-01f,+1.15988508e-01f,+4.93294336e-02f,-3.15293670e-02f,
	-2.07376052e-02f,+4.11497205e-02f,-1.40869766e-01f,-1.21069094e-02f,-2.65593469e-01f,
	+4.62227687e-02f,-5.03225066e-02f,+6.01333939e-02f,-3.48138586e-02f,-1.52881360e-02f,
	-1.84411645e-01f,+9.46187079e-02f,+1.51393726e-01f,+5.63864931e-02f,-1.42777897e-02f,
	+5.69569580e-02f,-4.82600480e-02f,+8.61629471e-02f,-9.45105590e-03f,+9.60723460e-02f,
	-1.84975758e-01f,-8.82807672e-02f,-5.89168593e-02f,+2.21268348e-02f,-1.69842660e-01f,
	-2.99939848e-02f,+4.22666818e-02f,+2.43535098e-02f,+9.28801077e-04f,+1.53837949e-01f,
	-7.62787461e-02f,-5.72028309e-02f,+3.61073352e-02f,-1.18914559e-01f,+6.67322651e-02f,
	+3.25838700e-02f,-4.51640226e-02f,+8.56829807e-03f,+1.11758173e-01f,-5.12665845e-02f,
	-4.15140986e-02f,+1.17188208e-02f,-8.71493965e-02f,-2.80305110e-02f,-2.19308734e-02f,
	-3.56806964e-02f,+1.81240344e-03f,+1.67875160e-02f,+1.50673524e-01f,-6.41577989e-02f,
	+3.17267962e-02f,+7.23378211e-02f,+1.69332288e-02f,+1.30616263e-01f,-2.17906828e-03f,
	+6.59608021e-02f,-2.63184216e-02f,+8.24521035e-02f,+1.66559532e-01f,-2.72286329e-02f,
	-1.09563001e-01f,+5.94596639e-02f,-5.87418862e-02f,-3.51364464e-02f,+4.09577042e-03f,
	+9.81443524e-02f,-1.25136971e-01f,+5.87076098e-02f,-8.84460956e-02f,+3.93568166e-02f,
	-1.02227479e-01f,-4.12853397e-02f,-6.03449568e-02f,-1.10583787e-03f,-7.21073821e-02f,
	+6.55004606e-02f,+7.61980340e-02f,+1.94723047e-02f,+3.63845698e-04f,+2.89265271e-02f,
	+4.28844579e-02f,-2.10296586e-02f,-2.68854611e-02f,+9.04006958e-02f,-9.82378051e-02f,
	-2.86393855e-02f,+3.66740264e-02f,-4.04267535e-02f,-3.87047157e-02f,-1.04679773e-02f,
	+5.17159875e-04f,+1.14175975e-01f,+3.97442244e-02f,-1.14505310e-02f,-6.92915246e-02f,
	+2.55204570e-02f,+3.07885464e-02f,-5.96808381e-02f,-9.92400199e-03f,-6.82690553e-03f,
	-7.46963397e-02f,+7.20492899e-02f,-1.06871733e-02f,+5.04343212e-02f,-7.81677067e-02f,
	-3.49061713e-02f,+2.93900557e-02f,+1.41456686e-02f,-1.29220111e-03f,+3.99891622e-02f,
	+1.27963694e-02f,+3.59202623e-02f,-4.76589613e-02f,+8.29856917e-02f,+1.28877163e-01f,
	+1.14249453e-01f,-9.15191621e-02f,-1.52496458e-03f,+1.59278195e-02f,+5.81722148e-02f,
	+1.02126278e-01f,-6.55853897e-02f,+4.26799133e-02f,+2.52911393e-02f,+8.54504183e-02f,
	+2.27006003e-02f,+3.96105740e-03f,-6.96410239e-02f,-3.64301018e-02f,-5.72409853e-02f,
	-6.18567578e-02f,-6.57682195e-02f,-4.21111770e-02f,-5.09152263e-02f,+8.94279480e-02f,
	+6.93017943e-03f,+1.94574725e-02f,+6.41839504e-02f,+6.87865913e-02f,+1.11567743e-01f,
	-9.16954072e-04f,-5.25976531e-02f,-2.35583466e-02f,-3.17363217e-02f,-4.25421596e-02f,
	-7.22370595e-02f,-1.68507975e-02f,+1.38631659e-02f,-1.30163999e-02f,-1.10028740e-02f,
	+7.10700005e-02f,-1.06306607e-02f,+6.36775717e-02f,-1.00183763e-01f,+2.90751811e-02f,
	-1.94467269e-02f,+8.89011696e-02f,-9.70156267e-02f,+3.94322574e-02f,-3.89180779e-02f,
	-1.83280967e-02f,+4.70329896e-02f,+5.45126684e-02f,+6.52963296e-02f,-3.62256803e-02f,
	-6.48727342e-02f,+2.56567243e-02f,-1.74343195e-02f,-5.48280291e-02f,-1.77034363e-03f,
	+7.68628567e-02f,+2.57682540e-02f,-5.83593026e-02f,-9.63020697e-02f,-3.93413231e-02f,
	+8.90851207e-03f,-2.50465591e-02f,-2.01977156e-02f,+3.82274156e-03f,+4.67000902e-03f,
	+1.54772643e-02f,+9.33007970e-02f,-6.44230992e-02f,-3.05883214e-02f,-9.99410003e-02f,
	+4.84587811e-02f,+6.16504326e-02f,-1.03233993e-01f,-4.81598713e-02f,-2.52408125e-02f,
	-7.97464699e-02f,-4.96342890e-02f,+4.10437211e-02f,+7.72191808e-02f,+1.03420578e-02f,
	+4.48238291e-02f,-3.48486267e-02f,+1.48016751e-01f,-1.23348750e-01f,-4.95702662e-02f,
	-2.50375476e-02f,-7.99029600e-03f,-7.59851635e-02f,+8.17618221e-02f,+3.34084518e-02f,
	-1.52240256e-02f,+1.68924809e-01f,+1.20873600e-01f,-5.03597595e-02f,+8.84236842e-02f,
	+1.78823918e-02f,+6.50176853e-02f,-2.69523691e-02f,+7.93533865e-04f,+6.54179901e-02f,
	-9.02320221e-02f,+6.89728418e-04f,-7.63190761e-02f,-1.70089696e-02f,+6.97292387e-02f,
	-9.79146361e-02f,+4.68279496e-02f,-1.42556712e-01f,+1.00236284e-02f,+1.13110729e-02f,
	-1.00545116e-01f,-1.75740756e-02f,+7.91466050e-03f,-9.21443477e-02f,+5.58121428e-02f,
	+1.99128874e-02f,+9.96607170e-02f,-5.29130287e-02f,-3.90351843e-03f,-1.59631725e-02f,
	+1.40010146e-02f,-1.19800922e-02f,-8.42427462e-02f,-2.08411645e-02f,-7.09985048e-02f,
	+6.10708958e-03f,-2.21959092e-02f,+7.48943985e-02f,-5.17882295e-02f,+3.12518962e-02f,
	+1.00239433e-01f,+4.40782718e-02f,+8.14290717e-02f,-6.07168302e-02f,+7.73485377e-02f,
	+1.01090871e-01f,-6.27593175e-02f,-1.73251089e-02f,+3.44814956e-02f,+8.54666382e-02f,
	-7.72110745e-02f,-1.47094056e-02f,+1.30369321e-01f,-4.29192334e-02f,+1.28910363e-01f,
	-2.43751165e-02f,+1.01946428e-01f,-6.96884394e-02f,-6.41375314e-03f,-5.26328199e-02f,
	+4.88115475e-02f,-1.39187798e-01f,+1.23541556e-01f,+1.58722878e-01f,+3.31659541e-02f,
	-2.20533414e-03f,+9.17385742e-02f,+9.34915319e-02f,-1.95373222e-02f,-4.38107774e-02f,
	+1.28179863e-01f,-9.50927362e-02f,-8.51678103e-02f,-3.16847488e-02f,-2.91138701e-02f,
	-1.16630413e-01f,-1.54444715e-02f,-5.22748902e-02f,+1.53609319e-02f,+1.06743509e-02f,
	+5.34419809e-03f,-1.58859402e-01f,-2.44397800e-02f,+1.24072349e-02f,-1.73974067e-01f,
	-2.62800837e-03f,+5.77906519e-02f,-1.22989289e-01f,-6.35166746e-03f,-4.28999662e-02f,
	-4.70791012e-02f,-1.28406972e-01f,-6.77783415e-03f,-2.16339603e-02f,-6.83401071e-04f,
	-5.55129163e-02f,-1.09401613e-01f,-2.06117127e-02f,-7.21995486e-03f,+6.60050437e-02f,
	-6.40829355e-02f,-1.03687774e-03f,+8.53802487e-02f,+6.21244498e-03f,+9.66238007e-02f,
	-8.03602785e-02f,+1.04712985e-01f,-1.27369136e-01f,+8.59391391e-02f,+1.57241017e-01f,
	+1.56860966e-02f,-4.99098897e-02f,+8.52248669e-02f,-3.39430794e-02f,+8.38972814e-03f,
	-1.48782134e-03f,+2.57043615e-02f,-8.54292512e-02f,+1.37152737e-02f,-5.02024665e-02f,
	+1.98784005e-02f,-1.84557691e-01f,-5.85112646e-02f,-1.81707442e-01f,-1.62765533e-01f,
	-1.42630517e-01f,+5.48642837e-02f,+5.60160317e-02f,+5.88261709e-03f,+1.38151750e-01f,
	+1.07599959e-01f,+3.62980515e-02f,-1.08642811e-02f,-2.76741385e-03f,+9.12425667e-02f,
	-4.15424025e-03f,-1.25406645e-02f,+5.76128848e-02f,-1.67283248e-02f,-2.87355911e-02f,
	+6.39342889e-02f,-4.11081314e-02f,+1.28323987e-01f,+7.49179795e-02f,+9.05803591e-02f,
	-5.53435907e-02f,+6.53179809e-02f,-8.00640043e-03f,-4.50312085e-02f,-1.96878109e-02f,
	-3.49247605e-02f,-1.08566627e-01f,+1.44406214e-01f,-3.53892818e-02f,+1.11476921e-01f,
	+3.88491191e-02f,-3.35024223e-02f,+8.11615139e-02f,+1.30983710e-03f,-2.77985819e-03f,
	-1.07066154e-01f,-9.31049064e-02f,-3.10199354e-02f,+4.80149686e-02f,-5.52767776e-02f,
	+4.77511920e-02f,+8.34873989e-02f,+3.68323885e-02f,+1.16291597e-01f,-1.28611118e-01f,
	-6.26377761e-02f,+6.84559494e-02f,-4.25710976e-02f,+1.09813966e-01f,-7.38658244e-03f,
	-6.86735958e-02f,-5.43870963e-03f,+2.28997469e-02f,-1.82524044e-02f,+4.62552682e-02f,
	+4.35801409e-02f,+4.42958856e-03f,+4.52917069e-02f,-1.03203833e-01f,+4.12601195e-02f,
	-1.21342309e-01f,-6.23921081e-02f,-6.59589246e-02f,+1.33672468e-02f,-9.00287330e-02f,
	+6.36280477e-02f,-1.20969471e-02f,+1.17891189e-02f,+5.89841641e-02f,+4.68347222e-02f,
	+5.48586138e-02f,+4.51451801e-02f,-1.78099424e-02f,+4.00600582e-02f,-1.73508525e-02f,
	+5.29484488e-02f,-7.27268169e-04f,-1.15819030e-01f,+4.35643047e-02f,-5.36076091e-02f,
	+7.19050830e-03f,+1.12418309e-01f,-4.82926518e-03f,+5.63342981e-02f,-4.22720984e-02f,
	-8.30062702e-02f,+1.92814004e-02f,-9.55465063e-02f,+5.97794876e-02f,-3.36302072e-02f,
	-4.82179299e-02f,+5.38486168e-02f,+7.30520114e-02f,+9.65812653e-02f,+1.21784816e-02f,
	-3.49630937e-02f,-3.02664451e-02f,-1.72770787e-02f,+3.31514031e-02f,-7.20125809e-02f,
	-5.28966188e-02f,-9.55694704e-04f,+3.49790044e-02f,+2.32621618e-02f,+8.44510570e-02f,
	+3.89240123e-02f,+3.93321887e-02f,+9.06057656e-02f,-8.35808665e-02f,+4.42103185e-02f,
	+3.28504145e-02f,+4.21854928e-02f,+1.09838903e-01f,-1.70780029e-02f,-2.75630578e-02f,
	-5.62732527e-03f,+1.54480739e-02f,-5.75912595e-02f,-2.99359299e-02f,+2.80941594e-02f,
	-6.92534372e-02f,+9.88441855e-02f,-5.55293523e-02f,+1.15504801e-01f,-8.44405740e-02f,
	+1.39217693e-02f,+1.64971128e-03f,+1.18026044e-02f,-1.72433853e-02f,+1.34300798e-01f,
	+5.53270504e-02f,+1.23543786e-02f,+6.64181709e-02f,+4.91428450e-02f,+1.38273761e-02f,
	-7.32941739e-03f,-3.70269082e-02f,+8.03943872e-02f,-3.33538428e-02f,+1.66355763e-02f,
	+6.78513721e-02f,-8.61976966e-02f,-3.10773794e-02f,-4.69711088e-02f,+2.35231221e-02f,
	+7.78791234e-02f,-3.09384596e-02f,+4.35284488e-02f,-6.45234585e-02f,-9.73477289e-02f,
	+7.31406081e-03f,-8.81168321e-02f,+9.45003121e-04f,+3.66948359e-02f,-8.39496255e-02f,
	+7.52264038e-02f,+5.10134827e-03f,+6.39019758e-02f,-3.25780995e-02f,-2.59884782e-02f,
	+5.04798964e-02f,+3.75846997e-02f,+5.11942953e-02f,-7.43020773e-02f,-2.42843628e-02f,
	-8.65681022e-02f,+4.23133969e-02f,-2.06872877e-02f,+2.13099159e-02f,+6.68007731e-02f,
	+5.25541790e-02f,+9.83037129e-02f,-1.10138781e-01f,-5.31658605e-02f,-8.81224871e-03f,
	+7.24342652e-03f,+3.60430777e-02f,-7.86698535e-02f,-9.10475180e-02f,-5.57377376e-02f,
	-2.17113700e-02f,-2.64541395e-02f,-4.59529273e-02f,+4.82005030e-02f,-5.50581813e-02f,
	+9.77310687e-02f,-7.78119862e-02f,+1.11217283e-01f,-8.74015316e-02f,-4.03719544e-02f,
	+2.01838389e-02f,+1.43635012e-02f,-6.46077618e-02f,+7.41235167e-02f,+1.02677383e-02f,
	+8.86783078e-02f,+1.07257977e-01f,+1.10753693e-01f,+5.57883829e-03f,+3.53274271e-02f,
	-4.45460305e-02f,+1.33782318e-02f,-2.96279062e-02f,-1.78741536e-03f,+3.66954952e-02f,
	-6.69010207e-02f,+1.05450321e-02f,-4.28475291e-02f,-4.68835011e-02f,+7.61723146e-02f,
	-2.46603731e-02f,+6.13904484e-02f,-1.21644102e-01f,-7.39309564e-02f,+2.32587792e-02f,
	-1.24990590e-01f,+3.55059206e-02f,+3.14980708e-02f,-7.23923072e-02f,+6.52822107e-02f,
	-2.08466407e-02f,+3.38195078e-02f,-8.24560970e-02f,-1.87121574e-02f,+7.73899332e-02f,
	+2.71739196e-02f,+2.60375477e-02f,-2.69130915e-02f,-3.13546392e-03f,-1.13382656e-02f,
	+3.93466912e-02f,+3.09212208e-02f,+8.95233303e-02f,+4.76534516e-02f,+4.37590666e-03f,
	+6.18860982e-02f,-6.81968033e-02f,-4.86555658e-02f,+1.45445004e-01f,-5.36381304e-02f,
	+1.08770207e-01f,-6.71966979e-03f,-6.99545369e-02f,-4.71573845e-02f,-2.37741396e-02f,
	-5.25480732e-02f,+3.25828493e-02f,+1.94960106e-02f,-1.49793560e-02f,+2.63854992e-02f,
	-1.88623387e-02f,+4.20323908e-02f,-2.93211062e-02f,-3.34473103e-02f,+2.74331383e-02f,
	+7.72641227e-02f,-2.95448340e-02f,+1.15296416e-01f,+3.02259680e-02f,-9.28635884e-04f,
	+7.50732720e-02f,-1.36543997e-02f,-5.07319532e-02f,+1.75108276e-02f,+2.10737307e-02f,
	-3.23690400e-02f,-8.86373594e-03f,-1.14332708e-02f,+1.32038882e-02f,-2.34604608e-02f,
	+3.33593078e-02f,-1.02590553e-01f,+2.20953804e-02f,+4.78712730e-02f,+2.28222902e-03f,
	+2.02367380e-02f,-2.18471307e-02f,-1.10319406e-01f,+5.34694782e-03f,-3.22535075e-02f,
	+1.73777584e-02f,+4.16340418e-02f,+1.97259858e-02f,+4.29217890e-02f,+6.14431128e-02f,
	+4.54259887e-02f,+1.09775532e-02f,+2.38418207e-03f,-1.89785920e-02f,-4.29519042e-02f,
	-3.45325619e-02f,-9.52258855e-02f,-3.85326184e-02f,-3.51649597e-02f,+1.01729900e-01f,
	-6.56103864e-02f,-1.37391761e-02f,+3.99888158e-02f,+8.35657958e-03f,+1.23741262e-01f,
	-1.12953939e-01f,+4.65367809e-02f,-8.66571590e-02f,-2.73641273e-02f,+8.76159742e-02f,
	-2.52608564e-02f,-8.53469521e-02f,-1.37555217e-02f,-1.02133989e-01f,+2.36206800e-02f,
	+1.29971467e-02f,+4.39076535e-02f,-2.34993827e-02f,+4.96041179e-02f,-1.14644393e-02f,
	+6.48650080e-02f,-1.58932000e-01f,-9.05987397e-02f,-1.64312869e-01f,-1.20489076e-01f,
	-8.43448043e-02f,+3.48131582e-02f,+2.55337059e-02f,+4.29805294e-02f,+1.63868964e-01f,
	+7.20001459e-02f,-2.60629579e-02f,-2.85141007e-03f,-1.71750691e-02f,+5.53989708e-02f,
	-3.87839861e-02f,-5.00996364e-03f,+1.22372895e-01f,-2.98161954e-02f,+2.96832658e-02f,
	-2.85308212e-02f,+9.42462776e-03f,+1.73768088e-01f,+1.25928177e-02f,+8.95277783e-02f,
	-1.02056406e-01f,-2.38795299e-02f,-3.25862989e-02f,-9.63884592e-02f,-6.15452118e-02f,
	-1.58773642e-02f,-6.92466572e-02f,+1.42466128e-01f,-6.19017147e-02f,+1.00291200e-01f,
	+6.41493425e-02f,+3.98410670e-02f,+1.42155662e-02f,-4.22926545e-02f,-2.79628276e-03f,
	-1.51962638e-01f,-1.38694957e-01f,-4.80525829e-02f,+1.01912707e-01f,-6.17950261e-02f,
	+2.40082070e-02f,+9.71176699e-02f,+4.95322831e-02f,+6.28938377e-02f,-4.00889851e-02f,
	-1.47056663e-02f,+6.46139085e-02f,-1.55761046e-02f,+3.84604074e-02f,-5.00520691e-02f,
	-1.31467819e-01f,+4.13625687e-02f,-1.27664238e-01f,-2.37348601e-02f,-2.48477831e-02f,
	+2.02068854e-02f,-9.34474766e-02f,+8.05202723e-02f,-2.38684211e-02f,-2.02350877e-02f,
	-1.23026036e-01f,-9.08586532e-02f,-2.07909495e-02f,-8.52564797e-02f,-1.23622857e-01f,
	+3.26271318e-02f,-5.98255778e-03f,+6.03583120e-02f,+9.54817533e-02f,+6.02135770e-02f,
	+9.55897663e-03f,+8.56395438e-03f,+3.39603126e-02f,+1.11335345e-01f,-4.41024220e-03f,
	+3.59491296e-02f,+1.24960765e-01f,-7.69808516e-02f,+6.01507500e-02f,-3.09648290e-02f,
	+4.43885475e-02f,+1.05985366e-01f,-3.01942080e-02f,+1.49675235e-02f,-1.13057256e-01f,
	-4.27940600e-02f,-2.97616757e-02f,-1.94159858e-02f,-5.97278699e-02f,-6.58030156e-03f,
	-7.82350153e-02f,+5.74676283e-02f,+3.88083197e-02f,+4.35774922e-02f,-3.33651118e-02f,
	-3.79174910e-02f,-8.59727189e-02f,+1.55306365e-02f,-2.78745592e-02f,-8.96403715e-02f,
	-7.84943476e-02f,-4.73660380e-02f,+2.24274918e-02f,+1.36056719e-02f,+3.58838700e-02f,
	-4.14818004e-02f,-5.75171039e-03f,+1.16566978e-01f,+8.73924512e-03f,+1.09376244e-01f,
	-2.56373715e-02f,+8.87524933e-02f,+1.91891164e-01f,-1.04210936e-01f,-7.30910385e-03f,
	+1.39188036e-01f,+5.47516271e-02f,-1.76108509e-01f,-2.41477117e-02f,+1.21519707e-01f,
	-3.94537598e-02f,+1.46013543e-01f,-3.42743658e-02f,+2.25181296e-01f,-5.23363389e-02f,
	+6.68104962e-02f,-3.63716185e-02f,+3.89696918e-02f,-2.07560152e-01f,+1.79688796e-01f,
	+2.42409870e-01f,+8.23695511e-02f,+4.84787486e-02f,+1.46539360e-01f,+7.96904638e-02f,
	+4.49810885e-02f,+1.50613906e-02f,+1.40129849e-01f,-7.69330710e-02f,-6.55092970e-02f,
	-1.25636518e-01f,-2.79135238e-02f,-1.57801196e-01f,+6.21085381e-03f,+2.99146995e-02f,
	+9.37030613e-02f,-2.26412043e-02f,+6.70471713e-02f,-1.48909643e-01f,+2.35884376e-02f,
	-3.99504714e-02f,-2.19486892e-01f,-3.21290293e-03f,+5.29131852e-02f,-1.51891917e-01f,
	-6.20016903e-02f,-5.69880195e-02f,+1.10659841e-02f,-2.16078237e-01f,+1.30128749e-02f,
	+2.28560083e-02f,-1.84292195e-03f,-1.49150926e-03f,-1.02416679e-01f,-7.03164339e-02f,
	+7.95003027e-03f,-7.57341757e-02f,-1.10552028e-01f,+7.04915822e-02f,+1.22158170e-01f,
	-5.92428632e-02f,+1.01099677e-01f,-5.65407686e-02f,+6.84135631e-02f,-5.54037234e-03f,
	+2.80489605e-02f,+7.66532198e-02f,-3.32184993e-02f,-1.71647035e-02f,-4.08015437e-02f,
	-1.29156820e-02f,+1.02561623e-01f,+2.73574069e-02f,+3.18063349e-02f,-3.83189227e-03f,
	-3.01670711e-02f,+2.77121551e-02f,+9.36870277e-02f,-1.01540357e-01f,-6.41272739e-02f,
	-1.04437070e-02f,-6.51827529e-02f,-4.62416820e-02f,+7.48290047e-02f,+7.40783438e-02f,
	-2.51972880e-02f,+8.55171680e-02f,+7.72864223e-02f,+1.53333163e-02f,-4.85625863e-03f,
	-4.65812124e-02f,-1.16024362e-02f,+1.67406425e-02f,+2.87980828e-02f,+2.07115021e-02f,
	-1.04189038e-01f,+1.97334252e-02f,-6.35999814e-02f,+1.14787305e-02f,+1.20494761e-01f,
	+5.83352037e-02f,+5.22712395e-02f,-4.03409777e-03f,-2.23399252e-02f,+5.35076205e-03f,
	-1.32809445e-01f,+4.95768934e-02f,+8.55670590e-03f,-2.31869165e-02f,+1.89974569e-02f,
	-1.49202216e-02f,+6.94588274e-02f,+2.33447030e-02f,-1.20332800e-02f,-3.00559308e-02f,
	-3.36261615e-02f,-2.10751556e-02f,-1.00099921e-01f,-2.57241726e-03f,-4.31179069e-02f,
	+7.17888102e-02f,-5.04380725e-02f,+3.55819054e-03f,+4.19875123e-02f,-4.80244234e-02f,
	+1.15182124e-01f,-2.06134208e-02f,+6.75681978e-02f,-9.04009491e-02f,+2.19893157e-02f,
	+1.22462600e-01f,-3.19342390e-02f,-5.26087917e-03f,+5.59107512e-02f,-3.78077254e-02f,
	+1.92194842e-02f,-3.15706432e-03f,+2.15782672e-02f,-8.63500163e-02f,+6.37401864e-02f,
	-7.67199025e-02f,+3.79397050e-02f,-1.57742411e-01f,-4.04148586e-02f,-5.27272485e-02f,
	-1.29192129e-01f,-1.48366094e-01f,+1.14593334e-01f,+1.16125390e-01f,+2.71077882e-02f,
	+1.09886609e-01f,+5.73407300e-02f,+6.56230450e-02f,-5.34495562e-02f,-3.69481184e-02f,
	+1.09621882e-01f,-3.99189182e-02f,-4.31225076e-02f,+7.73426518e-03f,-2.44994089e-02f,
	-2.85792537e-02f,+1.63665116e-02f,-4.34960462e-02f,+1.26845121e-01f,+1.55553864e-02f,
	+2.28173509e-02f,-1.00903265e-01f,+5.52770589e-03f,+4.78050672e-03f,-4.44940664e-02f,
	+5.32704443e-02f,+1.83588713e-02f,-1.17966309e-01f,+4.58823778e-02f,-5.32421209e-02f,
	+2.71415040e-02f,+4.03808951e-02f,-1.08098509e-02f,-3.01551055e-02f,-4.33164230e-03f,
	+4.05202396e-02f,+7.18075922e-03f,-6.91782311e-02f,+1.60486754e-02f,-2.30479036e-02f,
	+9.15725436e-03f,+1.00376561e-01f,+3.95566933e-02f,-1.93823334e-02f,-3.78819345e-03f,
	-7.47201033e-03f,+2.82661151e-02f,+7.87961334e-02f,-3.40927429e-02f,+1.18068732e-01f,
	-3.90989408e-02f,+3.69483307e-02f,+5.23123704e-02f,+5.55888303e-02f,-5.74745703e-03f,
	-1.94739702e-03f,-2.92069633e-02f,-8.41900781e-02f,+3.07393875e-02f,+2.28612199e-02f,
	+6.33690208e-02f,-6.47189394e-02f,-7.75970053e-04f,+6.81664497e-02f,+2.93484386e-02f,
	+3.42115499e-02f,+7.68738464e-02f,+7.57751390e-02f,+4.51457165e-02f,+2.65297089e-02f,
	-2.88132504e-02f,-2.90315412e-02f,-4.60216366e-02f,+2.28082649e-02f,-2.93617193e-02f,
	+2.32276786e-02f,+4.18036282e-02f,+5.11137173e-02f,-2.64246631e-02f,+2.79639214e-02f,
	-8.95440876e-02f,-4.88205999e-02f,+2.12955885e-02f,+2.87443418e-02f,+5.50882332e-02f,
	-1.98599938e-02f,-1.19451478e-01f,-1.60085410e-03f,-8.52973536e-02f,+6.60151094e-02f,
	+4.16044630e-02f,-8.78344011e-03f,+3.82884704e-02f,+1.13410903e-02f,+2.21240963e-03f,
	-8.50047097e-02f,+2.22583637e-02f,-6.02941448e-03f,-4.88397405e-02f,-1.83573123e-02f,
	-8.83250982e-02f,-1.68477111e-02f,-6.61441907e-02f,+9.60804075e-02f,+1.86630859e-04f,
	+5.68127036e-02f,+2.82813143e-02f,+3.07520316e-03f,+1.52063027e-01f,-8.22556987e-02f,
	+1.05742030e-01f,+3.74236703e-02f,+1.04916364e-01f,+6.29712418e-02f,-1.43984973e-01f,
	-1.28388152e-01f,+8.07186291e-02f,-6.71418309e-02f,-4.77969311e-02f,+3.05535793e-02f,
	+8.15278739e-02f,-9.49618965e-02f,+7.15587065e-02f,+6.81074262e-02f,+9.55492035e-02f,
	-4.80284654e-02f,-2.62499750e-02f,-1.73701659e-01f,+3.67803387e-02f,-1.50157154e-01f,
	+1.22130014e-01f,+1.50392592e-01f,+3.81114148e-02f,+9.54043418e-02f,+1.80976197e-01f,
	-2.19946653e-02f,-1.92401074e-02f,+1.41601507e-02f,+1.50728464e-01f,-8.32045898e-02f,
	-2.70126406e-02f,-2.57268194e-02f,-5.63822687e-02f,-6.89840913e-02f,+2.23774668e-02f,
	-1.13052800e-02f,+1.16917700e-01f,-6.16849773e-02f,+5.06050698e-02f,-1.09178238e-01f,
	+7.85614401e-02f,-2.06452925e-02f,-1.11523263e-01f,-2.43717711e-03f,+2.21541766e-02f,
	-1.14374183e-01f,+6.05179705e-02f,-4.48207892e-02f,+6.59695547e-03f,-1.68080747e-01f,
	+2.53286608e-03f,+1.63680557e-02f,-5.08241020e-02f,+2.02018768e-02f,-1.59220427e-01f,
	+1.57089531e-02f,-5.10002971e-02f,+1.03845119e-01f,+5.93944937e-02f,+1.08330108e-01f,
	+8.85124877e-02f,-1.16112866e-02f,+1.13386244e-01f,+1.89956762e-02f,+1.26536950e-01f,
	+7.10193142e-02f,+6.35910556e-02f,+1.08128995e-01f,-7.86054730e-02f,-9.36906338e-02f,
	+3.81524898e-02f,-2.75078055e-04f,-9.32643265e-02f,-2.80447975e-02f,-7.34378304e-03f,
	-1.45120457e-01f,+1.31620094e-01f,+1.75201111e-02f,+9.11182761e-02f,-4.34523821e-02f,
	-1.65280085e-02f,-1.03152715e-01f,+4.62003201e-02f,-1.41813666e-01f,+1.35007516e-01f,
	+1.13064237e-01f,+3.70757729e-02f,+1.19287804e-01f,+1.75345704e-01f,-3.56031358e-02f,
	-6.41113445e-02f,+4.24224474e-02f,+1.55339271e-01f,-3.56198102e-02f,-4.78811711e-02f,
	-2.15600859e-02f,-2.10618209e-02f,-7.36201480e-02f,-4.11964022e-02f,+3.38333622e-02f,
	+1.20393835e-01f,-1.31430672e-02f,-9.29314923e-03f,-1.05130598e-01f,+1.52779988e-03f,
	-1.17885526e-02f,-1.63978919e-01f,-2.91851331e-02f,+6.74157143e-02f,-1.24704190e-01f,
	+4.88077067e-02f,-1.40151652e-02f,+2.02187560e-02f,-1.02735698e-01f,+4.08691913e-02f,
