#include <math.h> 
#include <string.h> 
#include "./include/k2c_include.h" 
#include "./include/k2c_tensor_include.h" 
typedef float fixed;
size_t scaling_factor = 0;
size_t shift_factor = 16;

void simplenet(k2c_tensor_int* input_1_1_input, k2c_tensor* dense_2_output) {

	size_t conv2d_stride[2] = { 1,1 };
	size_t conv2d_dilation[2] = { 1,1 };
	float conv2d_output_array[21632] = { 0 };
	k2c_tensor conv2d_output = { &conv2d_output_array[0],3,21632,{26,26,32, 1, 1} };
	int fp_conv2d_output_array[21632] = { 0 };
	float_array_to_fixed(conv2d_output_array, fp_conv2d_output_array, 21632);
	k2c_tensor_int fp_conv2d_output = { &fp_conv2d_output_array[0],3,21632,{26,26,32, 1, 1} };
	float conv2d_kernel_array[288] = {
	+6.09485060e-02f,-8.75084028e-02f,+3.13300230e-02f,-1.03941970e-01f,+1.32393792e-01f,
	+7.93369263e-02f,+6.62185252e-02f,+1.41516313e-01f,+1.18441977e-01f,-3.81086618e-01f,
	+4.08469439e-02f,-3.35267335e-01f,+1.21268369e-01f,+1.67699412e-01f,+1.28662422e-01f,
	+1.33333728e-01f,-6.29810870e-01f,+2.41303548e-01f,-1.70606449e-01f,+3.46662641e-01f,
	+2.59896010e-01f,+1.19790405e-01f,+3.98730218e-01f,+9.49717015e-02f,-6.05913661e-02f,
	-9.03128937e-04f,-2.95551777e-01f,-4.45311368e-02f,+1.25949696e-01f,-2.80225843e-01f,
	-3.40670705e-01f,+9.85651612e-02f,+1.15476564e-01f,+2.76461720e-01f,+1.79827157e-02f,
	-9.36511010e-02f,-3.20517898e-01f,+7.20101967e-02f,+4.56269085e-01f,+3.22336137e-01f,
	+3.69390875e-01f,+2.79628281e-02f,+1.08840145e-01f,+2.20350638e-01f,+1.51634827e-01f,
	+9.60821137e-02f,-6.91739656e-03f,+3.23038176e-02f,-5.48704565e-01f,+2.88718075e-01f,
	+9.09443870e-02f,+2.44466618e-01f,-2.41481051e-01f,+1.02038883e-01f,+1.99098304e-01f,
	+1.21420637e-01f,-4.31480736e-01f,+1.23571411e-01f,-6.23620525e-02f,-2.79003054e-01f,
	+3.40457439e-01f,-1.64553180e-01f,-5.67155033e-02f,-2.47925758e-01f,-1.58060536e-01f,
	+4.73991990e-01f,+1.02448687e-01f,-1.59384027e-01f,-3.73906136e-01f,+1.74383506e-01f,
	+1.11694075e-01f,-2.37681851e-01f,+2.69550472e-01f,+2.16024235e-01f,+2.60867417e-01f,
	+2.02997938e-01f,+1.57188073e-01f,-2.94453800e-01f,-2.01539576e-01f,+1.20198987e-01f,
	-6.76739216e-02f,+2.26613879e-01f,+2.96613485e-01f,+1.93502724e-01f,-4.96574640e-01f,
	+4.04198207e-02f,+7.85159171e-02f,+2.90536344e-01f,-4.03127134e-01f,-4.10374962e-02f,
	+3.50108266e-01f,-3.89403701e-01f,+2.09818497e-01f,+1.60721391e-01f,+3.16349864e-01f,
	-1.77936822e-01f,+5.56830689e-02f,-6.85453713e-01f,-1.09550478e-02f,+1.36319548e-01f,
	+1.81191027e-01f,+9.81998071e-02f,-4.78858888e-01f,+2.26053178e-01f,+2.11480498e-01f,
	-1.17092878e-01f,-1.90757364e-01f,+1.93577915e-01f,+1.44247204e-01f,+1.44036505e-02f,
	+3.96416694e-01f,+2.77178399e-02f,-5.65234125e-01f,-9.93151218e-02f,+5.97973093e-02f,
	+4.32299040e-02f,+3.20447087e-01f,-4.62723784e-02f,+2.16415823e-01f,+2.42045932e-02f,
	+1.05342031e-01f,+4.77138907e-02f,-3.79103780e-01f,+2.44602159e-01f,-2.91420788e-01f,
	+1.99563771e-01f,-3.66187930e-01f,+1.42923757e-01f,-7.97297899e-03f,-1.14767447e-01f,
	+1.22790625e-02f,+2.11256951e-01f,+1.91005450e-02f,-4.86481376e-02f,+7.74721429e-02f,
	+7.20147789e-02f,+5.93840377e-03f,-4.05762680e-02f,-9.91254225e-02f,+3.02195638e-01f,
	-8.66234154e-02f,+2.44919837e-01f,-8.69492367e-02f,+1.33995250e-01f,-1.40540367e-02f,
	+1.64662316e-01f,+2.68969297e-01f,+1.28441691e-01f,+9.42820460e-02f,+1.74066082e-01f,
	+6.13201130e-03f,+1.92218691e-01f,+2.20881596e-01f,-4.72699432e-03f,+1.95362896e-01f,
	+6.43596873e-02f,-5.41039817e-02f,+1.95761248e-01f,-9.47153196e-04f,+3.17619860e-01f,
	+2.00462013e-01f,+1.88067049e-01f,+1.35650277e-01f,+2.72417545e-01f,-2.57594943e-01f,
	+7.38191009e-02f,+1.88061744e-02f,-3.58874023e-01f,-4.16150130e-02f,+1.31307080e-01f,
	+3.01049709e-01f,-3.45909200e-03f,+1.01971537e-01f,+2.02056035e-01f,-5.03030777e-01f,
	+3.46467383e-02f,+5.62116861e-01f,+9.72605273e-02f,-6.72547296e-02f,+1.36548087e-01f,
	-2.14151844e-01f,-5.94378076e-02f,-2.46017501e-01f,+2.95112878e-01f,+1.76217139e-01f,
	+5.84964603e-02f,+1.48831636e-01f,-2.66202033e-01f,-1.42198130e-01f,+1.82218015e-01f,
	+1.13361381e-01f,+1.49765968e-01f,+1.20226275e-02f,-1.92005068e-01f,+1.94430515e-01f,
	-1.59555912e-01f,+1.74270317e-01f,+1.90112337e-01f,-3.34530592e-01f,+3.01977873e-01f,
	-2.22616136e-01f,+3.71374935e-02f,-3.00042719e-01f,+1.39866292e-01f,+1.42092630e-01f,
	-1.75535530e-01f,+2.40172014e-01f,-2.15264931e-01f,-4.50852782e-01f,-5.33531368e-01f,
	+2.64961153e-01f,-4.36285108e-01f,-4.47338931e-02f,-1.12589508e-01f,-3.33903939e-01f,
	-4.26987380e-01f,-2.81105489e-02f,-1.77374799e-02f,-7.63438791e-02f,+4.34520133e-02f,
	-4.70029742e-01f,+2.12513447e-01f,-3.22780192e-01f,-1.22645728e-01f,-3.65834273e-02f,
	-7.23988712e-01f,-1.65678505e-02f,-1.32342920e-01f,+2.83705235e-01f,+1.11487187e-01f,
	-6.20285282e-04f,+1.83967296e-02f,-4.10103947e-01f,-9.08351392e-02f,-3.40184271e-01f,
	-4.47548740e-02f,+1.78313002e-01f,+3.05561218e-02f,+2.41589859e-01f,+1.22009568e-01f,
	+8.20386633e-02f,-4.15055275e-01f,-4.98027988e-02f,-4.32541609e-01f,+2.94074327e-01f,
	+5.46314307e-02f,-3.70929718e-01f,-4.85742241e-01f,+2.86084592e-01f,-4.46606278e-02f,
	+3.76858003e-02f,+3.83281112e-01f,-5.29154003e-01f,-1.78598553e-01f,+7.13842064e-02f,
	-1.25612363e-01f,+3.67208011e-02f,-5.03842592e-01f,+9.88807231e-02f,-5.70521913e-02f,
	+2.94598877e-01f,+4.58815545e-02f,+1.55983478e-01f,-4.53037709e-01f,-2.89706349e-01f,
	+1.47762895e-01f,+2.71586567e-01f,-3.49939138e-01f,-1.76935837e-01f,+4.50227186e-02f,
	-2.35064611e-01f,+7.47600719e-02f,+3.11885476e-01f,+4.18868102e-02f,-4.11210716e-01f,
	-3.35128009e-01f,+2.53963113e-01f,+1.39470041e-01f,-5.08377671e-01f,-1.13430448e-01f,
	+1.12683229e-01f,+1.26013204e-01f,+6.67170584e-02f,+3.25506926e-01f,-4.39953387e-01f,
	-2.12975636e-01f,+2.90574372e-01f,+8.62958431e-02f, };
	k2c_tensor conv2d_kernel = { &conv2d_kernel_array[0],4,288,{ 3, 3, 1,32, 1} };
	int fp_conv2d_kernel_array[288] = { 0 };
	float_array_to_fixed(conv2d_kernel_array, fp_conv2d_kernel_array, 288);
	k2c_tensor_int fp_conv2d_kernel = { &fp_conv2d_kernel_array[0],4,288,{ 3, 3, 1,32, 1} };
	float conv2d_bias_array[32] = {
	-5.46470657e-02f,+1.97788626e-01f,-4.10248451e-02f,-1.24300420e-02f,-5.53801507e-02f,
	-7.33755529e-02f,-5.85182682e-02f,-2.91698100e-03f,+2.92647490e-03f,-1.58648808e-02f,
	-4.89797369e-02f,-1.08022384e-01f,-5.50391153e-02f,-1.36791646e-01f,-1.33026559e-02f,
	-1.44005552e-01f,+5.09557463e-02f,-1.74971968e-02f,-1.51176661e-01f,+3.42853516e-02f,
	-8.59623626e-02f,-1.57882705e-01f,+6.85570613e-02f,-3.08494130e-03f,-1.29163135e-02f,
	-5.83834536e-02f,-7.51679949e-03f,-2.48783100e-02f,+1.46608159e-01f,-5.47789875e-03f,
	+4.68901843e-02f,-1.14055708e-01f, };
	k2c_tensor conv2d_bias = { &conv2d_bias_array[0],1,32,{32, 1, 1, 1, 1} };
	int fp_conv2d_bias_array[32] = { 0 };
	float_array_to_fixed(conv2d_bias_array, fp_conv2d_bias_array, 32);
	k2c_tensor_int fp_conv2d_bias = { &fp_conv2d_bias_array[0],1,32,{32, 1, 1, 1, 1} };


	size_t max_pooling2d_stride[2] = { 2,2 };
	size_t max_pooling2d_pool_size[2] = { 2,2 };
	float max_pooling2d_output_array[5408] = { 0 };
	k2c_tensor max_pooling2d_output = { &max_pooling2d_output_array[0],3,5408,{13,13,32, 1, 1} };
	int fp_max_pooling2d_output_array[5408] = { 0 };
	float_array_to_fixed(max_pooling2d_output_array, fp_max_pooling2d_output_array, 5408);
	k2c_tensor_int fp_max_pooling2d_output = { &fp_max_pooling2d_output_array[0],3,5408,{13,13,32, 1, 1} };


	size_t conv2d_1_stride[2] = { 1,1 };
	size_t conv2d_1_dilation[2] = { 1,1 };
	float conv2d_1_output_array[7744] = { 0 };
	k2c_tensor conv2d_1_output = { &conv2d_1_output_array[0],3,7744,{11,11,64, 1, 1} };
	int fp_conv2d_1_output_array[7744] = { 0 };
	float_array_to_fixed(conv2d_1_output_array, fp_conv2d_1_output_array, 7744);
	k2c_tensor_int fp_conv2d_1_output = { &fp_conv2d_1_output_array[0],3,7744,{11,11,64, 1, 1} };
	float conv2d_1_kernel_array[18432] = {
	+7.45688826e-02f,-9.87902433e-02f,-1.36068435e-02f,+1.02459483e-01f,+3.96851487e-02f,
	-9.93092358e-02f,+1.86822917e-02f,+8.55086818e-02f,-3.27806696e-02f,-2.35015750e-02f,
	-6.72572926e-02f,-3.67044918e-02f,-3.79168354e-02f,-8.94316956e-02f,-3.86919491e-02f,
	-5.06019816e-02f,+4.98766527e-02f,+3.36152986e-02f,+1.14014968e-01f,-2.65381038e-02f,
	-7.93838128e-02f,+1.37988254e-01f,+1.30946729e-02f,-8.68437514e-02f,-1.48674417e-02f,
	-7.11835027e-02f,+2.99593098e-02f,+1.76295161e-01f,+5.77171450e-05f,-1.56052664e-01f,
	-1.45427827e-02f,-3.55064720e-02f,-1.15769975e-01f,-4.32940610e-02f,-4.57917750e-02f,
	+1.28076375e-01f,+4.45479192e-02f,+4.53277119e-02f,+5.38315438e-02f,+1.50898779e-02f,
	-1.99581701e-02f,-5.23946509e-02f,+2.21391749e-02f,-5.45748770e-02f,+6.00611195e-02f,
	+1.99178588e-02f,+9.20009539e-02f,-6.81979656e-02f,+7.10008666e-02f,-3.01738881e-04f,
	-1.66196197e-01f,+7.94674158e-02f,-6.19763769e-02f,-1.50886804e-01f,+9.27456543e-02f,
	-1.44295588e-01f,-2.87702650e-01f,-6.20701760e-02f,-4.76816334e-02f,-2.53752973e-02f,
	+7.39217773e-02f,+3.91580677e-03f,+3.18556628e-03f,-2.71843672e-02f,-5.14348209e-01f,
	-2.94775050e-02f,-2.51693912e-02f,+2.83817023e-01f,+2.05178156e-01f,+9.05863568e-02f,
	-5.77791572e-01f,-5.57644702e-02f,-3.21559489e-01f,-2.51797199e-01f,-2.74006367e-01f,
	-1.22171722e-01f,+2.20156029e-01f,-1.26116961e-01f,-1.64931834e-01f,+1.08199753e-02f,
	+3.56184617e-02f,-3.93292338e-01f,-3.32764149e-01f,+2.55342899e-03f,+1.62340943e-02f,
	+1.49972349e-01f,-2.53201514e-01f,+2.55380310e-02f,+8.64240453e-02f,-1.51353674e-02f,
	-5.68655916e-02f,+1.04021594e-01f,-3.71578872e-01f,+2.24669930e-04f,-1.04679391e-01f,
	-2.25544591e-02f,-1.65183246e-01f,-2.54150510e-01f,-2.02691406e-02f,-2.52197266e-01f,
	-1.72461066e-02f,-3.24571207e-02f,-7.88263008e-02f,+6.10677525e-02f,-1.50384307e-01f,
	-2.70262331e-01f,-1.00297548e-01f,-2.23714530e-01f,-1.66541800e-01f,-3.12486794e-02f,
	-1.86619740e-02f,-8.08522329e-02f,+1.43617660e-01f,-3.48835662e-02f,-3.22641060e-02f,
	-4.46417928e-03f,+2.26674467e-01f,-1.56461209e-01f,-5.26522063e-02f,+1.61320642e-02f,
	+8.34880024e-02f,+9.55230817e-02f,-1.10944718e-01f,-9.40846503e-02f,-1.61520094e-01f,
	+6.05099509e-03f,+5.08698821e-03f,+2.24542674e-02f,+7.20704943e-02f,-1.53891623e-01f,
	+4.52145040e-02f,+6.27134889e-02f,+3.70201580e-02f,-1.96853831e-01f,+1.04320854e-01f,
	+1.32969022e-02f,+3.06041762e-02f,-9.72215384e-02f,+8.51090718e-03f,-5.84433712e-02f,
	-2.26774663e-01f,+5.96331153e-03f,-3.84962559e-02f,-1.77103996e-01f,+2.83892900e-02f,
	+4.40364406e-02f,+1.15050346e-01f,+6.69716671e-02f,-1.67465359e-01f,+5.38151897e-02f,
	-7.51828030e-02f,-1.75755113e-01f,+6.07618038e-03f,-1.04137100e-01f,+4.54267636e-02f,
	+4.59063351e-02f,+1.46202639e-01f,-2.86728203e-01f,-1.41761199e-01f,-5.88795766e-02f,
	+5.47626652e-02f,-5.28782373e-03f,+9.07638147e-02f,+7.50114024e-02f,-9.93601829e-02f,
	-3.57712992e-02f,+5.45396730e-02f,-2.72354428e-02f,-6.91734254e-02f,-1.48900980e-02f,
	-1.82902534e-02f,+2.01577526e-02f,+3.89419086e-02f,-9.30825546e-02f,-7.02627674e-02f,
	-8.59884396e-02f,+2.99296323e-02f,+2.30055843e-02f,-1.25719473e-01f,+7.80926272e-02f,
	-7.64606893e-02f,-2.56110746e-02f,+8.25840384e-02f,-1.57544434e-01f,-2.21252576e-01f,
	-1.69476107e-01f,-1.16873346e-01f,+1.09228931e-01f,+1.06815323e-01f,-1.95848215e-02f,
	+1.18029401e-01f,-6.43264800e-02f,+1.16559037e-03f,-1.38335735e-01f,+5.57103828e-02f,
	+1.23171903e-01f,+7.06812814e-02f,-7.91326761e-02f,+9.85463709e-02f,+1.56004027e-01f,
	+8.47014133e-03f,-1.19604595e-01f,+2.92231645e-02f,-1.37217447e-01f,+1.42115327e-02f,
	-1.22559788e-02f,+6.39151037e-02f,-7.22959116e-02f,-1.55860865e-02f,+5.86712137e-02f,
	-1.25286086e-02f,-7.50826448e-02f,-8.45694989e-02f,+6.27345815e-02f,-1.85026359e-02f,
	-4.17392515e-02f,+7.67920213e-03f,-2.98687583e-03f,+7.97984004e-02f,+1.13110520e-01f,
	+1.86424553e-02f,-1.62185729e-01f,-9.30105373e-02f,+6.72335550e-02f,-9.89769846e-02f,
	+3.87944356e-02f,+7.64226392e-02f,+7.53707364e-02f,+3.71143743e-02f,+6.85749799e-02f,
	+1.55384960e-02f,+6.51255324e-02f,-9.99635905e-02f,+3.17339636e-02f,+6.81584608e-03f,
	+1.23458598e-02f,+4.19222862e-02f,-4.75924090e-02f,+2.35522725e-02f,-1.01000093e-01f,
	+8.96644592e-02f,-5.49830124e-03f,-1.22871287e-01f,+1.01153746e-01f,-8.40721130e-02f,
	+4.03794162e-02f,+4.92544360e-02f,-9.08606797e-02f,-2.64130384e-01f,-1.31896809e-01f,
	-1.59217510e-02f,+7.55892182e-03f,+3.38370353e-02f,-2.11141761e-02f,+3.17531526e-02f,
	-5.83596015e-03f,+7.21735135e-02f,+1.71658117e-02f,-9.13887993e-02f,+7.38388300e-02f,
	+6.09702058e-02f,+1.85131058e-01f,+6.49235919e-02f,+1.07415333e-01f,-1.67980418e-01f,
	+1.31960884e-01f,-2.03643784e-01f,-8.79420042e-02f,-1.37418300e-01f,-1.68750614e-01f,
	-6.62800148e-02f,-1.34362921e-01f,-1.33323167e-02f,+4.17561904e-02f,+7.83725530e-02f,
	-2.27054819e-01f,-1.08002856e-01f,+7.76730059e-03f,+1.92007422e-01f,+3.72133441e-02f,
	+2.05921933e-01f,-1.12274848e-01f,-7.28491833e-03f,+6.43768385e-02f,+1.69735953e-01f,
	+3.84369083e-02f,-1.40247894e-02f,-1.83355689e-01f,+4.99676391e-02f,+3.38495895e-02f,
	-1.12845756e-01f,-8.43759626e-03f,+1.03037886e-01f,-5.84398024e-02f,+1.43222257e-01f,
	+3.18355650e-01f,-1.35614365e-01f,+2.51289103e-02f,-1.22304775e-01f,-1.19343594e-01f,
	-3.91225740e-02f,+7.95598626e-02f,+1.41731262e-01f,+2.24114936e-02f,-3.07708215e-02f,
	+7.59325176e-02f,-6.41293898e-02f,+8.62274989e-02f,-1.54627636e-01f,-3.92416388e-01f,
	-3.55667546e-02f,-1.83125168e-01f,-8.14921036e-02f,-2.05850318e-01f,-3.46821500e-03f,
	-1.49140120e-01f,+1.69880576e-02f,-4.37226482e-02f,+4.64560576e-02f,-1.77184910e-01f,
	+1.05408572e-01f,-2.62260169e-01f,+7.98095316e-02f,-2.29856651e-02f,+7.65798092e-02f,
	-1.39370561e-01f,+6.70116767e-02f,-7.13054789e-03f,-4.49641682e-02f,+2.67166737e-02f,
	-8.27725679e-02f,-4.31421958e-02f,-1.63583651e-01f,+2.53382865e-02f,-1.00486435e-01f,
	-1.08280040e-01f,+6.81948364e-02f,+5.39076403e-02f,+6.15610145e-02f,+6.36181682e-02f,
	-1.00358434e-01f,+1.16021655e-01f,-1.46974977e-02f,+2.15182509e-02f,+8.11828002e-02f,
	-1.03063636e-01f,+9.59058851e-02f,+4.85066138e-02f,+1.35149658e-01f,-3.12328935e-01f,
	+7.24394172e-02f,+5.30632734e-02f,-1.79378279e-02f,+7.17316046e-02f,+1.47385674e-03f,
	+4.65834439e-02f,-4.88461331e-02f,-8.78707841e-02f,+2.90014409e-02f,-1.18048983e-02f,
	-7.25314543e-02f,+5.21239974e-02f,+2.92403251e-02f,+3.13717723e-02f,+5.72970100e-02f,
	-6.80417866e-02f,-5.23883551e-02f,-3.74632403e-02f,-1.31492898e-01f,+2.62441933e-02f,
	-1.77372098e-01f,+4.30507138e-02f,-1.40241191e-01f,-3.41572836e-02f,-5.06540127e-02f,
	-1.98596954e-01f,-3.26218396e-01f,-1.13310486e-01f,-1.54143602e-01f,+2.94985007e-02f,
	+6.84989244e-02f,-1.35406002e-01f,+1.10433303e-01f,-4.75302972e-02f,-3.06766421e-01f,
	-2.29933560e-01f,+5.51389344e-02f,+2.08525404e-01f,+6.63221180e-02f,-8.83076936e-02f,
	+1.53572869e-03f,-7.17457682e-02f,-6.75865412e-02f,+1.41398013e-01f,+2.25700960e-01f,
	-7.32849985e-02f,-5.87552302e-02f,-6.97752684e-02f,-1.16097756e-01f,-1.32799849e-01f,
	+1.46603696e-02f,-8.45527723e-02f,+1.72321364e-01f,+1.67843968e-01f,+5.87999411e-02f,
	+2.18697309e-01f,+4.50179353e-02f,-4.14936803e-02f,+4.93602455e-02f,+1.23207584e-01f,
	-7.41400346e-02f,+3.81511115e-02f,-6.79569617e-02f,-2.94122636e-01f,-1.45722762e-01f,
	+7.10867113e-03f,+1.64072901e-01f,+1.24016799e-01f,+1.13116324e-01f,-8.91950913e-03f,
	+5.02530336e-02f,+1.05356596e-01f,-1.27634825e-02f,-1.07551798e-01f,-3.01731024e-02f,
	-1.39488652e-01f,-6.90462440e-02f,-3.72949317e-02f,-4.53185812e-02f,-3.36801298e-02f,
	-6.83146180e-04f,+9.24817175e-02f,+1.60446614e-01f,+8.26332197e-02f,+6.80593727e-03f,
	+2.52590448e-01f,+1.62597466e-02f,+8.81538987e-02f,+7.31185153e-02f,+6.23545423e-02f,
	-2.12445736e-01f,+3.17038298e-02f,-9.69982371e-02f,+1.72129184e-01f,-3.88876460e-02f,
	+3.70605022e-01f,-1.47338752e-02f,+6.93587288e-02f,+1.17669508e-01f,-3.09619457e-01f,
	-2.26736411e-01f,-1.20285787e-01f,+2.50336260e-01f,-8.62690508e-02f,+1.75950304e-01f,
	-4.12284359e-02f,+1.70301378e-01f,+1.92648128e-01f,+1.09910630e-01f,+1.00499868e-01f,
	-2.30055198e-01f,+1.11677937e-01f,+5.96542396e-02f,+2.28826161e-02f,-4.32549901e-02f,
	+5.08077927e-02f,+2.14757640e-02f,-5.29325530e-02f,-4.87623960e-02f,+1.55567288e-01f,
	-2.06684232e-01f,-6.99784234e-03f,+6.38901964e-02f,-6.96004033e-02f,+2.23797075e-02f,
	-4.18764576e-02f,+8.25568661e-02f,-4.06094551e-01f,+2.50646949e-01f,-1.42365485e-01f,
	-1.01180762e-01f,+8.33917856e-02f,+7.15223178e-02f,+1.35603070e-01f,+2.02176645e-02f,
	-1.32989436e-02f,-8.01066961e-03f,+2.49566603e-02f,+8.32701772e-02f,+1.32185474e-01f,
	-6.08832501e-02f,+1.93171903e-01f,-2.03711435e-01f,+6.44781068e-02f,+3.19436304e-02f,
	+5.34658208e-02f,-3.16899806e-01f,+3.71072330e-02f,-5.44108264e-02f,+1.56773984e-01f,
	-2.12403044e-01f,-3.91887166e-02f,-1.29892066e-01f,-2.60749906e-01f,-3.69278163e-01f,
	-6.05828315e-03f,+1.10360503e-01f,-2.00313283e-03f,+9.20977592e-02f,+5.55950627e-02f,
	-1.18216034e-02f,+4.61637927e-03f,-1.47037003e-02f,-2.55215228e-01f,+6.23604283e-02f,
	+1.46729618e-01f,+7.19468519e-02f,+3.30616347e-02f,-4.92921025e-02f,+2.16215253e-01f,
	+1.27877310e-01f,-1.15172848e-01f,+2.22475976e-01f,+1.78745762e-01f,-1.45471403e-02f,
	+1.80265084e-01f,+5.05444370e-02f,-7.40065724e-02f,-1.59760416e-01f,-2.39088565e-01f,
	-1.15615048e-01f,-3.08163077e-01f,+2.64872238e-02f,-1.03989197e-02f,+7.07139298e-02f,
	-1.05599858e-01f,-3.23648661e-01f,-3.34403366e-02f,-5.47415204e-02f,-1.11432781e-03f,
	-1.71341553e-01f,-2.49306694e-01f,+7.47828037e-02f,+1.39378890e-01f,-1.69840470e-01f,
	-4.82959002e-02f,-3.30534056e-02f,-2.69211531e-02f,+2.67812405e-02f,-1.04604363e-01f,
	-1.69093758e-01f,-2.59425133e-01f,-7.21531212e-02f,-1.10200085e-01f,-3.30561310e-01f,
	+5.99923320e-02f,+1.89112574e-01f,+1.38428211e-01f,-8.82754549e-02f,+4.39763244e-04f,
	-5.85309230e-02f,+1.31945252e-01f,-1.00011257e-02f,-5.36595732e-02f,-2.65542883e-02f,
	-2.81878382e-01f,-1.01039737e-01f,-4.33501340e-02f,-1.68421045e-01f,-2.04885583e-02f,
	+1.16320319e-01f,-2.80591637e-01f,-8.99869204e-02f,+2.63305921e-02f,-1.40864015e-01f,
	+5.80767840e-02f,+1.12207517e-01f,-1.56730771e-01f,+2.77745686e-02f,+4.09536920e-02f,
	-5.02547324e-02f,-2.18903959e-01f,+9.75552648e-02f,+7.98217282e-02f,+7.86919072e-02f,
	+3.05150226e-02f,+2.16565020e-02f,+9.88614783e-02f,-1.50407195e-01f,+1.42858148e-01f,
	+1.54992059e-01f,-1.08935684e-01f,+9.37937126e-02f,-6.43316656e-02f,+9.60298851e-02f,
	+1.39833435e-01f,-1.08422212e-01f,+1.03963189e-01f,-4.39268090e-02f,-9.41018388e-02f,
	-8.60748515e-02f,+7.80753791e-02f,-2.99545284e-03f,-1.08923905e-01f,+9.04853269e-03f,
	-1.66375220e-01f,-3.11537653e-01f,+7.90880471e-02f,-1.21868206e-02f,-5.20462319e-02f,
	+1.20762639e-01f,-8.12040716e-02f,+1.17260241e-03f,+7.22552910e-02f,-1.57140583e-01f,
	-1.51795030e-01f,-1.15028121e-01f,-7.51209706e-02f,+3.45743001e-02f,+2.34670974e-02f,
	+1.12076188e-02f,+7.88742378e-02f,-4.89358641e-02f,+6.25058711e-02f,+4.61004339e-02f,
	+2.28323247e-02f,-2.80656163e-02f,+8.73922184e-02f,-4.75421827e-03f,+6.57006912e-03f,
	+1.40903043e-02f,-2.85567306e-02f,-6.88602775e-02f,-3.94868590e-02f,-4.25492227e-02f,
	+1.40335724e-01f,+1.01180457e-01f,-5.07076047e-02f,+1.19141884e-01f,+2.18791794e-03f,
	-8.68966505e-02f,-8.54633600e-02f,+7.09698647e-02f,+2.68079609e-01f,+9.55479890e-02f,
	-9.05695856e-02f,-5.86800650e-02f,-3.12745720e-02f,-1.49267279e-02f,+1.47657901e-01f,
	+8.55822265e-02f,-1.67172179e-01f,+4.39703315e-02f,+2.60266978e-02f,-4.31785472e-02f,
	-5.29102571e-02f,+7.13810325e-02f,-8.85042325e-02f,+8.59773085e-02f,+2.34875977e-01f,
	+7.93295577e-02f,+2.09854275e-01f,-1.33984894e-01f,-1.51239082e-01f,-1.54917702e-01f,
	+1.17949553e-01f,+1.13818429e-01f,-4.67301048e-02f,-7.67994765e-03f,-2.64624864e-01f,
	-2.04716414e-01f,+3.12628560e-02f,+4.23878850e-03f,-1.63614631e-01f,+8.55368301e-02f,
	+4.92458697e-03f,+1.49760246e-01f,+1.07660435e-01f,+9.48777143e-03f,-1.40148431e-01f,
	-1.67310145e-02f,-1.49992883e-01f,-5.09405602e-03f,-1.32933315e-02f,+4.22104262e-03f,
	-3.45944683e-03f,+1.27427399e-01f,-1.74531832e-01f,+2.08465129e-01f,+5.79888336e-02f,
	-1.60901062e-02f,+1.93867728e-01f,-6.50740415e-02f,+1.20517552e-01f,+1.99766323e-01f,
	+8.32161307e-02f,-1.58910483e-01f,-7.93450847e-02f,-5.36551215e-02f,+1.83584884e-01f,
	-7.16417059e-02f,+2.64724195e-01f,+2.16868781e-02f,+1.21961094e-01f,+8.98228362e-02f,
	-2.50165373e-01f,-6.42305464e-02f,-9.19543728e-02f,+1.33837350e-02f,-1.64151803e-01f,
	+2.32263021e-02f,+5.38144633e-02f,+8.34388584e-02f,+4.15072264e-03f,+1.15978949e-01f,
	+3.43908109e-02f,-2.11017698e-01f,+1.13387279e-01f,+1.12032376e-01f,-3.54034714e-02f,
	+1.04571439e-01f,+1.14502874e-03f,+9.01783034e-02f,-1.08343259e-01f,-1.90282837e-01f,
	+9.34976190e-02f,+4.73881885e-02f,-2.84377784e-02f,-7.95910731e-02f,-1.04604393e-01f,
	+2.68137380e-02f,-3.48330382e-03f,-2.73157880e-02f,-3.52804363e-01f,-6.12281300e-02f,
	-2.87803318e-02f,-7.03070164e-02f,+1.79075688e-01f,+1.04739778e-01f,+4.12661992e-02f,
	+1.88908000e-02f,-1.03400007e-01f,+1.57852545e-02f,-1.17936879e-01f,-1.87198762e-02f,
	+3.46195931e-03f,-9.46489722e-03f,+8.37013796e-02f,-2.95791738e-02f,+8.81797001e-02f,
	-2.38577579e-03f,+1.08894050e-01f,-1.12846173e-01f,+6.58702329e-02f,-3.57818305e-02f,
	+2.50060670e-02f,-4.50021699e-02f,-1.36192560e-01f,+6.35564374e-03f,-8.48435611e-02f,
	-3.55052799e-01f,-1.30938977e-01f,-2.77221333e-02f,+5.42151630e-02f,+9.89823230e-03f,
	-2.55555706e-03f,+9.72283930e-02f,-1.72428027e-01f,+3.83384377e-02f,-2.32148468e-01f,
	+1.85761023e-02f,+2.98257358e-02f,+2.27693692e-01f,-2.65027750e-02f,-6.55670166e-02f,
	+4.34112959e-02f,+6.75331950e-02f,-5.20525724e-02f,+4.45076153e-02f,-6.41061738e-02f,
	-2.24437907e-01f,-2.29076520e-02f,+2.25495291e-03f,+1.63640603e-02f,+9.83172357e-02f,
	+6.97177276e-02f,+9.92481783e-02f,-1.50193721e-01f,-1.07019141e-01f,+1.30901337e-01f,
	-3.18525881e-02f,+4.01084498e-02f,+4.57024109e-03f,-1.50915965e-01f,-1.41101712e-02f,
	+1.07983328e-01f,+7.33065605e-02f,-3.26040655e-01f,+3.76065783e-02f,-1.07084513e-01f,
	-1.58230588e-01f,+2.66181957e-02f,-5.37989149e-03f,+2.35257484e-02f,-1.02149233e-01f,
	-4.58548144e-02f,+3.06986719e-02f,-3.30890417e-02f,+4.05477881e-02f,+5.42662814e-02f,
	+2.72219907e-02f,+5.02220467e-02f,-2.94842180e-02f,-1.66180939e-03f,+1.43147986e-02f,
	-5.15014268e-02f,-1.99840829e-01f,+4.50281203e-02f,-1.55665725e-01f,+1.02517188e-01f,
	-2.08500668e-01f,-1.57255754e-01f,-1.02895815e-02f,-1.92745283e-01f,-3.55735928e-01f,
	-5.81483096e-02f,-8.93124193e-02f,+4.83257473e-02f,+3.26543786e-02f,+2.02403571e-02f,
	+3.90947647e-02f,-1.37848020e-01f,-9.69555080e-02f,-1.16945058e-01f,+3.04839183e-02f,
	+7.33818933e-02f,+1.61413714e-01f,-6.41727597e-02f,+6.17341921e-02f,-2.78291432e-03f,
	-7.93555826e-02f,+9.26508196e-03f,+7.12635294e-02f,-1.10690199e-01f,-7.49515742e-02f,
	-1.52803928e-01f,-1.38083264e-01f,-3.31820957e-02f,+3.36290002e-02f,-8.12475290e-03f,
	+1.04857951e-01f,-9.46311504e-02f,-1.87134296e-01f,+1.89411998e-01f,-5.27620651e-02f,
	-6.87994435e-02f,+1.83807425e-02f,-1.48007393e-01f,+1.46336788e-02f,+1.69982553e-01f,
	-1.48382075e-02f,-2.41208673e-01f,+3.45335118e-02f,+3.21996920e-02f,-8.45579281e-02f,
	+1.01598427e-01f,+9.09567717e-03f,+4.15905491e-02f,+8.77871811e-02f,-1.72840897e-02f,
	+1.09177433e-01f,+6.42766804e-02f,-6.55426160e-02f,-1.39608160e-02f,+4.35577296e-02f,
	-1.30113110e-01f,-9.94357616e-02f,+7.54687488e-02f,+2.55814791e-02f,-7.50553757e-02f,
	+1.13795638e-01f,+7.30871633e-02f,-9.49339792e-02f,+1.65434614e-01f,-4.18660901e-02f,
	-5.30334674e-02f,-2.03191265e-02f,-1.57704294e-01f,-3.72364879e-01f,-1.77014098e-01f,
	-3.78370136e-02f,+3.80028300e-02f,-4.07110192e-02f,+8.46463963e-02f,+2.50926483e-02f,
	+1.11301132e-02f,+1.26711845e-01f,-2.34979808e-01f,-1.92768365e-01f,-1.90643981e-01f,
	+2.79666811e-01f,+1.64085213e-04f,+1.42305829e-02f,+4.21401151e-02f,+6.02729879e-02f,
	+2.11751655e-01f,-9.94687527e-02f,-5.86141124e-02f,-2.60552615e-01f,+5.80146126e-02f,
	-4.53444757e-02f,-6.03667945e-02f,-8.53541959e-03f,-7.63788307e-03f,+6.47421181e-02f,
	-4.73588407e-02f,-7.93955177e-02f,+1.02015257e-01f,-7.00245723e-02f,-7.72206392e-03f,
	+2.30520561e-01f,-1.72571763e-01f,+1.17925130e-01f,+6.70490563e-02f,+1.79208189e-01f,
	-2.49974057e-01f,+2.15293482e-01f,-1.17902957e-01f,-1.84766680e-01f,+1.59260128e-02f,
	+1.94510277e-02f,+2.27018520e-01f,+9.91703421e-02f,+1.19629428e-01f,+2.04463810e-01f,
	+8.44691694e-02f,+1.00395739e-01f,+7.58901238e-02f,-6.35703281e-02f,-3.00660264e-02f,
	-3.68549615e-01f,+5.01816198e-02f,+1.24024965e-01f,+1.74281970e-01f,+2.79680286e-02f,
	-1.41054511e-01f,-7.98644405e-03f,+1.59874186e-01f,-2.55768716e-01f,-1.28884390e-01f,
	+3.71488556e-03f,-2.50419259e-01f,-2.80127287e-01f,-1.34538502e-01f,+5.79356449e-03f,
	-7.89614692e-02f,-3.87398414e-02f,+7.60030374e-02f,+9.25942510e-02f,-9.95574985e-04f,
	-7.34990239e-02f,-1.99807897e-01f,+1.14159524e-01f,+1.94010258e-01f,+1.22758731e-01f,
	-1.56188682e-01f,-7.11813271e-02f,-8.27699527e-02f,-4.11690548e-02f,+3.69058065e-02f,
	+1.32652968e-01f,-1.74623147e-01f,-4.93736845e-03f,+3.55215594e-02f,-8.48215669e-02f,
	+1.47937788e-02f,+3.68974265e-03f,-2.69802343e-02f,+1.97658941e-01f,-2.69403169e-03f,
	-1.41825467e-01f,+1.11390233e-01f,-1.72031671e-01f,-9.33029652e-02f,-1.02574453e-01f,
	-6.20703883e-02f,+1.06791243e-01f,+4.95288447e-02f,-1.32177606e-01f,-3.68499964e-01f,
	-6.72170445e-02f,-7.47338459e-02f,-3.34071890e-02f,+8.06208327e-02f,+1.06101923e-01f,
	+9.90574341e-03f,+1.94065850e-02f,+1.54157370e-01f,-8.21491778e-02f,-9.42448750e-02f,
	+2.97891032e-02f,-7.76127204e-02f,-5.36553822e-02f,-3.00381724e-02f,+7.43549541e-02f,
	-3.63078192e-02f,+8.37379396e-02f,+6.27987413e-03f,+6.54155314e-02f,+1.05050921e-01f,
	-2.03317732e-01f,+1.58954188e-01f,-1.32175580e-01f,+1.03005655e-01f,+8.76736641e-02f,
	-8.47800747e-02f,-2.87392437e-01f,-1.48406461e-01f,-4.57317233e-02f,+1.50570288e-01f,
	-3.21606584e-02f,+1.08106501e-01f,-6.33097440e-02f,+1.76232588e-02f,+2.41342589e-01f,
	-1.83186531e-01f,-2.20663637e-01f,+1.48093849e-02f,-7.12263212e-02f,-3.21661979e-01f,
	+2.56365269e-01f,-9.42028761e-02f,+2.36813590e-01f,-7.30008781e-02f,+1.31405685e-02f,
	-4.06165086e-02f,-2.09074304e-01f,+2.33150944e-01f,+3.79160672e-01f,-5.45663014e-02f,
	+1.29338413e-01f,+1.46909788e-01f,+1.87377296e-02f,+2.11901709e-01f,-1.77776709e-01f,
	+1.56429738e-01f,+6.99014068e-02f,-1.42077744e-01f,-1.66657180e-01f,+1.97249547e-01f,
	+1.09644279e-01f,-2.44328663e-01f,+2.94143766e-01f,+5.27266972e-02f,-7.14448616e-02f,
	-1.33028582e-01f,-7.76085397e-03f,-2.12655023e-01f,-1.80169120e-01f,-3.04686010e-01f,
	-1.53921187e-01f,+1.43956766e-01f,-3.15009534e-01f,-8.55558068e-02f,+7.04577565e-02f,
	+5.24222758e-03f,+1.19396977e-01f,+2.05633461e-01f,-2.59439856e-01f,-8.70769024e-02f,
	-2.36017153e-01f,-2.08292603e-01f,-3.10188532e-02f,-2.68458277e-01f,-1.72735453e-02f,
	+1.61414549e-01f,-9.02443752e-02f,+2.96777636e-01f,-4.83443476e-02f,+1.13362938e-01f,
	-1.97890937e-01f,-6.56649470e-02f,-1.72383800e-01f,+1.59254029e-01f,-4.65149060e-02f,
	+1.84793338e-01f,-3.89209390e-02f,-1.16051793e-01f,-2.35849664e-01f,-1.67739615e-01f,
	+2.91211069e-01f,+2.49086410e-01f,+1.53581575e-01f,+1.20151781e-01f,-1.05589285e-01f,
	+1.28065512e-01f,-1.15861312e-01f,-9.17008221e-02f,+1.86141968e-01f,+9.54026878e-02f,
	-2.00969186e-02f,+8.36944282e-02f,-2.59151757e-01f,-7.70119801e-02f,-8.89072418e-02f,
	-2.02166185e-01f,-8.72703046e-02f,-3.05935256e-02f,-7.24796802e-02f,+1.25206769e-01f,
	+1.07572742e-01f,+3.68915545e-03f,-1.80150941e-01f,-6.11456484e-03f,-1.54563695e-01f,
	+5.54406755e-02f,-4.34415817e-01f,-2.01451600e-01f,-2.01056972e-02f,+3.47002819e-02f,
	-7.92713487e-04f,+6.24226294e-02f,+1.71773180e-01f,+1.83583871e-01f,+1.47728309e-01f,
	-9.61083826e-03f,+1.40268326e-01f,-9.92633998e-02f,-4.86103725e-03f,-1.98242679e-01f,
	-2.68987089e-01f,-8.20622966e-02f,+1.94388330e-01f,+6.81504309e-02f,+9.40824598e-02f,
	-1.93138868e-01f,+1.46430954e-01f,+2.01806411e-01f,-1.14802934e-01f,-1.17205366e-01f,
	+1.50373235e-01f,-1.58671752e-01f,+9.16704610e-02f,-1.40955132e-02f,-2.12636650e-01f,
	+3.91715467e-02f,+1.08442761e-01f,+4.46513994e-03f,-1.15879782e-01f,+2.00263634e-01f,
	-3.18186507e-02f,+1.02173746e-01f,+1.99860558e-01f,-2.79875755e-01f,-3.99097167e-02f,
	-4.93259393e-02f,+7.33641833e-02f,-6.19448163e-02f,+6.07630610e-02f,+6.17411323e-02f,
	+9.46778059e-02f,+9.01883617e-02f,+5.18058352e-02f,+8.55460092e-02f,-2.85155833e-01f,
	+1.61755040e-01f,+1.29400358e-01f,-8.98146182e-02f,-4.33749221e-02f,+2.70130970e-02f,
	+5.90852164e-02f,-1.84911206e-01f,-1.04182862e-01f,+1.40968561e-01f,-6.92718849e-02f,
	-1.21809751e-01f,-3.63740213e-02f,-8.06378648e-02f,+7.79421628e-02f,-9.42879170e-03f,
	-2.34284326e-02f,-3.51118416e-01f,+4.48766872e-02f,-1.64807662e-02f,-1.05252877e-01f,
	+8.36253688e-02f,+7.58165866e-02f,+8.99504963e-03f,-1.95420021e-03f,-2.09396347e-01f,
	-8.64828080e-02f,-1.09504722e-01f,-1.66015290e-02f,+3.06176580e-02f,-3.10137272e-02f,
	+1.39182687e-01f,+7.05629662e-02f,-1.71989501e-02f,-7.34754726e-02f,-2.58966833e-02f,
	-1.01670757e-01f,+4.09277109e-03f,-1.81162387e-01f,+1.03625476e-01f,-1.23036765e-01f,
	-9.56789404e-02f,-5.20448238e-02f,-1.34094268e-01f,-2.65289456e-01f,-1.87037915e-01f,
	+1.96903367e-02f,-3.68896797e-02f,+4.57959063e-02f,+3.04651144e-03f,+4.64881659e-02f,
	-1.42619926e-02f,-1.32903039e-01f,-2.32532352e-01f,+2.28791714e-01f,+5.41528650e-02f,
	+1.48931861e-01f,+5.00539094e-02f,-1.99595436e-01f,+6.60836995e-02f,-2.96381060e-02f,
	-1.60479233e-01f,+8.07355940e-02f,+1.75424308e-01f,+6.72359094e-02f,+9.35524050e-03f,
	-9.48328525e-02f,+3.90210412e-02f,-2.03854769e-01f,-3.00006151e-01f,-1.51846424e-01f,
	-2.21971780e-01f,+2.29397556e-03f,+3.08019500e-02f,+1.10437356e-01f,-5.63480668e-02f,
	-2.49268964e-01f,-6.47538900e-02f,-1.71456009e-01f,-5.37120588e-02f,-4.58256304e-01f,
	-6.68218955e-02f,-4.56447639e-02f,-3.48362066e-02f,-1.12810932e-01f,-3.92804593e-02f,
	-4.84157018e-02f,-7.62988487e-03f,+1.91624522e-01f,-4.55265939e-02f,-1.21813633e-01f,
	-1.45379186e-01f,-8.18962455e-02f,-2.82960504e-01f,-3.37963134e-01f,-3.89050357e-02f,
	+1.71656281e-01f,+9.32920724e-02f,-6.69039488e-02f,-1.93524688e-01f,+6.52923733e-02f,
	+7.43468776e-02f,-6.54408708e-03f,-1.92798793e-01f,+6.82990924e-02f,-1.77617744e-01f,
	-2.31774095e-02f,-2.65402533e-02f,-1.39715478e-01f,+6.95398226e-02f,+7.24444538e-02f,
	-2.16520488e-01f,-9.29721743e-02f,-8.09989497e-02f,-8.66484269e-02f,+3.81989107e-02f,
	+6.94013759e-02f,+5.93567044e-02f,-2.19349400e-03f,-1.43890129e-02f,+2.52505183e-01f,
	+1.77969620e-01f,+6.12604544e-02f,+1.32637903e-01f,-4.60784994e-02f,+2.40946010e-01f,
	-9.80971754e-02f,+1.09762875e-02f,-1.04175709e-01f,-1.43600434e-01f,-7.23736808e-02f,
	-2.97363605e-02f,-8.51686895e-02f,-3.56248505e-02f,-4.48171310e-02f,-2.21053869e-01f,
	-8.78869742e-02f,+1.98780969e-01f,+3.52741145e-02f,+3.08992099e-02f,+2.42398441e-01f,
	-4.96491417e-02f,-1.85652431e-02f,+4.20608930e-02f,+7.78759122e-02f,-2.99377814e-02f,
	+1.24066301e-01f,-4.54761051e-02f,-2.13150750e-03f,+2.92839445e-02f,-1.04464479e-01f,
	+1.96387008e-01f,+1.07421376e-01f,-6.09570444e-02f,+2.12010488e-01f,+2.85329521e-01f,
	-5.94221167e-02f,+7.40471557e-02f,-1.96574390e-01f,-9.80958194e-02f,-1.07987188e-01f,
	+1.42150506e-01f,+1.75825790e-01f,+6.51003122e-02f,+3.30690630e-02f,+8.50086734e-02f,
	+9.18228645e-03f,+6.30496815e-02f,-8.24921578e-02f,-3.91607553e-01f,-1.08188437e-02f,
	-1.56395555e-01f,-1.10110283e-01f,-2.25508064e-01f,+3.19605507e-02f,-1.77483752e-01f,
	+3.06553319e-02f,-1.33828623e-02f,+1.59274340e-01f,-7.24607557e-02f,-1.08649112e-01f,
	-1.89481497e-01f,+1.22942142e-01f,+4.09867801e-02f,+1.56443790e-01f,-1.00454740e-01f,
	-3.34540308e-02f,-8.08153674e-03f,-1.17731646e-01f,-3.89611982e-02f,+1.50787219e-01f,
	-1.24509700e-01f,-1.06366433e-01f,-1.42114388e-03f,-2.36972943e-01f,+1.09166484e-02f,
	+1.15077995e-01f,-4.34344895e-02f,+2.18126565e-01f,+5.18207625e-02f,-3.76470424e-02f,
	+1.68917894e-01f,-1.91561252e-01f,-6.42792275e-03f,-1.18049651e-01f,+3.75202820e-02f,
	-4.15938757e-02f,+1.05393484e-01f,-1.36023611e-01f,-4.24208730e-01f,+8.22314322e-02f,
	-2.61160498e-03f,-1.00634784e-01f,+2.06044286e-01f,+6.29336387e-02f,+8.84344615e-03f,
	-9.07177925e-02f,+4.78413748e-03f,+1.12399846e-01f,-1.43873513e-01f,+5.55598214e-02f,
	-7.92136714e-02f,+4.61862655e-03f,+7.32115507e-02f,+9.71381180e-03f,-1.27519267e-02f,
	+6.06188662e-02f,+1.09084919e-02f,+5.21670058e-02f,+1.45522594e-01f,-1.89583436e-01f,
	+2.12304518e-01f,-9.36334655e-02f,+5.02481759e-02f,+1.30653933e-01f,-1.70042694e-01f,
	-3.26476604e-01f,-1.20135099e-01f,+2.21128892e-02f,+2.80134100e-02f,+3.11175790e-02f,
	-5.64365974e-03f,-2.77582314e-02f,+8.87738094e-02f,-2.91215312e-02f,-1.33325696e-01f,
	+1.78802758e-01f,+3.33007686e-02f,+1.36902243e-01f,-7.12231472e-02f,-2.13324904e-01f,
	+5.02416454e-02f,-7.59151876e-02f,-9.17452276e-02f,-6.85397759e-02f,+2.03866258e-01f,
	+3.50573845e-02f,-3.05229612e-03f,+8.42843875e-02f,-1.67410392e-02f,-1.32831648e-01f,
	-1.92714617e-01f,-1.32755935e-01f,-2.86940753e-01f,+7.62292668e-02f,+1.39052439e-02f,
	-7.14036748e-02f,+5.21632992e-02f,-2.09741741e-01f,-8.65114480e-02f,-1.38412043e-01f,
	-1.24558650e-01f,-2.06556231e-01f,-2.22895548e-01f,-2.46174019e-02f,+5.69707445e-05f,
	-1.56003267e-01f,-1.38180912e-01f,-1.26324192e-01f,-7.52134845e-02f,-9.82642397e-02f,
	-1.53515652e-01f,-1.08620249e-01f,-3.70107621e-01f,-6.92920685e-02f,-1.42444536e-01f,
	-3.08302999e-01f,+5.09335883e-02f,+2.36137547e-02f,-1.82650760e-02f,-2.27694482e-01f,
	-1.41666532e-01f,-1.28446832e-01f,-5.01782596e-02f,+7.63423666e-02f,-1.60562798e-01f,
	+2.71965321e-02f,-1.83192849e-01f,-8.00793916e-02f,-3.30289546e-03f,-2.42950767e-01f,
	+8.95641092e-03f,+9.36919637e-03f,-1.97957247e-01f,-1.41360372e-01f,-1.78451791e-01f,
	-2.44979307e-01f,-1.24696726e-02f,-2.45161742e-01f,-2.48979077e-01f,+1.42591730e-01f,
	+1.89015046e-01f,+4.64270785e-02f,+5.86863570e-02f,-2.07528621e-01f,+1.22477815e-01f,
	-6.76108375e-02f,-1.38788791e-02f,+1.59699470e-04f,+6.20618723e-02f,+9.03390646e-02f,
	+1.66184455e-02f,-1.46788046e-01f,-7.83395991e-02f,-9.91738811e-02f,-2.07543224e-01f,
	+2.96794027e-02f,-3.92146334e-02f,+5.23453057e-02f,+1.26729801e-01f,-8.05437192e-03f,
	-5.62122017e-02f,-1.69157207e-01f,-2.92401239e-02f,-3.38221565e-02f,+1.76037073e-01f,
	-2.78108388e-01f,-2.96189606e-01f,-4.20689583e-02f,+6.92370608e-02f,-1.33347228e-01f,
	-3.00002825e-02f,+1.15061112e-01f,+1.13291331e-01f,+2.02327922e-01f,+1.65117174e-01f,
	+1.16887666e-01f,-1.15840741e-01f,-6.20750226e-02f,-2.01883793e-01f,-1.59206882e-01f,
	+7.24064047e-03f,+1.47196755e-01f,+1.39331579e-01f,+9.25772339e-02f,-1.64197326e-01f,
	+1.86235726e-01f,+1.67040944e-01f,-2.91424692e-01f,+1.83154885e-02f,+1.25438973e-01f,
	-2.73371320e-02f,+1.57112479e-01f,-8.57021101e-03f,-1.92801148e-01f,-8.76662359e-02f,
	+5.98035082e-02f,-3.26091014e-02f,-2.11743414e-01f,+1.66448221e-01f,-8.50837082e-02f,
	+1.35339737e-01f,+6.40777647e-02f,-3.34931235e-03f,+1.62025616e-02f,+4.27064449e-02f,
	-1.54274866e-01f,+1.76147103e-01f,+3.40436585e-02f,+7.00678229e-02f,+4.64889454e-03f,
	+1.13406263e-01f,-2.00719267e-01f,-1.78092018e-01f,-1.74080521e-01f,-1.08766276e-02f,
	+9.11366418e-02f,-1.63105011e-01f,+1.90801658e-02f,+6.11407682e-02f,+1.12708598e-01f,
	-1.29499674e-01f,-2.50821471e-01f,-5.61769828e-02f,+1.88454345e-01f,-1.68560252e-01f,
	+2.59468436e-01f,-1.27929315e-01f,-3.95913161e-02f,+7.35692158e-02f,+2.45041683e-01f,
	+1.40200272e-01f,-2.41119087e-01f,-8.53300095e-02f,+1.89328995e-02f,-9.28458646e-02f,
	-1.66772753e-01f,-1.50282076e-02f,+7.36233443e-02f,+1.22014317e-03f,+3.62677351e-02f,
	+2.56578326e-01f,-1.78507298e-01f,-1.81979372e-03f,-4.49038446e-02f,-8.07984248e-02f,
	-3.50340232e-02f,+1.07027076e-01f,+3.78554128e-02f,-5.83788380e-03f,-2.25526392e-02f,
	+2.73180958e-02f,-1.40928060e-01f,+4.27158475e-02f,-8.08120593e-02f,-1.97020799e-01f,
	+3.79218198e-02f,-4.93954904e-02f,-9.27241612e-03f,-1.39497295e-01f,+2.94706468e-02f,
	-5.66903688e-02f,-1.63992625e-02f,+2.46479120e-02f,+1.12842716e-01f,-1.40626416e-01f,
	+3.46413478e-02f,-9.54700559e-02f,-5.69952652e-02f,+2.52063870e-02f,+1.40693054e-01f,
	-9.83071886e-03f,+5.93194515e-02f,+3.30333412e-02f,-3.35467383e-02f,+2.14329045e-02f,
	+2.10000034e-02f,-4.56619486e-02f,-5.13069816e-02f,-9.60720405e-02f,-1.27787247e-01f,
	-4.17897962e-02f,+5.00054611e-03f,-3.73069271e-02f,+3.95043492e-02f,+2.97371466e-02f,
	-2.02739928e-02f,+1.26001492e-01f,-8.21717754e-02f,-1.41720504e-01f,+1.29981926e-02f,
	-1.23666242e-01f,-2.29955520e-02f,+2.51357947e-02f,+5.48513755e-02f,-2.28337169e-01f,
	-6.63841888e-02f,+3.60992476e-02f,-1.36031136e-02f,+7.08310232e-02f,+4.80766371e-02f,
	+1.08153842e-01f,-1.17048584e-01f,+9.28738043e-02f,+7.76116252e-02f,-3.95797417e-02f,
	-6.26914799e-02f,-3.46626081e-02f,-9.60621685e-02f,+1.73777863e-02f,+2.10047653e-03f,
	+1.89720262e-02f,+9.89782065e-02f,-6.82424754e-02f,+1.00721143e-01f,+1.35672896e-03f,
	-7.18865767e-02f,+9.98215005e-02f,-1.64962992e-01f,-2.00746208e-02f,+1.17317587e-01f,
	-1.77880034e-01f,-3.49916726e-01f,-1.05594739e-01f,-1.23768836e-01f,+7.41813704e-02f,
	-6.86487034e-02f,+1.75622180e-02f,-8.44665512e-04f,-6.47029206e-02f,+1.19279325e-02f,
	-1.28614068e-01f,-1.31748319e-01f,+1.37539491e-01f,+3.66067924e-02f,-3.72448862e-01f,
	+1.84213500e-02f,-7.16184406e-03f,+2.35915273e-01f,+1.59850210e-01f,+9.86003503e-02f,
	+1.65700242e-01f,-6.59052283e-02f,+1.97742134e-01f,+5.02961390e-02f,-4.18546684e-02f,
	+1.71816796e-01f,+4.71324697e-02f,-5.60302148e-03f,+1.97411805e-01f,-2.92108711e-02f,
	+3.16890627e-01f,+6.10549152e-02f,-1.92882866e-01f,-1.79206550e-01f,+2.02537134e-01f,
	+1.13877214e-01f,-2.14055672e-01f,-2.01622099e-02f,-1.72662884e-01f,-2.39031941e-01f,
	+9.82002839e-02f,+5.14689684e-02f,-1.71023875e-01f,+7.87027460e-03f,-2.10409120e-01f,
	+1.09565025e-02f,+5.88552617e-02f,-1.59821242e-01f,-2.60727257e-01f,+1.84652768e-02f,
	-1.30362123e-01f,+5.08015901e-02f,+1.30405217e-01f,-1.26591742e-01f,+1.70003712e-01f,
	-1.69363081e-01f,+7.13370517e-02f,+3.48343998e-02f,+5.35737909e-03f,-8.37301929e-03f,
	+6.07064888e-02f,+7.44768083e-02f,+1.91164106e-01f,+4.55019288e-02f,+5.36483666e-03f,
	-1.35025263e-01f,-1.44573435e-01f,-2.02984899e-01f,+2.16542110e-01f,+5.02247699e-02f,
	+1.72791645e-01f,+6.37589842e-02f,+8.32768902e-02f,+8.41122195e-02f,+2.25286353e-02f,
	-1.36983916e-02f,+1.33325264e-01f,-5.25313020e-02f,+2.68050611e-01f,+4.09047771e-03f,
	+9.96416956e-02f,-2.40894094e-01f,+2.33653605e-01f,-1.62721798e-01f,-1.07185408e-01f,
	-1.74856797e-01f,-1.40372977e-01f,-4.06487435e-02f,-1.42348841e-01f,-1.13533042e-01f,
	+2.73837615e-02f,-3.36492658e-02f,-1.62521228e-01f,-1.76030293e-01f,+2.43609818e-03f,
	+2.20245346e-01f,-5.20515740e-02f,+2.23115534e-01f,-4.01161313e-02f,-1.76789202e-02f,
	+7.63569772e-02f,+2.21291125e-01f,+4.22477536e-02f,-5.18907979e-02f,-1.16064586e-01f,
	+2.09024083e-02f,-1.23006543e-02f,-1.16458051e-01f,+4.65543531e-02f,+3.47327441e-02f,
	-1.36631504e-01f,+2.11267278e-01f,+3.75967115e-01f,-1.61248222e-01f,+9.24809724e-02f,
	-9.25931185e-02f,-1.45856276e-01f,-1.34380221e-01f,-3.23274992e-02f,+9.36242491e-02f,
	-4.00536060e-02f,-4.62263152e-02f,+1.28200054e-01f,+6.53240457e-03f,+8.05018768e-02f,
	-9.81827974e-02f,-3.93790931e-01f,-4.78447191e-02f,-1.07353806e-01f,+8.96936003e-03f,
	-9.04022977e-02f,-4.07074355e-02f,-1.93480477e-01f,-2.59467289e-02f,-6.00246117e-02f,
	+1.36768550e-01f,-2.16338113e-01f,-4.07911927e-01f,-8.53769295e-03f,+1.64030567e-01f,
	+2.06377283e-01f,+8.04906785e-02f,+1.79533482e-01f,-6.08779848e-01f,+7.02572018e-02f,
	-2.52411723e-01f,-2.89399981e-01f,-2.60080844e-01f,+5.97898401e-02f,+7.69190416e-02f,
	+1.23342816e-02f,-7.36673325e-02f,+6.77793622e-02f,-2.03666866e-01f,-2.67816663e-01f,
	-1.54149055e-01f,-2.07411677e-01f,+1.10129878e-01f,-7.79979257e-03f,+2.87688849e-03f,
	+2.03240216e-02f,-1.61997210e-02f,-3.07673719e-02f,-1.61472827e-01f,-6.79531470e-02f,
	-2.27398932e-01f,-1.12878205e-02f,-9.84565690e-02f,+4.04119454e-02f,-8.97495225e-02f,
	-1.17536016e-01f,-5.58256134e-02f,-1.78079695e-01f,-1.42866701e-01f,+2.74272915e-02f,
	-9.67154577e-02f,-1.24407962e-01f,-2.11138517e-01f,-1.26597077e-01f,-1.47777289e-01f,
	-2.08042845e-01f,+7.66554177e-02f,+5.63664781e-03f,-9.96401981e-02f,-2.44039029e-01f,
	-9.63865593e-02f,+7.82807171e-02f,+4.75975052e-02f,-4.86276187e-02f,+1.00565962e-01f,
	-1.70935467e-01f,-8.19221810e-02f,+1.36503518e-01f,-4.89523150e-02f,+2.07118168e-01f,
	-1.39561936e-01f,-1.93388700e-01f,-2.38178968e-01f,-1.77647144e-01f,-5.00393957e-02f,
	-1.46217579e-02f,+2.03153372e-01f,-2.83033639e-01f,-4.70597437e-03f,-6.55738637e-02f,
	+3.73876318e-02f,-4.23908941e-02f,+1.49490342e-01f,+2.73902398e-02f,+1.06965370e-01f,
	+8.80376697e-02f,+1.14612326e-01f,+3.08983903e-02f,-1.06895983e-01f,+1.15440138e-01f,
	+6.47045374e-02f,-1.82851180e-01f,+6.33547530e-02f,+8.26356784e-02f,+4.43038158e-02f,
	-7.92437717e-02f,-9.34287086e-02f,+1.26241356e-01f,-3.85419801e-02f,-1.33466229e-01f,
	+9.60507914e-02f,-6.52380139e-02f,+1.12428375e-01f,+1.67350769e-02f,+7.17078447e-02f,
	-2.28041172e-01f,-2.02409141e-02f,-5.06381728e-02f,-4.38393131e-02f,+4.12390158e-02f,
	+8.29375759e-02f,+9.55246836e-02f,-4.84207794e-02f,-2.56757662e-02f,-6.30935952e-02f,
	+1.09139413e-01f,-1.14827886e-01f,+5.63277230e-02f,+7.22996220e-02f,+5.38311824e-02f,
	+7.02841058e-02f,+3.96575928e-02f,-5.61096258e-02f,+2.55328044e-02f,-6.99444190e-02f,
	-2.50036269e-02f,-2.20465004e-01f,+1.19975582e-01f,-4.53561284e-02f,-6.15584254e-02f,
	-2.29826067e-02f,-1.87539399e-01f,-2.23043635e-01f,-2.15704054e-01f,+1.11104347e-01f,
	-4.96671945e-02f,+7.50919644e-05f,-1.13988414e-01f,+2.31303535e-02f,-6.15583435e-02f,
	+1.90270059e-02f,-1.35649666e-02f,+2.84647662e-03f,+7.61544332e-02f,+1.25288129e-01f,
	-2.01662257e-01f,+3.77133377e-02f,-4.30443920e-02f,+1.01678349e-01f,-2.58488674e-02f,
	+1.49730250e-01f,+3.85590978e-02f,-1.67462260e-01f,+1.50069878e-01f,-1.40325353e-03f,
	-4.83210310e-02f,+1.12757355e-01f,-9.65603665e-02f,-3.02645098e-02f,+1.10040776e-01f,
	-1.59329530e-02f,+3.15312564e-01f,-8.25833809e-03f,-1.42025113e-01f,-1.28400907e-01f,
	+2.35360652e-01f,+9.67078581e-02f,-1.59319445e-01f,+6.24886714e-03f,+1.99455433e-02f,
	-7.69030079e-02f,-2.06517731e-03f,+1.36375099e-01f,-2.15176761e-01f,+9.64104906e-02f,
	-2.01516852e-01f,-9.32855234e-02f,+9.11338404e-02f,-2.25530088e-01f,-1.17853932e-01f,
	-9.07336995e-02f,-1.08313642e-01f,+3.41818333e-02f,+1.98139638e-01f,-1.01390995e-01f,
	-8.84169117e-02f,-9.73087549e-02f,-5.05820923e-02f,+5.37955649e-02f,-1.51581526e-01f,
	+7.46846646e-02f,+1.49550140e-01f,-6.83839014e-03f,+2.38354206e-01f,+9.70821753e-02f,
	+7.45949745e-02f,-1.96507573e-02f,+2.40112431e-02f,-2.02920884e-01f,+1.15349658e-01f,
	-1.80204753e-02f,+9.58379656e-02f,-5.91872400e-03f,+4.24386822e-02f,+3.15157063e-02f,
	-8.59186798e-02f,+7.74701983e-02f,+1.08301774e-01f,+1.01295918e-01f,-4.65281196e-02f,
	+9.15285014e-03f,+1.83290392e-01f,-1.29650488e-01f,-6.37195706e-02f,-2.29155589e-02f,
	-2.19068795e-01f,+1.06662706e-01f,-6.04627617e-02f,+4.11944985e-02f,-1.22138433e-01f,
	-5.58054484e-02f,-1.93444435e-02f,-5.81077486e-02f,-3.87098901e-02f,-7.09819272e-02f,
	+1.65881187e-01f,+6.81408048e-02f,-8.22302178e-02f,+1.20672174e-01f,-1.89843237e-01f,
	+7.64008164e-02f,+1.40647814e-01f,-1.09820571e-02f,-1.28769040e-01f,-6.42535239e-02f,
	-6.07171617e-02f,-3.14755365e-02f,-2.89900545e-02f,+3.82646248e-02f,+1.67430520e-01f,
	+4.62348107e-03f,+8.29555914e-02f,+1.37592420e-01f,+1.64257780e-01f,-1.17011800e-01f,
	+7.31801987e-02f,-1.26609534e-01f,-1.51086763e-01f,-8.22746754e-03f,+8.69714990e-02f,
	+1.37342319e-01f,-5.07204719e-02f,+1.31189346e-01f,-1.94745101e-02f,-1.93035245e-01f,
	-7.11708888e-02f,+1.11982292e-02f,-3.05851754e-02f,+4.70216312e-02f,-9.45943147e-02f,
	-3.43365669e-02f,-2.71557301e-01f,+8.38203952e-02f,-6.27686977e-02f,+5.63348131e-03f,
	+1.00503445e-01f,+2.23415345e-02f,-1.36176080e-01f,-1.06459059e-01f,-2.19848394e-01f,
	+8.50775689e-02f,+5.91183789e-02f,-1.79868147e-01f,-2.24115878e-01f,+4.25301082e-02f,
	-5.31047629e-03f,+2.59261541e-02f,-1.07902735e-01f,+8.91888738e-02f,-1.83225915e-01f,
	+4.15741280e-03f,-3.34963202e-02f,-5.73086366e-02f,-8.28832388e-02f,+2.89496761e-02f,
	-4.37926911e-02f,+8.81222337e-02f,-3.14279757e-02f,-5.43706119e-02f,-3.86455283e-02f,
	+2.26358268e-02f,-8.87553617e-02f,-2.50454366e-01f,+5.52385338e-02f,+6.99855834e-02f,
	+8.91954526e-02f,+3.60581093e-02f,-1.84641257e-01f,-8.57522637e-02f,-4.54812720e-02f,
	-2.47542351e-03f,-8.62299353e-02f,+1.11426398e-01f,+6.23450354e-02f,-2.68775914e-02f,
	+5.34790121e-02f,-1.59273356e-01f,-1.04323357e-01f,-2.71328203e-02f,-8.11530873e-02f,
	+8.41439813e-02f,+4.62806188e-02f,-3.61730084e-02f,-9.77912694e-02f,+3.43415514e-02f,
	-7.18050227e-02f,+6.38993829e-02f,-7.00032040e-02f,-5.12213185e-02f,+1.13458589e-01f,
	-1.31179079e-01f,+1.06137343e-01f,+1.09557007e-02f,+2.98850071e-02f,-2.42719427e-01f,
	-1.09671980e-01f,-9.83444676e-02f,+1.27645075e-01f,+6.33629188e-02f,-5.67597449e-02f,
	+1.18903205e-01f,-2.13114806e-02f,-6.69537544e-01f,+1.36496350e-01f,-1.23831406e-01f,
	+7.87856504e-02f,-8.45958441e-02f,+1.58794120e-01f,-7.08557487e-01f,-6.36230707e-02f,
	-2.60561317e-01f,-1.59080327e-01f,-3.15428853e-01f,-5.72469085e-02f,+2.24105120e-01f,
	-1.35755733e-01f,-2.43898779e-01f,+6.55354932e-04f,+1.14686057e-01f,-5.71541250e-01f,
	-6.90137222e-02f,-2.55421877e-01f,-1.48648679e-01f,+4.97655347e-02f,-4.76575613e-01f,
	-1.51269510e-01f,+1.04008555e-01f,-3.71545494e-01f,-1.83534622e-01f,-1.90351114e-01f,
	-1.01784900e-01f,+1.67382047e-01f,-2.10967809e-01f,+8.01709667e-03f,-1.83078989e-01f,
	-8.63114744e-02f,-2.25703672e-01f,-1.69631585e-01f,-1.72875389e-01f,-9.19621531e-03f,
	-1.21107712e-01f,-3.69757973e-03f,-1.12926453e-01f,-1.82248861e-01f,-1.15552828e-01f,
	-3.88009310e-01f,-3.06781173e-01f,+9.69444439e-02f,-1.16555840e-01f,-1.71760097e-01f,
	+1.13980539e-01f,-1.44964725e-01f,-1.00268155e-01f,+1.40989572e-03f,+1.76887617e-01f,
	-2.13759705e-01f,+1.11621335e-01f,-7.90264755e-02f,+1.64398387e-01f,-1.70183003e-01f,
	-2.64655706e-02f,-1.63178459e-01f,-1.40898421e-01f,-8.56074393e-02f,-4.84668240e-02f,
	-7.35773593e-02f,+3.45281884e-02f,-2.86370441e-02f,-3.82577404e-02f,+4.85006236e-02f,
	-1.87322289e-01f,-1.24666817e-01f,+1.18798604e-02f,-5.29099815e-02f,-1.65338293e-02f,
	-1.34015113e-01f,+6.68352172e-02f,-9.64830890e-02f,+2.64886916e-02f,-1.28561640e-02f,
	-4.06236090e-02f,-1.80954635e-01f,+4.02128436e-02f,-5.28968424e-02f,+1.61365233e-02f,
	+1.14809625e-01f,+1.12377249e-01f,-9.74574015e-02f,+7.37271756e-02f,-9.68821347e-02f,
	-1.15228280e-01f,+6.96696714e-02f,+1.06947035e-01f,+6.58854544e-02f,-1.43761029e-02f,
	-1.29639745e-01f,-7.79571608e-02f,+3.14464280e-03f,+5.41111007e-02f,-3.03336605e-02f,
	+2.97050942e-02f,+1.91799272e-02f,-1.08838946e-01f,+9.49822441e-02f,-3.56743746e-02f,
	-1.71486631e-01f,-2.21151691e-02f,-6.89050108e-02f,-2.27955356e-02f,+3.24611627e-02f,
	+1.12936221e-01f,-7.84913376e-02f,+2.82161068e-02f,-5.23991436e-02f,+1.47058489e-03f,
	+3.30188801e-03f,+3.33072394e-02f,-5.02332784e-02f,-2.03339115e-01f,+4.25496325e-02f,
	+8.86986256e-02f,+1.36259757e-02f,-1.98515430e-01f,+6.17225319e-02f,-2.43246853e-02f,
	+9.12578329e-02f,+9.65893492e-02f,+6.79906681e-02f,+1.22113027e-01f,+6.14896864e-02f,
	+1.02012614e-02f,-2.55033463e-01f,+2.22449061e-02f,+1.50079355e-01f,-2.91971654e-01f,
	-1.15483865e-01f,+6.84330836e-02f,+9.78662893e-02f,+1.47158399e-01f,-1.86782405e-01f,
	+2.72229705e-02f,-1.15490012e-01f,+1.75866649e-01f,+2.19732057e-02f,-3.03911436e-02f,
	-2.44295463e-01f,-8.52132216e-04f,+1.11467227e-01f,+8.79295096e-02f,-1.08269798e-02f,
	-5.68550341e-02f,-1.15296952e-01f,-1.81398336e-02f,-1.96880803e-01f,-2.33910814e-01f,
	+4.53308560e-02f,+9.66207758e-02f,+1.56251043e-01f,-2.92783827e-02f,-2.25435182e-01f,
	-1.16998397e-01f,-4.08858322e-02f,-2.52787713e-02f,+7.55436420e-02f,+7.20289573e-02f,
	-4.64194007e-02f,+1.25930697e-01f,+8.18270892e-02f,-1.04543874e-02f,-1.54073596e-01f,
	-2.11524457e-01f,+4.27598394e-02f,-3.44947055e-02f,-3.13417763e-02f,+2.05469485e-02f,
	+1.87280215e-02f,+4.45536524e-03f,-3.01887430e-02f,+4.71827984e-02f,-9.82250795e-02f,
	-2.45671675e-01f,-7.71274641e-02f,-1.56893566e-01f,+9.83615443e-02f,+1.14981383e-01f,
	+2.67423559e-02f,-2.37569690e-01f,-8.14778656e-02f,-2.37136669e-02f,+3.81273590e-02f,
	+9.38363150e-02f,+6.90177307e-02f,-6.56524003e-02f,-3.94124687e-02f,-5.76671772e-02f,
	+1.24462076e-01f,-1.75294597e-02f,-9.40498635e-02f,-1.13683112e-01f,-1.34934947e-01f,
	-3.18873823e-02f,+1.21918291e-01f,-1.03132680e-01f,-5.43506555e-02f,+1.37670767e-02f,
	+8.48703012e-02f,-2.54567266e-01f,-1.39848545e-01f,-1.27705306e-01f,-1.37679905e-01f,
	-6.27762638e-03f,-9.03600678e-02f,+8.93328860e-02f,+1.04945721e-02f,-9.00335312e-02f,
	-1.46496922e-01f,-6.70877770e-02f,-2.03255981e-01f,-4.01567891e-02f,-1.00351594e-01f,
	-4.27578464e-02f,+6.54585734e-02f,+1.86760321e-01f,+1.89057469e-01f,-1.72504008e-01f,
	-8.71559381e-02f,+1.64082378e-01f,-2.30215024e-02f,+1.30441457e-01f,+1.30467415e-01f,
	+4.08549830e-02f,+7.00989515e-02f,+1.84708804e-01f,+6.28436953e-02f,+6.32393509e-02f,
	+1.81410406e-02f,-3.86529043e-03f,-4.01944108e-02f,-9.76422802e-02f,+5.57337105e-02f,
	+2.80685313e-02f,-8.56359378e-02f,-1.01101771e-02f,-6.45184964e-02f,+1.85968522e-02f,
	+1.41207293e-01f,+8.36676806e-02f,-4.05475162e-02f,+1.32338539e-01f,-5.85206337e-02f,
	-4.89546768e-02f,-1.81083724e-01f,-1.20030679e-01f,+5.86624164e-03f,+8.67953673e-02f,
	-4.64335456e-02f,+8.48093331e-02f,-7.23744780e-02f,-7.42847146e-03f,-5.31430505e-02f,
	+6.11424148e-02f,-5.09747211e-03f,-1.39220595e-01f,-2.27095947e-01f,-3.44907492e-02f,
	-8.66045132e-02f,-2.42854133e-02f,-1.12873837e-01f,+1.79116044e-03f,-1.60316467e-01f,
	-1.21623047e-01f,-1.70869585e-02f,-6.26644790e-02f,-2.62384564e-01f,-1.31617934e-02f,
	-5.36378287e-02f,+2.69660950e-02f,+1.49981350e-01f,+9.32004526e-02f,+8.65380690e-02f,
	-4.97512370e-02f,+5.13814129e-02f,-1.90743029e-01f,+1.68038487e-01f,+1.07774563e-01f,
	+3.59144732e-02f,-4.99119051e-02f,-1.28450304e-01f,-1.12598173e-01f,+6.07114024e-02f,
	-8.80215913e-02f,+3.41087803e-02f,+3.90218496e-02f,+4.83015142e-02f,-1.26576647e-01f,
	+9.03504416e-02f,-7.83559531e-02f,-1.39890462e-01f,-7.24797836e-04f,-1.03590721e-02f,
	-5.49959484e-03f,+8.79039690e-02f,+8.23260620e-02f,-4.32148837e-02f,-6.04796736e-03f,
	-1.03819557e-01f,+3.84723283e-02f,+6.47399276e-02f,-1.32711202e-01f,-7.48876855e-03f,
	-1.61123767e-01f,+1.71187764e-03f,+1.19270915e-02f,+3.39751691e-02f,-1.56714380e-01f,
	+5.81948794e-02f,+5.15958034e-02f,+1.08387545e-01f,-2.89883148e-02f,-8.92722905e-02f,
	+9.78517085e-02f,+3.30418199e-02f,-1.45026103e-01f,+7.45912595e-03f,+1.76247641e-01f,
	+1.29254743e-01f,-2.42390916e-01f,+1.18605755e-02f,-2.03325227e-01f,+9.20736492e-02f,
	+1.98248759e-01f,+5.93432263e-02f,+5.72643206e-02f,+1.14396811e-01f,-5.40032908e-02f,
	+4.30202074e-02f,-1.44531831e-01f,-1.77265704e-01f,-5.66922724e-02f,-9.70801488e-02f,
	-1.40634254e-01f,+1.20557725e-01f,+1.44036308e-01f,-9.83523428e-02f,+5.36862761e-02f,
	-1.61584113e-02f,-9.53995660e-02f,+5.15961908e-02f,+9.05191600e-02f,+1.09198643e-02f,
	-2.07560398e-02f,-3.89635190e-03f,+2.69928784e-03f,+1.44508570e-01f,-5.86491870e-03f,
	-1.54134035e-01f,+6.08104886e-03f,+6.24516383e-02f,+3.87444407e-01f,+1.64930239e-01f,
	-6.08574972e-02f,+4.51006517e-02f,+2.41858215e-04f,-2.32233986e-01f,-1.29787251e-01f,
	+2.52579022e-02f,+1.28283665e-01f,+8.64129886e-02f,+3.80526036e-02f,+1.27326474e-01f,
	+1.16091043e-01f,+5.67953251e-02f,-1.17499031e-01f,-2.89134309e-02f,-2.81765535e-02f,
	-3.50757800e-02f,+4.78297286e-02f,-3.70597169e-02f,-1.92101803e-02f,+1.59541201e-02f,
	+2.81375885e-01f,+4.59071547e-02f,-1.03316549e-02f,+2.72916853e-01f,+1.90265179e-01f,
	+8.92213732e-02f,+1.82354599e-01f,-1.36239231e-01f,+6.65775016e-02f,-9.05574113e-03f,
	+5.15388027e-02f,-5.91296293e-02f,+2.51656890e-01f,-1.17072031e-01f,-1.07342973e-02f,
	+1.10832073e-01f,-6.61918297e-02f,-8.33879858e-02f,-1.70828551e-01f,-2.64874082e-02f,
	+1.31371513e-01f,-1.31201029e-01f,-2.05938369e-02f,+2.66627192e-01f,+5.82850128e-02f,
	+9.93504524e-02f,-2.18516901e-01f,+1.47816166e-01f,-2.66638041e-01f,+6.75173625e-02f,
	+1.52885178e-02f,-1.15251556e-01f,+8.54476318e-02f,-2.22672492e-01f,+1.72393933e-01f,
	-3.28446627e-01f,-2.33031297e-03f,+4.63988557e-02f,-5.94352856e-02f,+3.31644807e-03f,
	+1.58348218e-01f,+1.34584978e-01f,+3.41384970e-02f,+1.71515077e-01f,+9.25275832e-02f,
	+5.62105328e-02f,+1.30527928e-01f,-7.73360953e-03f,+8.46661180e-02f,+4.73332852e-02f,
	-6.95914924e-02f,+2.84705441e-02f,+2.42611200e-01f,+6.94823712e-02f,-4.68042418e-02f,
	-1.02111138e-01f,-1.94321677e-01f,+1.13880895e-01f,-4.37579714e-02f,+1.95807859e-01f,
	+1.22589014e-01f,-1.06095001e-01f,-2.55526215e-01f,-1.74462914e-01f,-2.71493971e-01f,
	+1.31067738e-01f,+1.22909322e-01f,+8.34626555e-02f,+1.28447950e-01f,-4.07550074e-02f,
	+3.84272695e-01f,+1.74089298e-02f,-1.60768121e-01f,+7.12969229e-02f,+9.91155952e-03f,
	-8.35792944e-02f,+2.48751104e-01f,+7.40779042e-02f,+5.24076335e-02f,-1.20286547e-01f,
	-1.24923058e-01f,+3.40328403e-02f,-1.29339320e-03f,+1.37478963e-01f,+2.26928324e-01f,
	-8.67423415e-03f,-2.32057665e-02f,+2.32730389e-01f,+9.08780470e-02f,-2.39072621e-01f,
	-7.11463615e-02f,+2.90355328e-02f,+2.86262240e-02f,-1.04047544e-01f,-2.29001090e-01f,
	-4.01459455e-01f,+9.29857492e-02f,+8.22198316e-02f,-1.10033445e-01f,-1.30250216e-01f,
	-1.61931366e-01f,+5.46055399e-02f,-1.03296436e-01f,+1.68967471e-02f,-2.44945064e-01f,
	-6.71426728e-02f,+1.08701468e-01f,+8.84910673e-03f,+4.50031571e-02f,-5.30860052e-02f,
	-8.26052725e-02f,+7.95343742e-02f,-2.24759474e-01f,-7.97510892e-02f,-6.97540045e-02f,
	+6.54079467e-02f,+2.10379325e-02f,-2.67346986e-02f,-1.08662896e-01f,+9.76821855e-02f,
	-1.69952974e-01f,-1.10589549e-01f,+6.44361228e-02f,-5.93398511e-02f,-1.00929566e-01f,
	-5.08088991e-02f,-1.87520832e-01f,-9.13889632e-02f,+5.38827181e-02f,-5.71629584e-01f,
	-1.14397839e-01f,-2.04352230e-01f,-6.88981935e-02f,-5.44903465e-02f,+1.18649818e-01f,
	-1.21975504e-02f,+4.59875911e-02f,+1.82653381e-03f,+8.16606823e-03f,-2.66738236e-01f,
	-7.26672783e-02f,-1.89861897e-02f,+3.49208750e-02f,+8.36748444e-03f,+5.33846244e-02f,
	-5.72985373e-02f,+1.25924140e-01f,-6.29038736e-02f,+7.74492323e-02f,-2.60399789e-01f,
	+4.70201718e-04f,+7.78390914e-02f,-3.30213159e-02f,+3.08036096e-02f,+6.09119274e-02f,
	+8.32117125e-02f,+5.06393313e-02f,-8.54615420e-02f,-2.32106701e-01f,+5.84456846e-02f,
	+8.03985968e-02f,-5.93164004e-02f,-1.42676532e-01f,-1.35944590e-01f,+1.56020857e-02f,
	+4.69543040e-02f,-4.71520014e-02f,-9.11240056e-02f,+7.83075541e-02f,-1.48266122e-01f,
	-5.37055545e-02f,+4.61373627e-02f,-2.72118952e-02f,-7.01571116e-03f,-7.38036353e-03f,
	+9.32011846e-03f,-5.73530421e-03f,+4.28215833e-03f,+1.03182286e-01f,-4.59042415e-02f,
	-2.34684348e-02f,-1.56722013e-02f,+9.33747813e-02f,+5.44038750e-02f,-4.53164093e-02f,
	-1.59972534e-01f,-3.08659431e-02f,+5.17188683e-02f,+3.74687463e-02f,+9.90693718e-02f,
	-1.48741409e-01f,-2.66264360e-02f,-1.48854242e-03f,+8.17825794e-02f,+9.90167186e-02f,
	+6.88108504e-02f,+3.54872420e-02f,+2.51196939e-02f,-1.40404657e-01f,-2.01942846e-02f,
	+8.99870619e-02f,-5.27952313e-02f,-1.01142138e-01f,-1.37850763e-02f,-1.04090229e-01f,
	+4.17585336e-02f,+2.71340996e-01f,+1.42908782e-01f,-6.19623810e-02f,-1.91142738e-01f,
	+5.39577194e-02f,+1.81715116e-02f,+1.86858773e-02f,-1.75016135e-01f,+6.71651028e-03f,
	-4.20680344e-02f,+7.05289245e-02f,+8.97211879e-02f,+8.93874094e-02f,-1.49164379e-01f,
	-3.34317908e-02f,-1.89488269e-02f,-1.40932994e-02f,+1.12675242e-01f,-6.44422993e-02f,
	+4.29402553e-02f,-7.46968538e-02f,-1.32046968e-01f,-1.35836732e-02f,+1.16742089e-01f,
	+4.31799516e-02f,-2.10429922e-01f,+3.30120362e-02f,-5.14887087e-02f,+2.30289832e-01f,
	-1.70378909e-02f,-1.88319832e-01f,+7.13216327e-03f,-8.08905810e-02f,-2.23498031e-01f,
	+2.73865778e-02f,+9.52166542e-02f,-7.57143321e-03f,-7.44653195e-02f,+8.06770623e-02f,
	+8.20675790e-02f,+1.58374503e-01f,+2.83950996e-02f,-7.65448138e-02f,-7.54810125e-02f,
	-1.19099706e-01f,-9.44196284e-02f,+6.23050295e-02f,+6.20372668e-02f,-3.57581489e-03f,
	+2.60956995e-02f,+3.86960246e-02f,+1.89907569e-02f,-1.22691125e-01f,+1.51905090e-01f,
	-2.87013827e-03f,+7.67394155e-02f,+1.90874174e-01f,-1.22277118e-01f,-7.60602280e-02f,
	+1.14618279e-01f,-1.00503542e-01f,-2.08729029e-01f,+1.30300015e-01f,+1.80978589e-02f,
	+1.18793488e-01f,-1.12875611e-01f,-1.22592282e-02f,-1.89006805e-01f,-1.42853856e-01f,
	+1.36305332e-01f,+1.33305103e-01f,-1.04480349e-01f,+1.20864004e-01f,+2.11718231e-01f,
	+9.62713733e-02f,+2.03095227e-02f,-5.10278307e-02f,+1.41575921e-03f,+5.76933064e-02f,
	-1.07604146e-01f,-4.39601876e-02f,+5.51683791e-02f,+5.83442040e-02f,+5.65322600e-02f,
	-1.60652101e-02f,-2.54589111e-01f,-1.35453507e-01f,+5.69307208e-02f,-6.28420785e-02f,
	-3.98506932e-02f,-7.21163973e-02f,-9.73729491e-02f,-7.94844627e-02f,+1.21090464e-01f,
	-4.60151322e-02f,-4.63469774e-02f,-5.30070215e-02f,+8.96563083e-02f,-3.37707363e-02f,
	+3.42681110e-02f,+4.06384766e-02f,-6.62211254e-02f,+4.37241122e-02f,-4.98819910e-02f,
	+3.32152359e-02f,-7.47529343e-02f,-1.92568332e-01f,-4.06099707e-02f,-1.49058208e-01f,
	+1.48638994e-01f,-2.92954873e-02f,-2.34904513e-02f,-3.48092258e-01f,-1.21623233e-01f,
	+2.96765510e-02f,-3.34640518e-02f,+1.28852084e-01f,-1.16176447e-02f,+1.36400312e-02f,
	-1.02675214e-01f,+3.20045911e-02f,-1.11110330e-01f,+3.93123040e-03f,-6.38623908e-03f,
	-1.25970155e-01f,-7.47957677e-02f,+7.12179467e-02f,-1.10934190e-02f,+9.96942297e-02f,
	-1.80284709e-01f,+4.67269197e-02f,-1.58021986e-01f,-8.31318572e-02f,-8.10910016e-02f,
	+2.15708222e-02f,-1.24412388e-01f,-3.21522765e-02f,+2.28841528e-02f,+1.28350601e-01f,
	+1.40108556e-01f,+3.23410071e-02f,+8.07311982e-02f,+1.90201346e-04f,-5.78218773e-02f,
	-1.64581746e-01f,+5.97277246e-02f,+5.30449823e-02f,+9.44964215e-03f,+2.89233290e-02f,
	-1.77755773e-01f,-4.25826274e-02f,+5.05177341e-02f,-1.36780083e-01f,+8.30594376e-02f,
	+4.12376085e-03f,-5.25329784e-02f,-1.36368901e-01f,-2.45957095e-02f,-6.83078393e-02f,
	-1.02158695e-01f,-1.40850112e-01f,+3.91831361e-02f,+6.69135302e-02f,+5.50119877e-02f,
	+3.38826366e-02f,-8.21027532e-02f,-5.26220091e-02f,-7.40693435e-02f,+9.68595594e-02f,
	+7.39716813e-02f,-8.55744928e-02f,+1.07487671e-01f,-1.25202045e-01f,+9.37903300e-02f,
	+1.15038231e-01f,-1.20514512e-01f,-1.51672021e-01f,-8.87684301e-02f,-1.33984223e-01f,
	+1.22876540e-01f,-3.63790505e-02f,-8.03261548e-02f,+3.89953330e-02f,+1.96750704e-02f,
	-4.38263342e-02f,-2.13940337e-01f,+6.26019537e-02f,+1.42058581e-01f,-5.98701760e-02f,
	-1.40793443e-01f,+2.06922796e-02f,+1.23250306e-01f,+2.85819843e-02f,-1.41973495e-01f,
	+1.85739752e-02f,-1.65179834e-01f,+7.65875652e-02f,+2.68062614e-02f,-1.37036219e-01f,
	-1.89461544e-01f,+8.50416943e-02f,-1.27420694e-01f,-4.81607020e-03f,+9.96420905e-02f,
	+2.08170619e-02f,-2.30485760e-02f,-1.28809493e-02f,-1.39566556e-01f,-2.43603677e-01f,
	+4.38767113e-02f,+6.35876283e-02f,+1.53068557e-01f,+2.94287410e-02f,-3.36356252e-01f,
	-2.16925651e-01f,+4.42635566e-02f,-1.07369367e-02f,+3.41372341e-02f,+2.44293436e-02f,
	+6.06988147e-02f,+1.22751869e-01f,+3.15226875e-02f,-3.59736942e-02f,-2.34232888e-01f,
	+1.61414291e-03f,-5.56438826e-02f,-4.63954080e-03f,+2.76128277e-02f,+5.28323874e-02f,
	-6.68882802e-02f,+1.23359054e-01f,-1.62276223e-01f,+9.36385058e-03f,-2.18901113e-02f,
	-1.43387929e-01f,+5.87818660e-02f,-3.11652049e-02f,-6.51898012e-02f,+1.53949961e-01f,
	-2.15431899e-02f,-3.37930948e-01f,-3.33553292e-02f,-1.01129375e-01f,+8.58127996e-02f,
	+6.18126392e-02f,-2.77572703e-02f,+6.83502154e-03f,+4.88265418e-02f,+1.71141684e-01f,
	-1.06828073e-02f,+7.30767697e-02f,+2.02255733e-02f,+1.11224288e-02f,-7.50137940e-02f,
	+2.71531511e-02f,+1.71736348e-04f,+5.53023536e-03f,+1.85000896e-01f,-2.02526361e-01f,
	-1.32960200e-01f,-2.40822941e-01f,-4.35729250e-02f,+2.72617452e-02f,-4.98079024e-02f,
	+9.21243355e-02f,+9.15246382e-02f,+1.22995846e-01f,+8.66927952e-02f,-2.06792176e-01f,
	+1.76950708e-01f,-3.16599369e-01f,+6.65630326e-02f,+8.03035200e-02f,-1.22636460e-01f,
	+2.03514807e-02f,-1.21294431e-01f,+2.73364335e-01f,-1.25354216e-01f,-5.97109646e-03f,
	+3.09570972e-02f,-1.88914798e-02f,-2.08618771e-02f,+1.25475109e-01f,+2.94998586e-01f,
	+5.79916053e-02f,+1.94218665e-01f,+2.20097512e-01f,+1.83880195e-01f,-9.53778252e-03f,
	+3.76491956e-02f,-1.94648542e-02f,-1.23787984e-01f,-9.15842280e-02f,-1.01935305e-01f,
	+2.90544748e-01f,-9.00614411e-02f,+1.63218811e-01f,-2.00869232e-01f,-2.45254099e-01f,
	+2.17511028e-01f,-1.71220258e-01f,+1.47805005e-01f,+1.34311959e-01f,-3.49615276e-01f,
	-1.46013230e-01f,-2.54810184e-01f,-3.49167764e-01f,+1.94557667e-01f,+4.71870415e-02f,
	+9.80898291e-02f,+1.56459063e-01f,-1.02502346e-01f,-1.41234308e-01f,-1.54527351e-01f,
	+1.29911661e-01f,+1.13328457e-01f,-1.26530156e-01f,+3.40939686e-02f,-6.57771751e-02f,
	-2.71486435e-02f,+1.07371636e-01f,-1.59088463e-01f,+7.12754801e-02f,-1.00402690e-01f,
	-4.54149283e-02f,+1.47537338e-02f,-2.50730421e-02f,-2.67521203e-01f,-1.91600230e-02f,
	-6.29878864e-02f,+8.69655311e-02f,+2.72831246e-02f,+1.18536077e-01f,-3.01655680e-02f,
	+1.57641098e-02f,-9.40960646e-02f,-1.88721344e-01f,+4.41033691e-02f,+1.46935955e-01f,
	+2.81157549e-02f,-1.24266438e-01f,-2.09631771e-01f,-7.54147992e-02f,+9.14582983e-02f,
	-8.27809721e-02f,-1.69786699e-02f,+1.00748330e-01f,+2.29051635e-02f,+9.11532938e-02f,
	-6.28718827e-03f,-3.46699320e-02f,-1.46510631e-01f,-9.95702595e-02f,+1.28362365e-02f,
	-2.27715410e-02f,+6.01584166e-02f,+1.05641618e-01f,-1.47257715e-01f,+3.94299775e-02f,
	-1.74633805e-02f,-1.28307194e-02f,-1.30808214e-02f,-1.43574849e-01f,+1.32804424e-01f,
	-1.78357080e-01f,+7.43771298e-03f,+9.14448574e-02f,-1.12673966e-02f,-2.08894819e-01f,
	-1.72162913e-02f,-2.55208910e-02f,+4.68432866e-02f,-4.60009426e-02f,+1.19988032e-01f,
	+5.51467650e-02f,+4.66495603e-02f,-1.03851985e-02f,-9.27911922e-02f,-2.68343724e-02f,
	+7.84433857e-02f,+1.08465552e-02f,-2.42772356e-01f,+3.87174904e-01f,-3.16423416e-01f,
	-1.61268532e-01f,+2.13863835e-01f,+3.30219232e-02f,-2.72845000e-01f,+8.05023983e-02f,
	-1.51922658e-01f,+2.39322096e-01f,-1.64092436e-01f,+1.54227270e-02f,+3.34532201e-01f,
	-6.47619590e-02f,+1.35709703e-01f,+5.42808399e-02f,+7.56819695e-02f,+1.31335348e-01f,
	+4.05606776e-02f,-2.29336023e-02f,+1.28125265e-01f,+2.32459843e-01f,+1.07075702e-02f,
	-2.93927670e-01f,-2.66255885e-01f,+1.57652080e-01f,+8.88313130e-02f,+1.40079539e-02f,
	-1.11512661e-01f,+9.68477204e-02f,-6.43329695e-02f,-1.67435199e-01f,+2.86014944e-01f,
	-7.90816173e-02f,-5.82152195e-02f,-8.96356925e-02f,-8.29010457e-03f,-1.60835966e-01f,
	+4.55949605e-02f,-1.33359745e-01f,-2.68694520e-01f,+1.32037133e-01f,+1.62723884e-01f,
	-2.16178536e-01f,-1.19322538e-01f,-2.06646010e-01f,-1.14681534e-01f,-2.91662931e-01f,
	+3.72107625e-02f,-1.96284931e-02f,+1.89949289e-01f,-2.97623664e-01f,-9.80752259e-02f,
	+7.23925307e-02f,+1.19025595e-01f,+1.37849152e-01f,+1.28158763e-01f,-9.75387841e-02f,
	+9.69335902e-03f,+1.87237412e-01f,+1.61728207e-02f,-4.91106324e-02f,+9.49879736e-02f,
	-4.94497493e-02f,-2.78664250e-02f,+5.58612682e-02f,+1.26114115e-01f,+2.66992927e-01f,
	+6.24127649e-02f,-1.07641026e-01f,+6.31892979e-02f,+7.66981542e-02f,+2.63922989e-01f,
	+2.77208816e-02f,-1.93909258e-01f,-2.41533183e-02f,+3.53251630e-03f,-1.51454881e-02f,
	-1.50911480e-01f,+1.87432114e-02f,-9.66187716e-02f,+6.41031340e-02f,-1.29227519e-01f,
	-2.30875090e-01f,+9.87160578e-03f,-5.09032831e-02f,+7.85382539e-02f,-2.47784317e-01f,
	+8.09998345e-03f,-1.52769774e-01f,+1.48856759e-01f,-2.00233847e-01f,-1.47029132e-01f,
	+5.37559427e-02f,+2.34857667e-02f,+3.70099783e-01f,-2.08453136e-03f,-3.28922085e-02f,
	+1.96170676e-02f,+3.92009281e-02f,-1.50734946e-01f,-4.54052180e-01f,-1.44317420e-02f,
	-1.09832399e-02f,+1.44162148e-01f,+6.10388555e-02f,-1.44926831e-01f,+2.01016501e-01f,
	+5.92616126e-02f,-2.59283662e-01f,-2.75341213e-01f,+2.00821713e-01f,-1.96847320e-01f,
	-1.35386914e-01f,-6.38501439e-03f,-3.38929333e-02f,-2.13276058e-01f,+2.07612589e-01f,
	-2.80493110e-01f,-1.25661388e-01f,-1.12921074e-01f,+3.17465477e-02f,+1.42539084e-01f,
	+8.95999297e-02f,-2.20606729e-01f,+3.80494515e-03f,+3.88546959e-02f,-1.30168587e-01f,
	-1.02129906e-01f,+2.73044825e-01f,+2.11580265e-02f,+2.64750551e-02f,-6.85448721e-02f,
	+9.12269652e-02f,-1.27382502e-01f,-8.54271576e-02f,+1.61636651e-01f,+6.94200173e-02f,
	-2.52640963e-01f,+4.43382040e-02f,+2.73819149e-01f,+9.28503126e-02f,+5.70156015e-02f,
	-2.20520377e-01f,+1.07625909e-01f,+1.52228147e-01f,-1.17482483e-01f,-2.26254128e-02f,
	+6.92491755e-02f,+1.08079232e-01f,+6.33754814e-03f,-1.77439046e-03f,-1.60543710e-01f,
	-1.01200946e-01f,-4.35898602e-02f,-1.03106216e-01f,-7.85157979e-02f,+3.46792340e-02f,
	+3.19675319e-02f,-7.22837150e-02f,-3.94031741e-02f,+2.95622423e-02f,-7.04745427e-02f,
	-2.96538435e-02f,+4.47969772e-02f,-9.13228020e-02f,-4.10873070e-02f,+4.01619710e-02f,
	-1.14008136e-01f,-6.86423928e-02f,-5.74411489e-02f,-6.75832853e-02f,+9.34895501e-02f,
	-2.79147513e-02f,+1.85239855e-02f,-9.66871902e-02f,+1.23433873e-01f,-7.73273036e-02f,
	-6.97733387e-02f,-2.59571880e-01f,-3.70267667e-02f,-1.13295391e-01f,-6.87413439e-02f,
	+2.26503108e-02f,+4.62213606e-02f,+9.19428542e-02f,-5.61677180e-02f,+2.16199532e-01f,
	-8.45246017e-02f,-7.44817629e-02f,+1.16488241e-01f,-2.60491427e-02f,-7.22796097e-03f,
	+1.04449868e-01f,+8.70520547e-02f,-1.07628264e-01f,-7.42171705e-02f,-1.75775066e-01f,
	+9.62238833e-02f,+1.21070795e-01f,+1.18806213e-01f,+2.67505765e-01f,-7.74295554e-02f,
	-7.18641803e-02f,+1.38988849e-02f,+1.66292582e-02f,-3.25788200e-01f,-8.45275670e-02f,
	+3.86796407e-02f,-1.55230284e-01f,-1.38853312e-01f,-1.68333218e-01f,-3.59370291e-01f,
	-9.67367068e-02f,+4.39165160e-02f,-2.01057255e-01f,-1.36866599e-01f,-8.30772072e-02f,
	-8.73152837e-02f,-3.91335636e-02f,-1.40390351e-01f,-3.72240961e-01f,-1.78642839e-01f,
	+1.66968986e-01f,-1.70807466e-01f,-1.53519958e-01f,-1.46576896e-01f,-7.77909309e-02f,
	+1.18045636e-01f,-2.06554934e-01f,-1.10945828e-01f,-6.22765012e-02f,+4.37350199e-02f,
	-1.63125247e-01f,-2.31757849e-01f,-1.56944677e-01f,+2.97247153e-02f,-2.73002721e-02f,
	-1.13772161e-01f,+1.31468490e-01f,-1.45407572e-01f,-1.43093407e-01f,-1.52696371e-01f,
	-7.95114636e-02f,-1.00134984e-01f,+3.37315239e-02f,-5.49878359e-01f,-1.60408802e-02f,
	-2.21851379e-01f,-1.39798254e-01f,-1.61211655e-01f,-3.33189778e-02f,+1.32346570e-01f,
	-1.93654355e-02f,+4.27763872e-02f,+5.65428548e-02f,-1.30798355e-01f,+3.55885103e-02f,
	+1.42580301e-01f,-8.28681737e-02f,-4.38096076e-02f,+2.17930079e-02f,-5.94501160e-02f,
	-9.91378054e-02f,-8.00255537e-02f,-7.93917403e-02f,-7.85359964e-02f,-4.63130102e-02f,
	-1.01354323e-01f,+1.13850236e-02f,+1.29066426e-02f,-1.32427171e-01f,+4.25108373e-02f,
	-6.32978827e-02f,-2.57961880e-02f,-1.81470618e-01f,-1.23610504e-01f,-7.34625086e-02f,
	+1.05308324e-01f,+1.36328936e-01f,-5.73339313e-02f,-1.80789590e-01f,-2.14665923e-02f,
	+1.64696768e-01f,+1.61825374e-01f,+8.18063766e-02f,+1.33098349e-01f,+1.57997042e-01f,
	+4.98672687e-02f,+8.10211226e-02f,+1.10870518e-01f,+8.31043199e-02f,-9.18949619e-02f,
	-6.38830066e-02f,+5.29211108e-03f,-2.13888377e-01f,+1.26575947e-01f,+6.19133860e-02f,
	-9.85980928e-02f,+1.26976117e-01f,-1.20978206e-01f,-5.76910675e-02f,+1.48475617e-01f,
	-6.23223260e-02f,-1.05926156e-01f,+1.48158193e-01f,-1.89725667e-01f,+1.08435741e-02f,
	-1.78584605e-01f,-7.73965195e-02f,+1.01973794e-01f,-3.08219604e-02f,-3.40662487e-02f,
	+1.27201140e-01f,-8.49102288e-02f,-9.77456495e-02f,-1.81326345e-01f,+9.76847485e-02f,
	+8.72130021e-02f,-1.82504594e-01f,-1.90669484e-02f,-3.26280892e-02f,+1.06842279e-01f,
	+1.46603867e-01f,-1.00613154e-01f,+4.12480207e-03f,-4.48540377e-04f,+1.12004234e-02f,
	+9.20569226e-02f,-1.80511981e-01f,-1.49782345e-01f,+3.27344611e-02f,-5.11677563e-02f,
	+1.10962331e-01f,+8.03025514e-02f,+8.53895620e-02f,-6.42504320e-02f,-8.88433903e-02f,
	-4.88935858e-02f,-1.26496777e-01f,+1.26939133e-01f,+5.34059890e-02f,+4.53292206e-02f,
	-8.77350345e-02f,-2.07817733e-01f,-1.68062687e-01f,+1.63380224e-02f,-1.43510088e-01f,
	+1.62408389e-02f,+8.34743977e-02f,-7.40634948e-02f,+1.52694434e-01f,-1.41799757e-02f,
	-7.60662258e-02f,-1.72204658e-01f,-3.31486948e-02f,-5.93666434e-02f,+5.28470948e-02f,
	-1.52866682e-02f,+1.10563301e-01f,+1.10016859e-04f,+3.46567854e-02f,-1.04605250e-01f,
	+1.46904169e-02f,+1.45149454e-01f,-2.17787266e-01f,+7.08082914e-02f,-1.40522867e-01f,
	+3.21168453e-02f,+1.26833692e-01f,+4.01510373e-02f,-1.65059939e-01f,-1.04759112e-01f,
	-5.83274625e-02f,+3.24310884e-02f,+3.56800715e-03f,+1.68047044e-02f,+5.19567227e-04f,
	+5.72880469e-02f,+2.76146889e-01f,-6.02501370e-02f,-2.33485937e-01f,+7.82947466e-02f,
	-3.34794112e-02f,-9.67602432e-02f,+9.44386870e-02f,-1.74650788e-01f,-1.94177389e-01f,
	-2.17595756e-01f,-1.18457414e-01f,+1.43394768e-01f,+8.67858306e-02f,+6.96243942e-02f,
	+1.26670972e-01f,-4.70462590e-02f,-8.58830586e-02f,+1.20928831e-01f,+5.91712967e-02f,
	+3.09774261e-02f,-1.30900174e-01f,+3.97429392e-02f,-1.94792897e-01f,-6.85851872e-02f,
	-2.44961485e-01f,-2.11043596e-01f,+5.72239608e-02f,+2.79707182e-02f,-6.03743419e-02f,
	-1.36488497e-01f,-2.03454625e-02f,-7.08566457e-02f,-1.68784648e-01f,-1.21028043e-01f,
	-2.48870760e-01f,-1.59286231e-01f,-8.41329172e-02f,+3.69660482e-02f,-1.67722836e-01f,
	-1.89345151e-01f,-6.10732138e-02f,-1.09000662e-02f,-1.67291030e-01f,-2.01207787e-01f,
	-8.10147598e-02f,+9.11675394e-02f,+4.02853526e-02f,-4.37667891e-02f,-3.28601897e-01f,
	-1.90153867e-02f,+6.77428860e-03f,+4.87815030e-02f,+1.07304871e-01f,+9.85973328e-02f,
	-9.93299708e-02f,-4.91158590e-02f,-1.37554675e-01f,-8.98971455e-04f,-6.16254695e-02f,
	-2.58015007e-01f,-2.97348816e-02f,-2.50072479e-01f,-1.29847080e-01f,-1.78889960e-01f,
	+4.14889753e-02f,+1.63506027e-02f,-8.49979296e-02f,+1.46934211e-01f,-1.74667701e-01f,
	-4.28447919e-03f,+3.12105548e-02f,+1.89341307e-01f,+1.90675244e-01f,+5.98510467e-02f,
	-1.88921794e-01f,-1.24318913e-01f,+1.47520363e-01f,+2.05225408e-01f,+1.25288844e-01f,
	-1.88623458e-01f,-8.64257477e-03f,+9.34139639e-02f,+2.48350948e-02f,-2.45777890e-03f,
	+1.14277145e-03f,-6.44391626e-02f,+1.18316457e-01f,-3.16678256e-01f,-1.70734763e-01f,
	-9.73861963e-02f,+5.03447987e-02f,+1.55187286e-02f,-9.67676193e-02f,-4.18304279e-02f,
	-2.21068293e-01f,+9.98733640e-02f,-1.80192679e-01f,-1.00258291e-01f,+2.69299559e-02f,
	-9.84898359e-02f,+1.53635591e-01f,-7.79623119e-03f,+2.47260067e-03f,+1.81758292e-02f,
	-1.21901490e-01f,-1.86860878e-02f,-2.46331960e-01f,-7.11119324e-02f,+1.42524522e-02f,
	+7.21037164e-02f,+1.55437691e-02f,-3.45823526e-01f,+2.00515419e-01f,-3.21636647e-02f,
	-3.56354326e-01f,-2.97719896e-01f,+1.08294673e-01f,-1.98977232e-01f,-6.48221672e-02f,
	-1.49934158e-01f,+1.31910175e-01f,-1.63891017e-01f,+1.48886228e-02f,-1.70245290e-01f,
	-9.97860283e-02f,-1.27403215e-01f,-1.38401091e-01f,-2.01966781e-02f,+9.20592397e-02f,
	+1.08132146e-01f,-5.38338162e-02f,+7.11714998e-02f,-2.67796576e-01f,-1.41828254e-01f,
	+1.19983725e-01f,+1.73068747e-01f,+1.70006079e-03f,-9.99361575e-02f,-8.71760547e-02f,
	-7.61856660e-02f,+1.70626270e-03f,-8.72334316e-02f,-4.50664274e-02f,-7.64581412e-02f,
	-4.54895347e-02f,-1.89629011e-02f,-5.60098588e-02f,-3.85986976e-02f,-1.61122859e-01f,
	-2.28255153e-01f,+6.94445670e-02f,-1.69618011e-01f,-1.73981503e-01f,+6.25006482e-02f,
	-1.04550468e-02f,+1.67909220e-01f,+6.88781515e-02f,+6.37886822e-02f,-2.12404467e-02f,
	-2.47861166e-02f,+1.33842528e-01f,-4.67058681e-02f,+4.08595689e-02f,-2.34805401e-02f,
	+3.09945885e-02f,+2.32042223e-02f,+8.67796876e-03f,-3.89654115e-02f,-1.26128674e-01f,
	-3.67500149e-02f,-5.92103004e-02f,+2.98112668e-02f,-1.03852801e-01f,+9.75686312e-02f,
	+9.66438055e-02f,+3.07195392e-02f,-8.72482210e-02f,-1.43206745e-01f,+1.27150146e-02f,
	-4.84765619e-02f,-1.89451650e-02f,-1.10734448e-01f,-3.29451673e-02f,-3.55922505e-02f,
	-1.16500586e-01f,-4.79216985e-02f,+8.12009871e-02f,+6.90000802e-02f,+7.18599334e-02f,
	-3.62973101e-02f,-2.02842150e-02f,-1.10791195e-02f,-7.69173130e-02f,-2.00761825e-01f,
	-4.50542904e-02f,-3.47582586e-02f,-1.18285365e-01f,-1.80352554e-01f,-7.97899440e-02f,
	-1.10680657e-02f,+5.54053895e-02f,-1.17687583e-01f,+8.79431441e-02f,-7.48200193e-02f,
	+6.31108880e-02f,+4.84108217e-02f,-3.98874730e-02f,-2.17971116e-01f,+4.53906208e-02f,
	-3.03711556e-02f,+6.11303188e-02f,+6.76573664e-02f,-4.72342595e-02f,-4.16830229e-03f,
	+2.46236082e-02f,-6.88573625e-03f,-1.90631226e-01f,+1.37246713e-01f,+7.98658580e-02f,
	-1.58964712e-02f,-9.35693532e-02f,-2.24583030e-01f,-9.73007083e-02f,+5.06117381e-02f,
	-4.52351533e-02f,-4.36607040e-02f,+9.02571827e-02f,-2.02389732e-02f,-2.26711649e-02f,
	+6.28452227e-02f,-1.51219770e-01f,-2.08093151e-01f,+6.69759978e-03f,+7.18112942e-03f,
	+6.32806942e-02f,+7.86161274e-02f,+1.01085767e-01f,-9.42378268e-02f,+6.72841147e-02f,
	-1.68000478e-02f,-7.49898097e-03f,+3.99885252e-02f,-5.85476719e-02f,+1.91389751e-02f,
	-5.14048859e-02f,+3.58009413e-02f,+1.37138844e-01f,+4.35740612e-02f,-2.63289064e-01f,
	-7.94158876e-02f,-3.81138735e-02f,+3.16936523e-02f,-5.40647693e-02f,-2.19686441e-02f,
	+1.21955769e-02f,-4.62405309e-02f,+1.98868155e-01f,-7.35426601e-03f,-5.67338392e-02f,
	-6.09238371e-02f,-1.13404393e-02f,-2.39608347e-01f,+2.18608424e-01f,-9.18567553e-02f,
	+6.66132197e-02f,+2.88112938e-01f,+4.32985611e-02f,-1.13332152e-01f,+1.42019421e-01f,
	-3.71009894e-02f,+1.80691749e-01f,-2.69727767e-01f,+5.65119423e-02f,+2.49728099e-01f,
	-1.63676858e-01f,+1.75543368e-01f,+5.71766533e-02f,+2.62345791e-01f,+2.28382781e-01f,
	-1.37774840e-01f,-1.39370367e-01f,+1.24706112e-01f,+1.01317847e-02f,-1.32924706e-01f,
	-2.16774195e-01f,-2.06040725e-01f,+2.41900142e-02f,+4.05164212e-02f,-1.33418068e-01f,
	-2.94095784e-01f,-8.92801881e-02f,+1.76709816e-02f,+4.10016365e-02f,+1.58321321e-01f,
	-1.26887247e-01f,+1.79685988e-02f,-2.52875924e-01f,-3.82855460e-02f,+1.93320364e-02f,
	+7.01413350e-03f,+5.87143935e-03f,-7.46486485e-02f,+2.16481253e-03f,+1.47990555e-01f,
	+7.57826865e-02f,-3.37364525e-02f,-9.01134312e-02f,-1.25779316e-01f,-3.83250974e-02f,
	+7.01479018e-02f,-7.77371451e-02f,+4.34332341e-02f,-9.38708037e-02f,+5.21780178e-02f,
	+4.48705666e-02f,+3.47531512e-02f,-9.42151397e-02f,+2.05620319e-01f,+5.74010946e-02f,
	+6.11111522e-02f,-3.52954604e-02f,+1.83549657e-01f,+7.05055520e-02f,-2.61365790e-02f,
	-2.57091731e-01f,+3.98691408e-02f,+1.96529157e-03f,+1.57092765e-01f,-4.28775400e-02f,
	-6.90243244e-02f,-2.90441606e-02f,+1.59167852e-02f,-1.67899758e-01f,-7.60523677e-02f,
	-1.38515517e-01f,-1.15765035e-01f,+4.70269099e-02f,+2.88626994e-03f,-6.19570166e-03f,
	+8.68465379e-03f,-1.68928072e-01f,-1.31125554e-01f,+2.07752977e-02f,-1.22056901e-01f,
	-1.66262314e-02f,-3.16795446e-02f,-1.39692023e-01f,+6.16512448e-02f,+7.47026280e-02f,
	+1.22200996e-01f,-1.18948512e-01f,+2.45794840e-03f,+1.30878702e-01f,+1.10700734e-01f,
	+1.05918258e-01f,+6.77895918e-02f,+1.40145764e-01f,+2.50482094e-02f,+1.01925932e-01f,
	+2.23609209e-02f,-9.53933969e-02f,-1.51439356e-02f,+6.99821208e-03f,-4.45175320e-02f,
	-9.15951952e-02f,-1.65244099e-02f,+6.74247444e-02f,-1.04477078e-01f,+5.90162165e-02f,
	-1.69243231e-01f,+5.83532006e-02f,-3.39897466e-03f,-5.98324090e-02f,-1.47524714e-01f,
	+1.42617121e-01f,-1.65633727e-02f,+7.44733065e-02f,-4.33921218e-02f,-1.23688012e-01f,
	+4.69781645e-02f,+6.65977150e-02f,-8.39368254e-02f,+3.36574912e-02f,-9.68645588e-02f,
	-1.97827131e-01f,+1.66892931e-01f,-1.45246834e-01f,+1.28919482e-01f,-2.22090445e-02f,
	+8.07600170e-02f,-2.89974988e-01f,-7.03427494e-02f,-2.18182087e-01f,-2.22178057e-01f,
	-2.38325655e-01f,-5.24322316e-03f,+1.11910172e-01f,+7.32137561e-02f,-8.85736942e-02f,
	+4.24705371e-02f,-9.96550322e-02f,-3.96502942e-01f,+2.49816142e-02f,-1.59888044e-01f,
	-1.52467251e-01f,-3.70703302e-02f,-3.08830380e-01f,+8.56020255e-04f,-7.46201724e-02f,
	-2.29019836e-01f,-3.18352804e-02f,-1.91744175e-02f,-2.30104148e-01f,+1.09504670e-01f,
	-8.72559473e-02f,-1.84303392e-02f,+5.92634492e-02f,-1.11479007e-01f,-2.77705461e-01f,
	-1.51867896e-01f,-1.24338575e-01f,-8.44309106e-02f,-1.85889099e-02f,-1.74449906e-02f,
	-2.52803117e-02f,-1.71712448e-03f,-1.98652864e-01f,-2.74720281e-01f,-3.15248549e-01f,
	+8.99652839e-02f,-5.68623915e-02f,-8.28989968e-02f,-6.26188219e-02f,-1.86700672e-01f,
	+1.27626851e-01f,-1.67999268e-01f,+1.77270770e-01f,-1.61734432e-01f,+1.47695048e-02f,
	+6.09195083e-02f,+8.60321671e-02f,+5.59257120e-02f,-4.69403155e-02f,-4.29543480e-02f,
	-1.35744452e-01f,-1.19765595e-01f,-1.25473782e-01f,-2.07180679e-01f,+6.03874959e-02f,
	-6.84615746e-02f,-9.18418244e-02f,+1.19307026e-01f,-1.13754906e-01f,-2.09993660e-01f,
	+1.22709438e-01f,-2.40923255e-03f,-5.47251618e-03f,-1.68120518e-01f,-1.31130125e-03f,
	-5.66812679e-02f,+2.81305891e-02f,+6.46301359e-03f,+1.42130880e-02f,-3.12694281e-01f,
	+9.93670151e-02f,+1.82983518e-01f,-1.04756514e-02f,-4.55842875e-02f,-8.25245604e-02f,
	-2.19623279e-02f,+1.91764086e-01f,-1.25737891e-01f,-1.85364828e-01f,+1.12418795e-03f,
	+5.13075925e-02f,-1.34915458e-02f,+1.03460371e-01f,-1.20343529e-01f,-3.06837469e-01f,
	-4.61546890e-02f,-8.47544670e-02f,+5.34529313e-02f,-6.99026585e-02f,-9.80855748e-02f,
	-1.52066881e-02f,+5.22769764e-02f,+7.71114081e-02f,-1.16645627e-01f,-6.32103831e-02f,
	+4.70457971e-02f,-7.11675286e-02f,+1.06401160e-01f,-8.70139920e-04f,+8.21336135e-02f,
	+1.29089905e-02f,+5.11512086e-02f,+6.83601797e-02f,-8.73818025e-02f,-6.72484413e-02f,
	-1.53669231e-02f,-1.08189009e-01f,+1.29399803e-02f,+5.57699651e-02f,-8.63880143e-02f,
	-2.97232062e-01f,-1.09470136e-01f,+9.98029835e-04f,+4.21078205e-02f,+1.07132681e-01f,
	-5.72456466e-03f,+2.48877238e-02f,-1.45789281e-01f,+3.32123972e-02f,-7.84520283e-02f,
	+5.95530458e-02f,-1.11445948e-01f,-1.40053267e-02f,-1.78845972e-01f,+4.93379645e-02f,
	-1.91678792e-01f,-4.57662083e-02f,+2.50447452e-01f,-9.35149863e-02f,+3.61546129e-02f,
	+3.61331850e-02f,-1.51476249e-01f,+1.59648135e-01f,-5.39648682e-02f,-1.54917046e-01f,
	+3.18056419e-02f,-1.13806643e-01f,+2.06279263e-01f,+9.35112089e-02f,+1.75390437e-01f,
	+7.53325596e-02f,+1.96182728e-02f,-1.35487586e-01f,+1.20642208e-01f,-4.21192450e-03f,
	-2.31975421e-01f,-1.63449615e-01f,-1.29822239e-01f,+7.13840276e-02f,+2.38732137e-02f,
	+3.79517786e-02f,-2.62821883e-01f,+2.04698388e-02f,-4.77921404e-02f,+2.36320328e-02f,
	+4.92029004e-02f,-6.44003600e-02f,-1.96093787e-02f,+1.30715668e-02f,-5.01675829e-02f,
	+9.81013756e-04f,+5.83183430e-02f,+2.22163536e-02f,-1.17766798e-01f,+1.86495238e-03f,
	+1.07443228e-01f,-6.56566545e-02f,-4.50654924e-02f,+8.76849666e-02f,-1.53655395e-01f,
	-4.96604741e-02f,+8.52541924e-02f,+4.16832604e-02f,+2.25734264e-02f,-1.30586877e-01f,
	-9.49042011e-03f,+2.84524113e-02f,+1.28230274e-01f,+5.02297319e-02f,+1.33254647e-01f,
	+1.42796068e-02f,+1.97632879e-01f,-4.71458733e-02f,-3.31226327e-02f,+8.70810356e-04f,
	+2.11605757e-01f,-1.24351785e-01f,-1.42912865e-01f,+7.45521411e-02f,+1.35277703e-01f,
	+8.02563801e-02f,-2.21801981e-01f,-7.95349777e-02f,-2.03439549e-01f,+1.41314164e-01f,
	+1.30673489e-02f,-3.82441990e-02f,-9.24339369e-02f,-6.16832934e-02f,-2.58470606e-02f,
	-2.08836067e-02f,+1.51111316e-02f,-9.03574601e-02f,-1.20027676e-01f,+8.06170776e-02f,
	-9.65793058e-02f,-2.73964286e-01f,-8.96475017e-02f,-3.77887599e-02f,+1.62562713e-01f,
	+4.49810997e-02f,-7.19099715e-02f,-1.53470367e-01f,+4.15109284e-02f,+3.70778106e-02f,
	+3.11571136e-02f,+4.48346697e-02f,+3.62516902e-02f,+1.26261681e-01f,+3.15401703e-02f,
	-3.37858051e-02f,-1.47019222e-01f,-1.04265340e-01f,-1.23501075e-02f,-1.12765089e-01f,
	-2.87431814e-02f,+3.68163851e-03f,+8.37205499e-02f,+4.33490835e-02f,-6.49270788e-02f,
	+1.61672503e-01f,+2.41075223e-03f,-2.26667538e-01f,-3.76808494e-02f,-2.41343770e-02f,
	-7.17240870e-02f,-4.20833081e-02f,+4.90524434e-02f,-1.14600219e-01f,-8.30311030e-02f,
	+5.60897999e-02f,+2.82883719e-02f,-5.72664104e-02f,+9.62571725e-02f,-3.68951596e-02f,
	-3.47965956e-02f,-1.47859499e-01f,-1.43442869e-01f,-4.43655625e-02f,-4.60145511e-02f,
	-1.16359144e-01f,-6.36610389e-02f,-9.70237628e-02f,-4.09636926e-03f,+8.20463803e-03f,
	-3.41737345e-02f,+9.32169184e-02f,-3.94988619e-03f,-5.09812348e-02f,-4.46986407e-02f,
	-4.77347113e-02f,-1.58495486e-01f,+5.82443252e-02f,-6.11054227e-02f,+2.51844600e-02f,
	+4.62637702e-03f,+8.16787109e-02f,-9.20093730e-02f,+5.82174771e-02f,+3.90129350e-02f,
	+6.63343025e-03f,+1.13990262e-01f,+4.76038195e-02f,+5.65550514e-02f,-1.87395856e-01f,
	-1.90966442e-01f,-1.19530708e-01f,-2.00561043e-02f,+5.59790544e-02f,-8.03959370e-02f,
	+5.76266348e-02f,+2.59880647e-02f,-4.32898179e-02f,-1.10751390e-02f,-9.74599943e-02f,
	-4.89939265e-02f,-7.29632750e-02f,-1.28604844e-01f,-1.42813772e-01f,+5.56996651e-02f,
	+5.41676432e-02f,-7.99526125e-02f,+5.85133024e-02f,+5.87279461e-02f,-1.11611607e-02f,
	+6.86790049e-02f,-1.06936738e-01f,-1.84622481e-01f,-1.24972031e-01f,+4.09610644e-02f,
	+4.15519625e-03f,+7.70517737e-02f,-1.14418931e-01f,+1.07542193e-02f,+1.29121527e-01f,
	+1.08093880e-02f,-3.50551531e-02f,+1.14442267e-01f,-2.86456605e-04f,-9.21209678e-02f,
	-6.19625926e-01f,+3.55170995e-01f,-9.02259275e-02f,-3.90661657e-02f,-2.13108271e-01f,
	+1.26070827e-01f,-4.96829540e-01f,-2.15177238e-01f,-1.81867570e-01f,-2.97772974e-01f,
	-3.84418011e-01f,-7.25974292e-02f,+1.78544566e-01f,-2.60529369e-02f,-2.57721961e-01f,
	-5.99838421e-02f,-6.55239001e-02f,-4.83766586e-01f,+1.73333183e-01f,-2.86217868e-01f,
	-3.32146019e-01f,-1.38437912e-01f,-4.60371733e-01f,-1.98727787e-01f,+9.35906693e-02f,
	-3.73363078e-01f,-6.15167208e-02f,-4.38247509e-02f,-1.51945010e-01f,+1.85336977e-01f,
	-3.35475206e-01f,+7.65845254e-02f,-1.46083206e-01f,-2.19550639e-01f,-2.35021874e-01f,
	-8.35343748e-02f,-3.37317497e-01f,-2.13741690e-01f,-2.56209522e-01f,-5.63281141e-02f,
	-1.53757751e-01f,-3.21263820e-01f,-9.95073020e-02f,-1.25660062e-01f,-2.52722710e-01f,
	-1.77241322e-02f,-1.28228381e-01f,-1.56682014e-01f,-1.90736204e-01f,-4.49734271e-01f,
	-1.27168909e-01f,-1.24965742e-01f,+8.94528814e-03f,-7.65454918e-02f,+2.62343377e-01f,
	-2.99806267e-01f,+3.30996782e-01f,-3.39306027e-01f,-3.67727965e-01f,-7.16906786e-02f,
	-1.06831506e-01f,-2.33055741e-01f,-1.42189518e-01f,-2.01013193e-01f,-6.72804639e-02f,
	-2.12706447e-01f,-8.42838809e-02f,+1.19710833e-01f,-2.70001241e-04f,-2.74232980e-02f,
	-1.44959733e-01f,-1.60487384e-01f,+3.45767252e-02f,-1.48076629e-02f,+1.64469346e-01f,
	-2.50695758e-02f,+6.64818957e-02f,+2.96512656e-02f,-1.25304386e-01f,-1.17237002e-01f,
	+9.08447057e-03f,-3.73789296e-02f,+8.39815103e-03f,-2.25145239e-02f,+2.01292217e-01f,
	-9.49971303e-02f,+8.26677009e-02f,+7.68101588e-02f,+1.05418473e-01f,+1.12376221e-01f,
	+1.47822529e-01f,+6.20463528e-02f,-1.36055574e-01f,-5.51116727e-02f,+9.43136886e-02f,
	-5.71891889e-02f,-2.30430122e-02f,-6.78378493e-02f,+9.57162678e-03f,-1.16759324e-02f,
	-1.91703439e-02f,+1.07072644e-01f,+1.18226418e-02f,-4.59872298e-02f,+9.06673726e-03f,
	-1.51671484e-01f,-1.22328594e-01f,+8.49986225e-02f,-3.16999331e-02f,+1.78837292e-02f,
	+3.81366611e-02f,+8.95861387e-02f,-5.98297678e-02f,+1.83030277e-01f,-6.74573658e-03f,
	-8.43900740e-02f,-6.76937327e-02f,-6.72302768e-02f,-1.48243859e-01f,+1.68872833e-01f,
	-4.23724167e-02f,+9.23831537e-02f,+8.92117098e-02f,+9.06036235e-03f,+4.36525419e-02f,
	+6.68523571e-05f,+8.38671774e-02f,-8.65102629e-05f,-5.60018606e-02f,-1.79391608e-01f,
	+5.82226738e-03f,+1.23628668e-01f,-1.13630563e-01f,+7.54045546e-02f,+3.75654548e-02f,
	+1.67288631e-02f,+6.67030811e-02f,-8.19804296e-02f,+6.60417825e-02f,-1.24028541e-01f,
	-7.01022567e-03f,-5.22688180e-02f,-8.88526216e-02f,-1.17955670e-01f,-8.26184079e-02f,
	+1.00966342e-01f,+3.70202661e-02f,-2.17538849e-02f,+3.70392539e-02f,-2.33557925e-01f,
	+1.11654773e-01f,+5.61752878e-02f,+2.18634725e-01f,+1.16842225e-01f,+4.89697121e-02f,
	+2.00171486e-01f,-3.83571684e-02f,-1.73380613e-01f,-6.90685511e-02f,+2.11477745e-02f,
	-7.08086640e-02f,+2.10688543e-02f,-2.63750982e-02f,-9.15376469e-02f,+4.78690118e-02f,
	+4.53953668e-02f,-1.41721722e-02f,+4.43868376e-02f,-1.93732738e-01f,-1.45650804e-01f,
	-2.32233435e-01f,-7.35949865e-03f,-3.12615721e-03f,-6.92425966e-02f,+2.54878663e-02f,
	-2.84206551e-02f,+2.19611935e-02f,+7.86788017e-02f,-8.54066834e-02f,-1.56412080e-01f,
	-8.54692981e-02f,+2.05247267e-03f,-1.11403033e-01f,+1.88404545e-01f,-1.53752109e-02f,
	+4.79441881e-02f,-1.40747614e-02f,-1.04488887e-01f,+4.57327440e-02f,-1.48448227e-02f,
	-8.63495171e-02f,-5.13875596e-02f,-1.04898708e-02f,+3.06970384e-02f,-4.89772968e-02f,
	-1.76282406e-01f,-5.98494820e-02f,-1.61692515e-01f,-9.81120914e-02f,+7.05037415e-02f,
	+8.90839174e-02f,+9.66990516e-02f,-1.22901397e-02f,+9.40635800e-02f,-3.36255640e-01f,
	-1.29679993e-01f,-1.54098615e-01f,-6.76019862e-02f,+1.51536286e-01f,-8.83476064e-02f,
	-3.98123786e-02f,-1.32430084e-02f,+7.37918192e-04f,+2.39654575e-02f,-3.37936021e-02f,
	-1.09128013e-01f,-4.97419946e-02f,+1.90088451e-02f,-4.99806479e-02f,-5.65219186e-02f,
	+5.06579131e-02f,-7.46934190e-02f,-1.57296076e-01f,-1.20778233e-01f,+1.66160583e-01f,
	-7.00334385e-02f,+1.00596426e-02f,+3.44059966e-03f,+3.86312269e-02f,-1.59822062e-01f,
	+4.77304123e-02f,-2.69098103e-01f,+9.67571735e-02f,-4.01367769e-02f,+1.71012022e-02f,
	+1.34881469e-03f,-2.11598836e-02f,+4.59598936e-02f,+8.30266401e-02f,-1.36900600e-02f,
	+2.75372148e-01f,-1.71400249e-01f,+6.53473148e-03f,-2.19679140e-02f,-2.34673917e-02f,
	-7.26693794e-02f,+2.40576128e-03f,-5.61971068e-02f,-1.54966995e-01f,-1.48686707e-01f,
	+2.03935858e-02f,-5.38971573e-02f,+3.81303988e-02f,-3.50236967e-02f,+9.82858390e-02f,
	-3.55491452e-02f,-1.51872382e-01f,-1.52570277e-01f,+4.40658927e-02f,+1.26301244e-01f,
	-7.12881833e-02f,-3.28511521e-02f,-1.23466097e-01f,-6.26488626e-02f,+2.05628239e-02f,
	+6.91210553e-02f,+1.32484481e-01f,-6.08454645e-03f,+1.07418612e-01f,+1.67208873e-02f,
	-7.84606114e-02f,-1.75467074e-01f,-1.06790908e-01f,-6.99964985e-02f,+2.59189401e-02f,
	+4.04595174e-02f,+1.47311613e-01f,-2.18114406e-01f,+4.29620706e-02f,+9.39525440e-02f,
	-9.87278000e-02f,+5.33508621e-02f,+1.28292173e-01f,+2.79834121e-02f,-6.16198704e-02f,
	-2.89285108e-02f,-4.98926640e-02f,-7.08540007e-02f,-7.05156848e-02f,+2.35493382e-04f,
	-7.89615605e-03f,-2.12728251e-02f,+7.06930161e-02f,+9.57871452e-02f,-1.79651663e-01f,
	-2.37670653e-02f,-9.89380404e-02f,-7.60459229e-02f,-1.73462570e-01f,+1.02551997e-01f,
	+2.86951251e-02f,-1.71958610e-01f,+4.76367399e-02f,-5.07077575e-02f,-9.73767973e-03f,
	+9.88904536e-02f,+6.13330081e-02f,-1.81549579e-01f,-1.46580040e-01f,-6.22098967e-02f,
	+3.74727622e-02f,+8.03402513e-02f,-1.62408784e-01f,+3.51557471e-02f,+1.39151588e-01f,
	-6.47322908e-02f,-6.92327768e-02f,+1.99629515e-02f,+1.12796061e-01f,+3.18251252e-02f,
	+4.84503899e-03f,-1.18429502e-02f,-9.51864198e-03f,+9.87176076e-02f,-8.57863724e-02f,
	+1.66397654e-02f,+2.30012108e-02f,+1.51532814e-01f,+9.63476151e-02f,+1.16468534e-01f,
	-1.10228226e-01f,-8.54628440e-03f,-4.78564650e-02f,+1.54508159e-01f,-2.50476509e-01f,
	-1.11926682e-01f,-9.82828587e-02f,+5.72466031e-02f,+7.46571273e-02f,-1.15487538e-01f,
	-1.84029341e-02f,-3.62684369e-01f,+7.37494230e-02f,-2.08635852e-02f,-3.58285606e-02f,
	-8.69063754e-03f,-1.56674422e-02f,-1.43044973e-02f,+9.73459259e-02f,+3.95609327e-02f,
	-1.39852509e-01f,-3.44904996e-02f,-7.26448670e-02f,-2.74846226e-01f,-3.81180458e-02f,
	+1.38218120e-01f,+4.19280678e-01f,-9.44459438e-02f,+1.33275196e-01f,+1.31150350e-01f,
	-1.05892628e-01f,-2.67220229e-01f,-2.13690549e-01f,-1.46554887e-01f,-7.77771398e-02f,
	+1.62549213e-01f,+6.63266927e-02f,-6.33256435e-02f,+7.48109445e-02f,+4.48635332e-02f,
	+4.96091694e-03f,-1.27585247e-01f,-1.07777223e-01f,-3.48184496e-01f,+1.69885028e-02f,
	-3.44039537e-02f,+1.18241675e-01f,-1.62533581e-01f,+3.14920455e-01f,-1.87117562e-01f,
	-8.77841413e-02f,+1.01552635e-01f,-1.91981148e-04f,-1.11913301e-01f,+1.42084047e-01f,
	-8.44489038e-02f,+1.15386218e-01f,+8.86915103e-02f,-2.26561248e-01f,-1.58139035e-01f,
	+1.32866325e-02f,+2.76556313e-02f,+1.77741811e-01f,+2.28227586e-01f,-5.31850010e-02f,
	-3.48494835e-02f,+3.51771638e-02f,-2.82459538e-02f,+3.34312245e-02f,-1.57234743e-01f,
	+1.04282342e-03f,+1.04585374e-02f,-2.04660613e-02f,+1.47263408e-01f,+1.61698624e-01f,
	+3.45670730e-02f,-1.13663748e-01f,+1.23999685e-01f,-2.07531989e-01f,+3.62378843e-02f,
	+1.00314170e-02f,-2.13145390e-01f,+1.30587354e-01f,-6.45607263e-02f,+1.12298261e-02f,
	+1.52990237e-01f,-1.77851811e-01f,+7.34586492e-02f,+1.02788843e-01f,-8.77832249e-02f,
	-8.87864232e-02f,-6.40937462e-02f,+8.37624520e-02f,+1.61333859e-01f,-4.11012173e-02f,
	+4.37096227e-03f,+1.90042704e-01f,+1.75507128e-01f,+2.28694975e-01f,-5.50396405e-02f,
	+1.18430652e-01f,+7.49379918e-02f,+1.56103149e-01f,+3.53680663e-02f,-6.09459169e-02f,
	-1.36995157e-02f,-2.37851143e-01f,+1.01444438e-01f,+5.90574816e-02f,+1.51193127e-01f,
	-1.48755759e-01f,+1.35961011e-01f,-2.78270729e-02f,-4.62903641e-02f,+2.59024017e-02f,
	-8.50684941e-02f,+1.09322906e-01f,+1.98268041e-01f,+1.67755615e-02f,+7.76322708e-02f,
	+6.52962457e-03f,+2.21816555e-01f,-3.89146000e-01f,-4.91361469e-02f,+2.56870657e-01f,
	-1.17243625e-01f,+4.36966456e-02f,-2.34333664e-01f,+1.12278359e-02f,-8.50676149e-02f,
	+9.17255506e-02f,+8.03649798e-02f,+1.19936801e-01f,-2.36864343e-01f,-2.35391017e-02f,
	+2.67544806e-01f,+9.80373546e-02f,+1.91258386e-01f,-1.56026900e-01f,-2.82864813e-02f,
	-7.72928149e-02f,-2.30519593e-01f,-1.12943009e-01f,-2.97392547e-01f,+1.11846142e-01f,
	+1.72230110e-01f,-2.71899886e-02f,-4.27249968e-02f,-1.23150289e-01f,+1.03496112e-01f,
	-1.96278065e-01f,+2.47649580e-01f,+1.42938942e-02f,-7.97119886e-02f,-1.64991230e-01f,
	+5.01615144e-02f,+1.60291642e-01f,-1.27252281e-01f,-1.71007648e-01f,+9.79414210e-02f,
	-1.19466960e-01f,+1.27672955e-01f,+6.24519996e-02f,-1.59817144e-01f,+6.40392527e-02f,
	+7.98484981e-02f,-1.06678627e-01f,+4.57911491e-02f,+4.68791351e-02f,-1.56313643e-01f,
	+5.79339936e-02f,+3.20720603e-03f,-1.12457298e-01f,-1.81946322e-01f,+1.46013880e-02f,
	+8.54358226e-02f,-5.57810906e-03f,-2.66281873e-01f,-1.58567503e-02f,-1.55785009e-01f,
	-1.65819466e-01f,+4.53737974e-02f,-5.41084819e-02f,-1.84123013e-02f,-2.19812334e-01f,
	+8.77729654e-02f,+2.69469097e-02f,+7.08545074e-02f,+2.34874450e-02f,-1.71107188e-01f,
	-1.00959197e-01f,+5.31920679e-02f,+4.77072038e-02f,-3.65839154e-02f,+3.17397155e-02f,
	-6.57459199e-02f,+3.35103832e-02f,-4.47435479e-04f,-1.03547275e-01f,-5.94975613e-03f,
	-1.41377956e-01f,+7.42739066e-02f,+1.04005061e-01f,-1.91691160e-01f,+4.01073955e-02f,
	+6.35727122e-02f,+5.11732548e-02f,+1.20838910e-01f,-2.70451363e-02f,+1.03036106e-01f,
	-5.42326570e-02f,-6.76938891e-02f,+9.78309512e-02f,-4.73685563e-02f,-6.65753440e-04f,
	-3.03636473e-02f,-4.73272614e-02f,-3.13468389e-02f,+5.70769683e-02f,+6.24232292e-02f,
	+2.29198355e-02f,+7.95731246e-02f,-2.08784208e-01f,-1.00612536e-01f,-1.35404572e-01f,
	+8.96271914e-02f,-9.70177054e-02f,+3.28026935e-02f,+3.48699726e-02f,+7.93033913e-02f,
	-1.66707933e-01f,+1.44596353e-01f,-1.96096208e-02f,-2.11630911e-01f,-3.76411416e-02f,
	-1.50845334e-01f,-1.81113079e-01f,+1.18941009e-01f,-5.12824319e-02f,-5.01028029e-03f,
	+1.54832616e-01f,-1.17110036e-01f,-4.90996465e-02f,+7.37811476e-02f,+3.41351964e-02f,
	-8.35722499e-03f,+1.82107855e-02f,-1.00493044e-01f,+4.78867814e-03f,-8.47773328e-02f,
	-4.65512015e-02f,+2.24539965e-01f,+6.93765422e-03f,+9.94466022e-02f,+6.56610280e-02f,
	+1.68139845e-01f,-5.06206676e-02f,-1.06072403e-01f,+3.55494837e-03f,+6.42510653e-02f,
	-2.58532107e-01f,-9.34986174e-02f,-1.50115386e-01f,+1.09789714e-01f,+1.92767665e-01f,
	-5.11108935e-02f,+9.95839760e-02f,-1.21042453e-01f,+1.66581757e-02f,+1.96083933e-02f,
	+8.48232284e-02f,+4.77141067e-02f,+5.84753416e-03f,-4.81592976e-02f,+1.62774667e-01f,
	+1.40930414e-01f,-1.94457099e-02f,-8.91404822e-02f,-4.83097596e-04f,-1.12058207e-01f,
	+4.74781776e-03f,+8.82054493e-02f,+2.81065315e-01f,-1.13077365e-01f,-2.52752751e-02f,
	+2.13717863e-01f,-2.94642538e-01f,-3.83663982e-01f,+4.37811948e-02f,+1.01626320e-02f,
	+9.24755931e-02f,-6.46866709e-02f,-2.82394532e-02f,-9.75266770e-02f,-8.01140368e-02f,
	+7.15796202e-02f,-1.04218759e-01f,-6.18351698e-02f,-1.68845445e-01f,-2.45255634e-01f,
	-5.97253405e-02f,+6.39362261e-02f,+1.61659002e-01f,-5.66691123e-02f,+1.13824122e-01f,
	-8.39599222e-02f,-1.95959762e-01f,+9.13879741e-03f,-1.05118208e-01f,+7.40424469e-02f,
	-2.10801475e-02f,-1.07587032e-01f,+1.14676148e-01f,+1.19603358e-01f,-1.80771887e-01f,
	-1.30652070e-01f,+1.27742916e-01f,-1.47690788e-01f,+3.50782648e-02f,+3.39330435e-02f,
	+1.72224134e-01f,-1.74129128e-01f,+6.95195943e-02f,-1.64677873e-02f,+1.61227409e-03f,
	-2.43434221e-01f,-9.09670314e-04f,+4.73651923e-02f,+2.22476739e-02f,+4.45043743e-02f,
	+1.95440561e-01f,-1.43718153e-01f,+1.17557324e-01f,+9.24115181e-02f,-9.27339047e-02f,
	+9.53280181e-02f,+1.95061386e-01f,+1.10896796e-01f,-1.27625808e-01f,-2.21083447e-01f,
	+9.77931768e-02f,+4.17361110e-02f,-2.09512301e-02f,+2.17826422e-02f,+3.87066901e-02f,
	+2.29217634e-02f,+4.47130501e-02f,+1.38453722e-01f,+5.79153486e-02f,-7.54547194e-02f,
	-1.67628720e-01f,+1.59998499e-02f,-9.21933353e-02f,+2.11179808e-01f,+1.38933316e-01f,
	-1.34871632e-01f,+3.08800023e-02f,+1.67090565e-01f,+6.42634109e-02f,+1.52637184e-01f,
	+2.19810251e-02f,-2.00072750e-01f,-1.55368611e-01f,+9.06678662e-02f,-3.61808874e-02f,
	+6.53638765e-02f,-8.93918946e-02f,+1.37492135e-01f,+1.59374699e-01f,-7.91366771e-03f,
	+3.57967876e-02f,+8.62902477e-02f,+7.27501288e-02f,+1.48591906e-01f,-9.32533145e-02f,
	-1.55559659e-01f,+1.21649653e-01f,+6.54113293e-02f,-1.41253725e-01f,-1.22758433e-01f,
	+2.15383414e-02f,-3.53458188e-02f,-1.49832079e-02f,+8.52067769e-02f,+7.37287328e-02f,
	-1.52379021e-01f,+5.63577339e-02f,-6.33410588e-02f,+2.21975800e-02f,-2.12876961e-01f,
	-1.08650185e-01f,-7.87073001e-02f,+1.02300435e-01f,+1.21601231e-01f,+1.87520489e-01f,
	-1.97497591e-01f,-3.63761410e-02f,+8.93262029e-02f,-2.49631256e-02f,+1.73298255e-01f,
	+6.50316328e-02f,+1.19170658e-01f,-8.94286856e-02f,-7.93169066e-02f,-2.96828300e-02f,
	+1.08105652e-01f,-2.74287276e-02f,+3.58265080e-02f,+8.22321847e-02f,-7.95683861e-02f,
	+4.00719270e-02f,+7.76738599e-02f,-1.39061227e-01f,-1.37615353e-01f,-7.68551752e-02f,
	-6.71802759e-02f,-1.39657959e-01f,+9.60733071e-02f,+1.70228496e-01f,-1.51033163e-01f,
	+4.02455069e-02f,-9.19384230e-03f,+1.39018102e-02f,+4.55653705e-02f,-1.10444292e-01f,
	-1.78226873e-01f,-1.55628070e-01f,+3.68306041e-02f,-4.05479930e-02f,+2.18415662e-04f,
	-9.91430134e-02f,+1.19734101e-01f,+5.47374710e-02f,-4.23499681e-02f,-8.12724009e-02f,
	+9.97837782e-02f,-1.29290540e-02f,+1.12454474e-01f,-1.00101739e-01f,-2.57914037e-01f,
	+5.92743373e-03f,-8.22778940e-02f,-1.62013382e-01f,-1.09278731e-01f,-6.85192049e-02f,
	+7.16674626e-02f,-3.87719199e-02f,-9.98925492e-02f,+1.62660982e-02f,-1.65448591e-01f,
	-1.63286373e-01f,+1.29279271e-02f,-7.75576681e-02f,-2.23911062e-01f,+2.54567545e-02f,
	-3.20803956e-04f,+4.32977118e-02f,+7.87478462e-02f,-2.16739718e-02f,-1.68774873e-01f,
	+1.06998853e-01f,-1.35599924e-02f,-1.22851124e-02f,+3.90294418e-02f,+8.70499853e-03f,
	+9.48884040e-02f,-1.46419466e-01f,-1.15582965e-01f,-6.36978224e-02f,-2.82246731e-02f,
	-3.07477582e-02f,+8.94873403e-03f,-3.93328443e-02f,-1.23646103e-01f,-6.72826637e-03f,
	-1.26931652e-01f,-8.58969167e-02f,-4.31792960e-02f,-1.01338856e-01f,-1.88961059e-01f,
	+1.17752953e-02f,-4.28298078e-02f,+5.33058718e-02f,-8.46984163e-02f,+1.71428263e-01f,
	+3.38424705e-02f,+1.79044008e-01f,+5.39997369e-02f,-6.91049024e-02f,-1.53863877e-01f,
	-9.20351222e-02f,-5.07865008e-03f,+6.77261641e-03f,+3.66528034e-02f,-3.26635838e-02f,
	-1.73825063e-02f,+1.07200406e-01f,+4.24031578e-02f,+2.45096050e-02f,+1.12207033e-01f,
	+2.67597400e-02f,-2.46369354e-02f,+1.03459306e-01f,-1.15786918e-01f,+1.48834929e-01f,
	-1.03432909e-01f,-4.72033620e-01f,-1.66689336e-01f,+2.92732380e-02f,+1.80832699e-01f,
	+1.84293583e-01f,+2.27354571e-01f,-9.54638794e-02f,-5.06168902e-02f,-3.15541655e-01f,
	-8.06027502e-02f,-4.17977609e-02f,-1.59274831e-01f,+2.08230149e-02f,+9.39717423e-03f,
	-4.83954772e-02f,+1.10076675e-02f,+8.58886987e-02f,+3.98128433e-03f,+8.68646661e-04f,
	-1.23771451e-01f,-2.41915867e-01f,+2.92877816e-02f,+7.50055828e-04f,-2.45941907e-01f,
	+2.44295344e-01f,+2.82153822e-02f,+1.17827989e-02f,+1.10581405e-01f,-8.54243860e-02f,
	+3.14499885e-02f,+1.27829179e-01f,-9.87786278e-02f,+1.77630549e-03f,-1.16476506e-01f,
	+1.03693688e-02f,+2.09717989e-01f,-8.76212195e-02f,+5.61083257e-02f,+2.35103160e-01f,
	+1.09903306e-01f,+1.37283280e-01f,-1.29232675e-01f,-3.13420407e-02f,-7.63103738e-02f,
	+1.23573594e-01f,+7.32975174e-03f,-1.55953556e-01f,+1.46565244e-01f,-1.84316278e-01f,
	-2.88984291e-02f,+1.04148842e-01f,+1.56189114e-01f,-9.75768641e-02f,-4.33718041e-02f,
	-4.04824615e-02f,+1.07227713e-01f,-7.21805245e-02f,-1.45755365e-01f,+4.23683450e-02f,
	+9.14077535e-02f,+3.91159691e-02f,-6.22041561e-02f,-4.07711975e-02f,+8.06882605e-02f,
	-1.45881772e-02f,-7.01446831e-02f,-2.27877162e-02f,+6.60940558e-02f,+7.12134168e-02f,
	+7.99367353e-02f,+8.98814127e-02f,-1.85461819e-01f,+1.02132738e-01f,+3.44199799e-02f,
	-4.24313582e-02f,-5.22472076e-02f,-8.36617053e-02f,+8.98237824e-02f,+1.18824288e-01f,
	-4.33795527e-02f,+8.12432766e-02f,-1.73341468e-01f,+1.41244620e-01f,+1.10287666e-01f,
	+3.79291400e-02f,+5.79586886e-02f,-6.11808477e-03f,+5.73097169e-02f,-8.04336220e-02f,
	+2.37061735e-02f,-6.88462928e-02f,-2.91826501e-02f,-1.07686101e-02f,-8.92498493e-02f,
	-8.26908201e-02f,-9.37848762e-02f,+1.06062390e-01f,+1.91025175e-02f,-3.14828679e-02f,
	-1.46688381e-02f,-2.33533278e-01f,-1.94755942e-01f,-1.80932805e-01f,+2.05283798e-02f,
	+1.12633973e-01f,-1.18550278e-01f,-9.69347358e-03f,-8.13406929e-02f,+1.55663043e-02f,
	+1.76043689e-01f,-6.91925660e-02f,-5.83105050e-02f,-2.14006886e-01f,-1.14819758e-01f,
	-8.55824798e-02f,+1.47779629e-01f,+6.52851686e-02f,+5.64041659e-02f,+1.22365296e-01f,
	-5.03782108e-02f,+3.55301909e-02f,+7.58651569e-02f,+7.98257887e-02f,+5.79263410e-03f,
	+6.49357885e-02f,-2.45815516e-01f,+5.06040864e-02f,+3.87776047e-02f,+2.70944275e-02f,
	+3.49136531e-01f,+3.80660780e-02f,-1.89991638e-01f,-9.79032554e-03f,+3.71778384e-02f,
	+1.85205951e-01f,-3.37539971e-01f,+6.29267143e-03f,-2.47770801e-01f,-1.52414262e-01f,
	-6.64439648e-02f,-1.72078326e-01f,-1.15964040e-01f,-2.21422359e-01f,+1.09391063e-01f,
	+1.62199184e-01f,+2.47578189e-01f,-1.47805363e-01f,+2.01767966e-01f,+3.88360888e-01f,
	+1.67352811e-01f,+1.66894346e-01f,-7.57532939e-02f,+2.98055410e-01f,-1.26505703e-01f,
	+2.07720891e-01f,+6.98507938e-05f,+5.19342981e-02f,-1.12676779e-02f,+1.69593275e-01f,
	+1.11578897e-01f,+5.63592575e-02f,+2.62782216e-01f,+1.36142969e-01f,+2.81871229e-01f,
	-1.47895887e-01f,-2.94487923e-01f,+1.66331500e-01f,-8.67404193e-02f,+1.66004479e-01f,
	-2.51155138e-01f,+3.63861650e-01f,+1.38646930e-01f,-2.77317554e-01f,+4.53362837e-02f,
	+1.35874495e-01f,+1.95616573e-01f,-2.04012841e-01f,-2.29897629e-02f,-1.70515090e-01f,
	+1.53287828e-01f,-1.25175670e-01f,+2.03348711e-01f,+6.50249645e-02f,-7.46404678e-02f,
	-8.81079584e-02f,+2.70747125e-01f,+1.68900698e-01f,+7.63734579e-02f,+1.43444970e-01f,
	+2.44193614e-01f,-6.13232329e-02f,+9.52413008e-02f,-1.63546234e-01f,+9.19223800e-02f,
	+1.61750048e-01f,+4.82178070e-02f,+8.71793851e-02f,-1.05545051e-01f,-2.16966107e-01f,
	-1.06843941e-01f,+5.31533584e-02f,+1.30676791e-01f,-1.81751456e-02f,-9.08342823e-02f,
	-1.41272005e-02f,+2.93226629e-01f,+4.37019169e-02f,-1.95178062e-01f,-2.09886238e-01f,
	-3.25453371e-01f,+1.10180177e-01f,-2.52453715e-01f,+2.05671545e-02f,-4.06377226e-01f,
	+8.18020701e-02f,+5.95995400e-04f,-5.84504418e-02f,+2.44239241e-01f,-4.49340999e-01f,
	-3.49727534e-02f,-1.18734889e-01f,+1.72397330e-01f,-7.46793672e-02f,+1.07194103e-01f,
	+9.00416598e-02f,-3.69302332e-02f,+3.00657898e-01f,+1.65288210e-01f,-1.16271511e-01f,
	+8.16725846e-03f,-2.25447774e-01f,-2.99329441e-02f,-1.33587196e-01f,-1.07669253e-02f,
	+6.43968815e-03f,-2.08587691e-01f,+9.56586450e-02f,+3.58209610e-02f,-2.60705173e-01f,
	-2.52247989e-01f,+5.14054745e-02f,-2.57832199e-01f,-6.60873279e-02f,-2.71724045e-01f,
	+2.95637637e-01f,-9.47599560e-02f,+5.29194884e-02f,-5.79605103e-01f,-1.02541372e-01f,
	-3.02202404e-01f,-2.52234280e-01f,-4.19632196e-02f,-9.40237567e-02f,-5.27042560e-02f,
	+9.90576148e-02f,+1.37184113e-01f,-1.69887155e-01f,-1.60450861e-02f,+1.65586278e-01f,
	-7.13194981e-02f,+1.94970425e-02f,+7.43706524e-02f,+2.54816562e-01f,-1.95227966e-01f,
	+1.01842694e-01f,-1.29952356e-02f,-5.26375920e-02f,-1.51070625e-01f,-1.00560516e-01f,
	+1.83501005e-01f,-5.53090274e-02f,+9.44560021e-02f,+1.69287041e-01f,-2.08115965e-01f,
	+5.10708056e-02f,+3.85843851e-02f,-6.95153847e-02f,+1.03849575e-01f,+2.39423588e-01f,
	+1.67809635e-01f,-1.81967318e-01f,-1.93296015e-01f,+2.82859951e-02f,+1.31055146e-01f,
	-2.59370916e-02f,+7.30730817e-02f,+8.58971030e-02f,-3.10683455e-02f,+2.17655469e-02f,
	+8.05943534e-02f,+1.98529158e-02f,+4.77530435e-02f,-1.70201585e-01f,+9.84660834e-02f,
	-5.61906584e-02f,+9.88035500e-02f,+1.49747282e-01f,-5.95462397e-02f,-5.66686206e-02f,
