#include <math.h> 
#include <string.h> 
#include "./include/k2c_include.h" 
#include "./include/k2c_tensor_include.h" 
#ifndef SPIKE
#include "printf.h"
#else
#include "util.h"
#include <stdio.h>
#include <stdlib.h>
#endif

void simplenet(k2c_tensor* conv2d_input_input, k2c_tensor* conv2d_output) { 

size_t conv2d_stride[2] = {1,1}; 
size_t conv2d_dilation[2] = {1,1}; 
float conv2d_padded_input_array[3468] = {0}; 
k2c_tensor conv2d_padded_input = {&conv2d_padded_input_array[0],3,3468,{34,34, 3, 1, 1}}; 
size_t conv2d_pad[4] = {1,1,1,1}; 
float conv2d_fill = 0.0f; 
float conv2d_kernel_array[432] = {
-1.45071849e-01f,+1.39129221e-01f,-1.68696761e-01f,+6.79908097e-02f,+7.06603825e-02f,
+1.64650232e-02f,+1.87061578e-02f,-1.77073300e-01f,+4.02415097e-02f,-7.12422654e-02f,
+9.14906561e-02f,-8.69790688e-02f,-6.61018640e-02f,+1.57042444e-01f,-6.07858151e-02f,
+4.10849601e-02f,-1.29363447e-01f,-1.72420368e-01f,-1.17084660e-01f,-5.54170310e-02f,
-1.59978926e-01f,+1.71757519e-01f,+8.93780589e-02f,+1.66227788e-01f,-6.82935119e-04f,
+1.53222322e-01f,+1.69813961e-01f,+4.50109690e-02f,+7.76965916e-03f,+1.59064025e-01f,
+5.50770313e-02f,-2.48438567e-02f,+5.75393140e-02f,+9.35570598e-02f,-1.58324718e-01f,
-8.59662890e-04f,-1.29820362e-01f,-1.75327048e-01f,-8.53419304e-03f,-1.14544764e-01f,
+1.63796842e-02f,+8.13279450e-02f,-6.12597018e-02f,-1.16945453e-01f,+4.71372157e-02f,
-6.90957755e-02f,-8.04699361e-02f,-1.04798973e-02f,-5.99074513e-02f,+1.36730552e-01f,
+1.35026276e-01f,-1.75868109e-01f,+1.09997451e-01f,-1.43889755e-01f,+2.51269341e-03f,
+1.02181822e-01f,-9.34309959e-02f,+1.86093122e-01f,+5.87168634e-02f,+4.71197516e-02f,
-1.62872121e-01f,+1.59201294e-01f,+5.51178604e-02f,+1.59312814e-01f,+7.62549043e-02f,
+8.03494453e-02f,+9.49153006e-02f,+7.35088885e-02f,-1.59057409e-01f,-7.72815347e-02f,
-3.14896405e-02f,+3.85385454e-02f,+1.43678278e-01f,+3.99618000e-02f,-1.65046483e-01f,
+8.15131366e-02f,+1.54179513e-01f,+1.43909752e-01f,+6.89883530e-03f,+1.21310055e-02f,
-5.70103675e-02f,-1.13427460e-01f,+1.74745530e-01f,+1.06129467e-01f,-3.15112621e-02f,
-4.58990633e-02f,-1.60657525e-01f,+9.35016572e-02f,-1.02937073e-01f,-1.76856026e-01f,
-4.78776842e-02f,+8.17707777e-02f,+2.96428204e-02f,-1.41638488e-01f,+1.45271420e-04f,
-7.41920918e-02f,-2.92743295e-02f,-6.90294579e-02f,+9.25803185e-02f,-1.75769776e-02f,
-1.42795265e-01f,+1.12340182e-01f,+1.18712604e-01f,+5.82915694e-02f,+7.95997381e-02f,
+4.61274981e-02f,+7.91225135e-02f,+3.61010879e-02f,-1.73045561e-01f,-1.79606587e-01f,
+1.42150372e-01f,+7.93592930e-02f,-1.01475269e-01f,-9.13106799e-02f,-1.59502178e-01f,
-4.78660762e-02f,+8.02937150e-02f,-1.23592585e-01f,-6.97291866e-02f,-8.64238590e-02f,
-1.33853868e-01f,+6.93069398e-02f,-7.91157559e-02f,-1.69061989e-01f,+1.70310289e-01f,
-8.65113884e-02f,-8.91788825e-02f,+2.47903168e-03f,-1.23094365e-01f,+7.28277862e-03f,
+1.49852604e-01f,-9.98264700e-02f,-4.61257249e-02f,+1.60227060e-01f,-1.55386150e-01f,
+3.25085670e-02f,-2.73053199e-02f,-3.39691192e-02f,+1.42391056e-01f,-1.63865134e-01f,
-3.20176631e-02f,+2.75519788e-02f,+3.92005742e-02f,-3.77503783e-02f,-1.65144369e-01f,
+5.21989167e-03f,+7.10356236e-02f,-4.34468836e-02f,+1.78152204e-01f,-1.72389597e-01f,
+1.74841464e-01f,-1.75270468e-01f,+7.33991265e-02f,-3.55279297e-02f,-1.51859432e-01f,
+1.15056336e-01f,-8.36398527e-02f,-2.03276575e-02f,+3.63696367e-02f,+3.66364270e-02f,
-1.76631078e-01f,+1.45917892e-01f,+2.19011605e-02f,-1.34399980e-02f,+1.08263135e-01f,
-4.80770469e-02f,-1.06668994e-01f,-7.83067420e-02f,+1.10409260e-01f,-1.76036611e-01f,
-3.20470482e-02f,+1.26676172e-01f,+1.09431833e-01f,-7.75639191e-02f,+6.19974881e-02f,
+1.45759165e-01f,-8.04919973e-02f,-8.20026174e-02f,+1.59954011e-01f,-1.25054270e-01f,
+5.00743240e-02f,+1.27919316e-01f,+1.16218835e-01f,+9.42622423e-02f,+2.55357176e-02f,
-1.52114719e-01f,+5.04097193e-02f,+5.71901202e-02f,+1.62723452e-01f,+1.22176915e-01f,
-1.02263786e-01f,-1.65562779e-02f,+2.28051692e-02f,+5.17518818e-03f,+8.19170177e-02f,
+4.35327142e-02f,+7.63577223e-03f,-1.36127636e-01f,-7.52795190e-02f,+1.11123592e-01f,
+1.37583196e-01f,+1.30289912e-01f,-1.32645413e-01f,+8.87297392e-02f,+3.41831148e-03f,
-1.33192092e-01f,-1.40967920e-01f,+1.56321496e-01f,+2.03000158e-02f,+2.17205584e-02f,
+1.84634268e-01f,+1.18837833e-01f,+2.09196806e-02f,-1.78110749e-01f,+7.51127899e-02f,
-9.98240113e-02f,-8.96549597e-02f,-1.77430317e-01f,+3.19245905e-02f,+2.92902291e-02f,
+1.70511007e-02f,-4.86353785e-02f,-1.57543123e-02f,+1.47680879e-01f,-1.29257426e-01f,
-7.28062093e-02f,+1.63429469e-01f,-8.99988338e-02f,-3.77649814e-02f,+1.49471164e-01f,
+6.01980090e-03f,-1.82233214e-01f,+7.93280602e-02f,-9.72217247e-02f,+9.46539938e-02f,
-1.06085688e-01f,+6.14614338e-02f,-2.64763087e-02f,+8.96767080e-02f,-1.52219221e-01f,
-1.37161195e-01f,-1.03244156e-01f,+1.33745670e-02f,+1.86037034e-01f,+1.75803185e-01f,
+4.08449918e-02f,+6.08943403e-02f,-2.08478570e-02f,+1.86094820e-01f,+1.65670246e-01f,
+1.31986648e-01f,+7.68061280e-02f,-1.79095566e-02f,+9.80597734e-02f,-8.87483358e-04f,
-7.07361326e-02f,+8.76633823e-02f,-7.56756067e-02f,-2.10392326e-02f,+7.54117966e-03f,
-1.99918151e-02f,+1.02306515e-01f,+1.56383485e-01f,-8.54745209e-02f,-1.12877876e-01f,
-6.10297918e-02f,-1.88521892e-02f,+1.00492388e-02f,+1.19102567e-01f,+8.84833038e-02f,
+1.65489376e-01f,+1.40578270e-01f,-1.60990417e-01f,-1.49370685e-01f,-1.73418373e-01f,
-6.35497719e-02f,+5.09581417e-02f,-1.78056449e-01f,-8.26457664e-02f,+9.48414505e-02f,
-7.44149461e-02f,-1.18326426e-01f,+2.48082578e-02f,+7.20516741e-02f,+4.25855666e-02f,
+1.20950520e-01f,+1.14789635e-01f,+7.97873139e-02f,+1.14573091e-01f,+5.61829954e-02f,
-1.64772719e-01f,-7.92586282e-02f,+9.76792574e-02f,-1.37917250e-01f,-4.82565314e-02f,
+1.41023159e-01f,-8.90348554e-02f,+1.02486998e-01f,-1.63554177e-01f,-1.59150034e-01f,
+1.58369690e-01f,+1.44548178e-01f,+1.48633152e-01f,-1.11187547e-01f,-1.74897119e-01f,
+1.50410444e-01f,+3.91135365e-02f,-1.60465091e-01f,-1.24679297e-01f,+1.74500048e-01f,
+2.82251835e-02f,-1.26402542e-01f,-4.05675322e-02f,-3.99892777e-02f,+1.56300277e-01f,
-5.17608225e-03f,-1.05214059e-01f,+1.13358647e-01f,+1.67907536e-01f,+1.00985020e-02f,
-2.85223126e-02f,+1.23345166e-01f,-1.81453362e-01f,-5.15480042e-02f,+1.41789883e-01f,
+1.31986946e-01f,-4.14416492e-02f,+1.02568507e-01f,-8.58466327e-03f,-1.24094121e-01f,
+4.95056659e-02f,-2.99973786e-02f,-2.26378292e-02f,+1.68042272e-01f,+1.76852405e-01f,
-1.81888402e-01f,-1.24667019e-01f,+4.20491695e-02f,-1.07895844e-01f,-1.14045061e-01f,
-1.61680147e-01f,-6.90438822e-02f,+1.18923485e-01f,+8.26244652e-02f,-1.56025231e-01f,
+2.49816328e-02f,-8.63837078e-02f,-2.23962218e-02f,+1.16212308e-01f,+1.98709965e-03f,
+8.88298750e-02f,-1.59341842e-01f,-2.17607617e-02f,-1.45127863e-01f,+3.70056778e-02f,
-1.28341317e-01f,-1.69796377e-01f,-9.43409428e-02f,+9.59603488e-02f,-7.40778446e-03f,
-8.31041560e-02f,+1.77431107e-02f,+4.97950166e-02f,-1.45982683e-01f,-1.61262274e-01f,
+8.66312683e-02f,+8.10606182e-02f,+1.15553886e-02f,-1.77467242e-01f,+1.53132528e-01f,
-7.71113336e-02f,-1.26039416e-01f,+1.66087627e-01f,+1.25861615e-01f,+1.63160324e-01f,
+6.79366291e-03f,+1.15740478e-01f,+8.16373527e-03f,+8.02047849e-02f,-1.02779783e-01f,
-1.51049361e-01f,+8.81520212e-02f,-1.69897750e-01f,-1.40986457e-01f,+4.74467129e-02f,
+4.37127501e-02f,-6.66383207e-02f,+1.02901131e-01f,-1.78686082e-02f,+5.13309687e-02f,
-1.51959062e-03f,+8.47116113e-02f,-1.18399315e-01f,-1.63828745e-01f,-1.07784994e-01f,
+1.03769302e-01f,+8.01760256e-02f,-1.73344105e-01f,-1.86489969e-01f,-3.87582630e-02f,
+9.01199579e-02f,-3.31841707e-02f,+1.51502043e-01f,-1.31391361e-01f,+1.78487897e-01f,
-1.64941102e-02f,-3.11602801e-02f,-1.75005138e-01f,-1.37154281e-01f,+1.39950246e-01f,
-1.47860140e-01f,+3.29886973e-02f,+1.83764994e-01f,-1.24541879e-01f,+4.38539088e-02f,
-1.81030884e-01f,-4.00777012e-02f,+1.78111732e-01f,+1.18257165e-01f,-1.07737705e-01f,
+1.19304836e-01f,-3.55796516e-03f,+2.85563320e-02f,-6.21839911e-02f,+1.63027108e-01f,
+1.44760787e-01f,-1.68755710e-01f,-1.30987599e-01f,+1.13317519e-01f,-1.09431118e-01f,
-3.63696814e-02f,-8.68232474e-02f,}; 
k2c_tensor conv2d_kernel = {&conv2d_kernel_array[0],4,432,{ 3, 3, 3,16, 1}}; 
float conv2d_bias_array[16] = {0}; 
k2c_tensor conv2d_bias = {&conv2d_bias_array[0],1,16,{16, 1, 1, 1, 1}}; 

 
k2c_pad2d(&conv2d_padded_input,conv2d_input_input,conv2d_fill, 
	conv2d_pad); 
k2c_conv2d(conv2d_output,&conv2d_padded_input,&conv2d_kernel, 
	&conv2d_bias,conv2d_stride,conv2d_dilation,k2c_relu); 

 } 

void simplenet_initialize() { 

} 

void simplenet_terminate() { 

} 